%YAML:1.0
my_svm: !!opencv-ml-svm
   svm_type: C_SVC
   kernel: { type:RBF, gamma:5.0625000000000009e-001 }
   C: 3.1250000000000000e+002
   term_criteria: { epsilon:2.2204460492503131e-016, iterations:100 }
   var_all: 1500
   var_count: 1500
   class_count: 3
   class_labels: !!opencv-matrix
      rows: 1
      cols: 3
      dt: i
      data: [ 1, 2, 3 ]
   sv_total: 55
   support_vectors:
      - [ 0., 0., 0., 0., 0., 0., 0., 0., 0., 0., 0., 2.43902430e-002,
          0., 0., 0., 0., 0., 0., 0., 0., 0., 0., 0., 0., 0., 0., 0., 0.,
          0., 0., 0., 0., 2.43902430e-002, 0., 2.43902430e-002, 0., 0.,
          2.43902430e-002, 0., 0., 0., 0., 0., 2.43902430e-002, 0., 0.,
          0., 0., 0., 0., 0., 0., 0., 0., 0., 0., 0., 0., 0., 0., 0., 0.,
          0., 0., 0., 2.43902430e-002, 0., 0., 0., 0., 0., 0., 0., 0.,
          0., 0., 0., 0., 0., 0., 0., 0., 0., 0., 0., 0., 0., 0., 0., 0.,
          0., 0., 0., 0., 0., 0., 0., 2.43902430e-002, 0., 0., 0., 0.,
          0., 0., 0., 0., 0., 0., 0., 0., 0., 0., 0., 0., 0., 0., 0., 0.,
          0., 0., 0., 0., 0., 2.43902430e-002, 0., 0., 0., 0., 0., 0.,
          0., 0., 0., 0., 0., 0., 0., 0., 0., 0., 0., 0., 0., 0., 0., 0.,
          0., 0., 0., 0., 0., 0., 0., 0., 0., 0., 0., 0., 0., 0., 0., 0.,
          0., 0., 0., 0., 0., 0., 0., 0., 0., 0., 0., 0., 0., 0., 0., 0.,
          0., 0., 0., 0., 0., 0., 0., 0., 0., 0., 0., 0., 0., 0., 0., 0.,
          0., 0., 0., 0., 0., 0., 0., 0., 0., 0., 0., 0., 0., 0., 0., 0.,
          0., 0., 0., 0., 0., 0., 0., 0., 2.43902430e-002, 0., 0., 0.,
          0., 0., 0., 0., 0., 0., 0., 0., 0., 0., 0., 0., 0., 0., 0., 0.,
          0., 0., 0., 0., 0., 0., 0., 0., 0., 0., 0., 0., 0., 0., 0., 0.,
          0., 0., 0., 0., 0., 0., 0., 0., 0., 0., 0., 2.43902430e-002,
          0., 0., 0., 0., 0., 0., 0., 0., 0., 0., 0., 0., 0., 0., 0., 0.,
          0., 4.87804860e-002, 0., 0., 0., 0., 2.43902430e-002, 0., 0.,
          0., 0., 0., 0., 0., 0., 0., 0., 0., 0., 0., 0., 0., 0., 0., 0.,
          0., 0., 0., 0., 0., 0., 0., 0., 0., 0., 0., 0., 0., 0.,
          2.43902430e-002, 0., 0., 0., 0., 0., 0., 0., 0., 0., 0., 0.,
          0., 0., 0., 0., 0., 0., 0., 0., 0., 0., 0., 0., 0., 0., 0., 0.,
          0., 0., 2.43902430e-002, 0., 0., 0., 0., 0., 0., 0., 0., 0.,
          0., 0., 0., 2.43902430e-002, 0., 0., 0., 0., 0., 0., 0., 0.,
          0., 0., 0., 0., 0., 0., 0., 0., 0., 0., 0., 0., 0., 0., 0., 0.,
          0., 0., 0., 0., 0., 0., 0., 0., 0., 0., 0., 0., 0., 0., 0., 0.,
          0., 0., 0., 2.43902430e-002, 0., 0., 0., 0., 0.,
          2.43902430e-002, 0., 0., 0., 0., 0., 0., 0., 0., 0., 0., 0.,
          0., 0., 0., 0., 0., 0., 0., 0., 0., 0., 0., 0., 0., 0., 0., 0.,
          0., 0., 2.43902430e-002, 0., 0., 0., 0., 0., 0., 0., 0., 0.,
          0., 0., 0., 0., 0., 0., 0., 0., 0., 0., 0., 0., 0., 0., 0., 0.,
          0., 0., 0., 0., 0., 0., 0., 2.43902430e-002, 0., 0., 0., 0.,
          0., 2.43902430e-002, 2.43902430e-002, 0., 0., 0., 0., 0., 0.,
          0., 0., 0., 0., 0., 0., 0., 0., 0., 0., 0., 0., 0., 0., 0., 0.,
          0., 0., 0., 0., 0., 0., 0., 0., 0., 0., 0., 0., 0., 0., 0., 0.,
          0., 0., 0., 0., 0., 0., 0., 0., 0., 0., 0., 2.43902430e-002,
          0., 0., 0., 0., 0., 0., 0., 0., 0., 0., 0., 0., 0., 0., 0., 0.,
          0., 0., 0., 0., 0., 0., 0., 0., 0., 0., 0., 0., 0., 0., 0., 0.,
          0., 0., 0., 0., 0., 0., 0., 0., 0., 0., 0., 0., 0., 0., 0., 0.,
          0., 2.43902430e-002, 2.43902430e-002, 0., 0., 0., 0., 0., 0.,
          0., 0., 0., 0., 0., 0., 0., 0., 0., 0., 0., 0., 0., 0., 0., 0.,
          0., 0., 0., 0., 0., 0., 0., 0., 0., 0., 0., 0., 0., 0., 0., 0.,
          0., 0., 0., 0., 0., 0., 0., 0., 0., 0., 0., 0., 0., 0., 0., 0.,
          0., 0., 0., 0., 0., 0., 0., 0., 0., 0., 0., 0., 0., 0., 0., 0.,
          0., 0., 0., 0., 2.43902430e-002, 0., 0., 0., 0., 0., 0., 0.,
          0., 0., 0., 0., 0., 0., 0., 0., 0., 0., 0., 0., 0., 0., 0., 0.,
          0., 0., 0., 0., 0., 0., 0., 0., 0., 0., 0., 0., 0., 0., 0., 0.,
          0., 0., 0., 0., 0., 0., 0., 0., 0., 0., 0., 0., 0., 0., 0., 0.,
          0., 0., 0., 0., 0., 0., 0., 0., 0., 0., 0., 0., 0., 0., 0., 0.,
          0., 0., 0., 0., 0., 0., 0., 0., 0., 0., 0., 0., 0., 0., 0., 0.,
          0., 0., 0., 0., 0., 0., 0., 0., 0., 0., 0., 0., 0., 0., 0., 0.,
          0., 0., 0., 0., 0., 0., 0., 0., 0., 0., 0., 0., 0., 0., 0., 0.,
          0., 0., 0., 0., 0., 0., 0., 0., 0., 0., 0., 0., 0., 0., 0., 0.,
          0., 0., 0., 0., 0., 0., 0., 0., 2.43902430e-002, 0., 0., 0.,
          2.43902430e-002, 0., 0., 0., 0., 0., 0., 0., 0., 0., 0., 0.,
          0., 0., 0., 0., 0., 0., 0., 0., 0., 0., 0., 0., 0., 0., 0., 0.,
          0., 0., 0., 0., 0., 2.43902430e-002, 0., 0., 0., 0., 0., 0.,
          0., 2.43902430e-002, 0., 0., 0., 0., 0., 0., 0., 0., 0., 0.,
          0., 0., 0., 0., 0., 4.87804860e-002, 0., 0., 0., 0., 0., 0.,
          0., 0., 0., 0., 0., 0., 0., 0., 0., 0., 0., 0., 0., 0., 0., 0.,
          0., 0., 0., 0., 0., 2.43902430e-002, 0., 0., 0., 0., 0., 0.,
          0., 0., 0., 2.43902430e-002, 0., 0., 0., 0., 0., 0., 0., 0.,
          0., 0., 0., 0., 0., 0., 0., 0., 0., 0., 0., 2.43902430e-002,
          0., 0., 0., 0., 0., 0., 0., 0., 0., 2.43902430e-002, 0., 0.,
          0., 0., 0., 0., 0., 0., 0., 0., 0., 0., 0., 0., 0., 0., 0., 0.,
          0., 0., 0., 0., 0., 0., 0., 0., 0., 0., 0., 0., 0., 0., 0., 0.,
          0., 0., 0., 0., 0., 0., 0., 0., 0., 0., 0., 0., 0., 0., 0., 0.,
          0., 0., 0., 0., 0., 0., 0., 0., 0., 0., 0., 0., 0., 0., 0., 0.,
          0., 0., 0., 0., 0., 0., 0., 0., 0., 0., 0., 0., 0., 0., 0., 0.,
          0., 0., 0., 0., 0., 0., 0., 0., 0., 0., 0., 0., 0., 0., 0., 0.,
          0., 0., 0., 0., 0., 0., 0., 0., 0., 0., 0., 0., 0., 0., 0., 0.,
          0., 0., 0., 0., 0., 0., 0., 0., 0., 0., 0., 0., 0., 0., 0., 0.,
          0., 0., 0., 0., 0., 0., 0., 0., 0., 0., 0., 0., 0., 0., 0., 0.,
          0., 0., 0., 0., 0., 0., 0., 0., 0., 0., 0., 0., 0., 0., 0., 0.,
          0., 0., 0., 0., 0., 0., 0., 0., 0., 0., 0., 0., 0., 0., 0., 0.,
          0., 0., 0., 0., 0., 0., 0., 0., 0., 0., 0., 0., 0., 0., 0., 0.,
          2.43902430e-002, 0., 0., 0., 0., 0., 0., 0., 0., 0., 0., 0.,
          0., 0., 0., 0., 0., 0., 0., 0., 0., 0., 0., 0., 0., 0., 0., 0.,
          0., 0., 0., 0., 0., 0., 0., 0., 0., 0., 0., 0., 0., 0., 0., 0.,
          0., 0., 0., 0., 0., 0., 0., 0., 0., 0., 0., 0., 0., 0., 0., 0.,
          0., 0., 0., 0., 0., 0., 0., 0., 0., 0., 0., 0., 0., 0., 0., 0.,
          0., 2.43902430e-002, 0., 0., 0., 0., 0., 0., 0., 0., 0., 0.,
          0., 0., 0., 0., 0., 0., 0., 0., 0., 0., 0., 0., 0., 0., 0., 0.,
          0., 0., 2.43902430e-002, 0., 0., 0., 0., 0., 0., 0., 0., 0.,
          0., 0., 0., 0., 0., 0., 0., 0., 0., 0., 0., 2.43902430e-002,
          0., 0., 0., 0., 0., 0., 0., 0., 0., 0., 0., 0., 0., 0., 0., 0.,
          0., 0., 0., 0., 0., 0., 0., 0., 0., 0., 0., 0., 0., 0., 0., 0.,
          0., 0., 0., 0., 0., 0., 0., 0., 0., 0., 0., 0., 0., 0., 0., 0.,
          0., 0., 0., 0., 0., 0., 2.43902430e-002, 0., 0., 0., 0., 0.,
          0., 0., 0., 0., 0., 0., 0., 0., 0., 0., 0., 0., 0., 0., 0., 0.,
          0., 0., 0., 0., 0., 0., 0., 0., 0., 0., 0., 0., 0., 0., 0., 0.,
          0., 0., 0., 0., 0., 0., 0., 0., 0., 0., 0., 0., 0., 0., 0., 0.,
          0., 0., 0., 0., 0., 0., 0., 0., 0., 0., 0., 0., 0., 0., 0., 0.,
          0., 0., 0., 0., 0., 0., 0., 0., 0., 0., 0., 0., 0., 0., 0., 0.,
          0., 0., 0., 0., 0., 0., 0., 0., 0., 0., 0., 0., 0., 0., 0., 0.,
          0., 0., 0., 0., 0., 0., 0., 0., 0., 0., 0., 0., 0., 0., 0., 0.,
          0., 0., 0., 0., 0., 0., 0., 0., 0., 0., 0., 0., 0., 0., 0., 0.,
          0., 0., 0., 0., 0., 0., 0., 0., 0., 0., 0., 0., 0., 0., 0., 0.,
          0., 0., 0., 0., 0., 0., 0., 0., 0., 0., 0., 0., 0., 0., 0., 0.,
          0., 0., 0., 0., 0., 0., 0., 0., 0., 0., 0., 0., 0., 0., 0., 0.,
          0., 0., 0., 0., 0., 0., 0., 0. ]
      - [ 0., 0., 8.81057233e-003, 0., 0., 0., 0., 0., 0., 0., 0., 0.,
          0., 4.40528616e-003, 0., 0., 0., 0., 0., 4.40528616e-003, 0.,
          8.81057233e-003, 0., 0., 4.40528616e-003, 0., 0.,
          4.40528616e-003, 0., 4.40528616e-003, 0., 0., 0., 0., 0., 0.,
          0., 8.81057233e-003, 0., 0., 0., 0., 4.40528616e-003, 0., 0.,
          0., 4.40528616e-003, 0., 0., 0., 0., 0., 0., 0.,
          4.40528616e-003, 0., 0., 0., 8.81057233e-003, 0., 0., 0., 0.,
          0., 0., 0., 0., 0., 0., 0., 0., 0., 0., 0., 0., 0., 0., 0., 0.,
          0., 2.64317170e-002, 0., 0., 0., 0., 8.81057233e-003, 0.,
          3.08370031e-002, 4.40528616e-003, 0., 0., 4.40528616e-003, 0.,
          0., 0., 0., 0., 0., 0., 0., 0., 0., 4.40528616e-003, 0., 0.,
          0., 0., 0., 0., 0., 0., 0., 8.81057233e-003, 0., 0., 0., 0.,
          0., 8.81057233e-003, 0., 0., 0., 0., 0., 0., 0., 0., 0., 0.,
          0., 0., 0., 0., 0., 0., 0., 0., 0., 0., 0., 0., 0., 0., 0., 0.,
          0., 0., 0., 0., 0., 0., 0., 0., 0., 4.40528616e-003, 0., 0.,
          0., 0., 0., 0., 0., 0., 1.32158585e-002, 0., 0., 0., 0.,
          4.40528616e-003, 0., 0., 0., 0., 0., 4.40528616e-003, 0., 0.,
          0., 4.40528616e-003, 0., 4.40528616e-003, 0., 0., 0.,
          4.40528616e-003, 0., 0., 0., 0., 0., 0., 0., 0., 0., 0., 0.,
          0., 0., 0., 0., 0., 0., 0., 0., 1.32158585e-002, 0., 0., 0.,
          0., 0., 0., 0., 0., 0., 0., 4.40528616e-003, 0., 0., 0., 0.,
          0., 0., 0., 0., 0., 0., 0., 0., 0., 0., 0., 0., 0., 0., 0., 0.,
          0., 4.40528616e-003, 8.81057233e-003, 0., 0., 0., 0., 0., 0.,
          0., 0., 0., 0., 0., 0., 0., 0., 0., 0., 0., 0., 0., 0.,
          4.40528616e-003, 0., 0., 1.32158585e-002, 0., 0., 0., 0., 0.,
          0., 0., 0., 4.40528616e-003, 0., 0., 0., 0., 0., 0., 0.,
          4.40528616e-003, 0., 0., 0., 0., 0., 0., 0., 0., 0., 0., 0.,
          0., 0., 0., 0., 0., 8.81057233e-003, 0., 0., 0., 0., 0., 0.,
          0., 0., 0., 0., 0., 0., 0., 0., 0., 4.40528616e-003, 0., 0.,
          0., 0., 0., 4.40528616e-003, 0., 0., 0., 0., 0., 0., 0., 0.,
          0., 0., 0., 0., 4.40528616e-003, 0., 0., 0., 4.40528616e-003,
          0., 0., 0., 0., 0., 0., 0., 4.40528616e-003, 0., 0., 0., 0.,
          1.76211447e-002, 4.40528616e-003, 0., 0., 0., 0., 0., 0., 0.,
          0., 4.40528616e-003, 1.32158585e-002, 0., 0., 0., 0., 0., 0.,
          1.76211447e-002, 0., 0., 0., 0., 0., 4.40528616e-003, 0., 0.,
          1.32158585e-002, 0., 0., 0., 0., 0., 0., 0., 0.,
          4.40528616e-003, 0., 0., 0., 0., 0., 0., 0., 0., 0., 0., 0.,
          0., 0., 0., 4.40528616e-003, 0., 0., 0., 0., 0., 0., 0., 0.,
          0., 0., 4.40528616e-003, 0., 0., 0., 0., 0., 0., 0., 0., 0.,
          4.40528616e-003, 4.40528616e-003, 0., 0., 0., 0., 0., 0., 0.,
          0., 0., 0., 0., 0., 0., 4.40528616e-003, 0., 0., 0., 0., 0.,
          0., 0., 0., 4.40528616e-003, 0., 0., 4.40528616e-003, 0., 0.,
          4.40528616e-003, 0., 0., 0., 0., 0., 0., 0., 0., 0., 0., 0.,
          0., 0., 4.40528616e-003, 0., 0., 0., 0., 0., 0., 0., 0., 0.,
          0., 0., 0., 0., 0., 8.81057233e-003, 0., 0., 0.,
          4.40528616e-003, 0., 0., 0., 0., 0., 4.40528616e-003,
          8.81057233e-003, 0., 0., 4.40528616e-003, 4.40528616e-003, 0.,
          0., 0., 0., 0., 4.40528616e-003, 0., 0., 0., 4.40528616e-003,
          0., 0., 0., 0., 0., 0., 0., 0., 0., 0., 0., 0., 0., 0.,
          8.81057233e-003, 0., 0., 0., 0., 4.40528616e-003, 0., 0., 0.,
          0., 0., 4.40528616e-003, 0., 0., 0., 0., 0., 0., 0., 0.,
          4.40528616e-003, 0., 0., 0., 0., 0., 0., 4.40528616e-003,
          4.40528616e-003, 0., 0., 0., 0., 4.40528616e-003, 0.,
          3.52422893e-002, 0., 4.40528616e-003, 0., 0., 0., 0., 0., 0.,
          0., 0., 0., 0., 0., 0., 0., 0., 0., 0., 0., 0., 0., 0., 0., 0.,
          0., 0., 0., 0., 0., 0., 0., 0., 0., 0., 1.32158585e-002, 0.,
          0., 0., 0., 0., 2.20264308e-002, 0., 0., 0., 0., 0., 0., 0.,
          0., 8.81057233e-003, 0., 0., 0., 0., 0., 0., 0., 0., 0., 0.,
          0., 0., 0., 0., 0., 0., 0., 0., 0., 0., 0., 0., 0., 0., 0., 0.,
          0., 0., 0., 0., 0., 0., 0., 0., 4.40528616e-003, 0., 0., 0.,
          0., 0., 0., 0., 0., 0., 0., 0., 4.40528616e-003, 0., 0.,
          4.40528616e-003, 0., 0., 0., 0., 0., 0., 0., 0., 0.,
          4.40528616e-003, 4.40528616e-003, 0., 0., 0., 0.,
          4.40528616e-003, 0., 0., 0., 0., 0., 0., 0., 0., 0., 0., 0.,
          0., 0., 0., 0., 4.40528616e-003, 0., 0., 0., 4.40528616e-003,
          0., 4.40528616e-003, 0., 0., 0., 0., 0., 0., 0., 0., 0., 0.,
          0., 0., 0., 0., 0., 0., 0., 0., 0., 0., 0., 0., 0., 0.,
          4.40528616e-003, 0., 0., 0., 0., 0., 0., 0., 0., 0., 0., 0.,
          0., 0., 0., 0., 0., 0., 0., 0., 0., 0., 0., 0., 0., 0.,
          4.40528616e-003, 0., 0., 0., 0., 0., 0., 0., 0., 0., 0., 0.,
          0., 0., 0., 0., 0., 0., 0., 0., 0., 0., 0., 0., 0., 0., 0., 0.,
          0., 0., 0., 0., 4.40528616e-003, 0., 0., 0., 0., 0., 0., 0.,
          0., 0., 0., 0., 0., 0., 4.40528616e-003, 0., 0., 0., 0.,
          4.40528616e-003, 0., 0., 0., 0., 0., 0., 0., 4.40528616e-003,
          0., 0., 0., 0., 0., 0., 0., 0., 4.40528616e-003, 0.,
          4.40528616e-003, 0., 0., 0., 0., 0., 0., 0., 0., 0., 0., 0.,
          0., 0., 0., 0., 0., 0., 0., 0., 0., 0., 0., 0., 0., 0., 0., 0.,
          0., 0., 0., 0., 0., 0., 0., 0., 0., 0., 0., 0.,
          4.40528616e-003, 4.40528616e-003, 0., 0., 0., 0., 0., 0., 0.,
          0., 0., 0., 0., 0., 0., 0., 0., 0., 0., 0., 0., 0.,
          4.40528616e-003, 0., 0., 0., 0., 0., 0., 0., 0., 0., 0., 0.,
          0., 0., 0., 0., 0., 4.40528616e-003, 0., 0., 0.,
          4.40528616e-003, 0., 0., 4.40528616e-003, 0., 0., 0.,
          4.40528616e-003, 0., 0., 0., 0., 0., 0., 0., 0., 0., 0., 0.,
          0., 0., 0., 0., 0., 0., 4.40528616e-003, 0., 0., 0., 0., 0.,
          4.40528616e-003, 0., 0., 0., 0., 0., 0., 0., 4.40528616e-003,
          0., 0., 0., 0., 0., 0., 0., 0., 0., 0., 0., 0.,
          4.40528616e-003, 0., 0., 0., 0., 0., 0., 0., 0., 0., 0., 0.,
          0., 8.81057233e-003, 0., 0., 0., 0., 0., 0., 4.40528616e-003,
          0., 0., 0., 0., 0., 0., 4.40528616e-003, 0., 1.32158585e-002,
          0., 0., 4.40528616e-003, 0., 0., 0., 0., 0., 0., 0., 0., 0.,
          0., 0., 0., 0., 0., 0., 0., 0., 0., 0., 0., 0., 0., 0., 0.,
          4.40528616e-003, 0., 0., 0., 0., 0., 0., 0., 0., 0., 0., 0.,
          0., 8.81057233e-003, 0., 0., 0., 0., 0., 0., 0., 0., 0., 0.,
          0., 0., 0., 0., 4.40528616e-003, 0., 0., 0., 4.40528616e-003,
          0., 0., 0., 0., 0., 0., 0., 0., 0., 0., 4.40528616e-003,
          4.40528616e-003, 0., 0., 0., 8.81057233e-003, 0., 0., 0., 0.,
          0., 0., 0., 0., 0., 0., 0., 0., 0., 0., 0., 0., 0., 0., 0., 0.,
          0., 0., 0., 0., 0., 0., 0., 0., 0., 0., 0., 8.81057233e-003,
          0., 0., 4.40528616e-003, 0., 0., 0., 0., 0., 0., 0., 0., 0.,
          0., 4.40528616e-003, 0., 0., 0., 0., 4.40528616e-003, 0., 0.,
          0., 0., 0., 0., 0., 0., 0., 4.40528616e-003, 0., 0.,
          4.40528616e-003, 0., 0., 0., 0., 0., 0., 0., 0., 0., 0., 0.,
          0., 0., 0., 0., 0., 4.40528616e-003, 0., 0., 0., 0., 0., 0.,
          0., 0., 0., 0., 0., 0., 0., 0., 0., 4.40528616e-003, 0., 0.,
          2.20264308e-002, 0., 0., 0., 8.81057233e-003, 0., 0., 0., 0.,
          4.40528616e-003, 0., 0., 8.81057233e-003, 0., 0., 0., 0., 0.,
          0., 0., 0., 0., 0., 0., 0., 0., 0., 0., 0., 0., 0., 0., 0., 0.,
          0., 0., 1.32158585e-002, 0., 0., 0., 0., 0., 0., 0., 0., 0.,
          0., 0., 0., 4.40528616e-003, 0., 0., 0., 0., 0., 0., 0., 0.,
          0., 0., 0., 0., 0., 0., 4.40528616e-003, 0., 0., 0., 0.,
          4.40528616e-003, 0., 0., 0., 0., 0., 0., 0., 0., 0., 0., 0.,
          0., 0., 0., 0., 0., 0., 0., 0., 0., 0., 4.40528616e-003, 0.,
          0., 0., 0., 0., 0., 0., 0., 0., 0., 0., 1.76211447e-002, 0.,
          0., 0., 0., 0., 0., 0., 0., 4.40528616e-003, 0., 0.,
          4.40528616e-003, 0., 0., 0., 0., 0., 0., 0., 0., 0., 0., 0.,
          0., 0., 0., 0., 0., 0., 0., 0., 0., 0., 0., 0., 0., 0., 0., 0.,
          4.40528616e-003, 4.40528616e-003, 0., 0., 4.40528616e-003, 0.,
          4.40528616e-003, 0., 0., 0., 0., 0., 0., 0., 4.40528616e-003,
          0., 0., 0., 0., 0., 0., 0., 0., 0., 0., 0., 0., 0., 0., 0., 0.,
          0., 0., 0., 0., 4.40528616e-003, 0., 4.40528616e-003, 0., 0.,
          0., 0., 0., 0., 0., 0., 0., 0., 0., 0., 0., 0., 0., 0.,
          4.40528616e-003, 0., 0., 0., 0., 0., 0., 4.40528616e-003, 0.,
          0., 0., 0., 0., 0., 0., 0., 0., 0., 0., 0., 0., 0., 0., 0., 0.,
          0., 0., 0., 0., 2.20264308e-002, 4.40528616e-003, 0., 0., 0.,
          0., 0., 0., 0., 0., 0., 0., 0., 0., 0., 0., 0., 0., 0., 0., 0.,
          0., 0., 4.40528616e-003, 0., 0., 0., 0., 0., 0., 0., 0., 0.,
          0., 0., 0., 0., 0., 0., 0., 0., 0., 0., 0., 0., 0., 0., 0., 0.,
          0., 0., 0., 0., 0., 0., 0., 0., 0., 0., 0., 0., 0., 0., 0., 0.,
          0., 0., 0., 0., 0., 0., 0., 0., 0., 0., 0., 0., 0., 0.,
          4.40528616e-003, 0., 0., 0., 0., 0., 0., 0., 4.40528616e-003,
          0., 0., 0., 0., 0., 0., 0., 0., 0., 0., 0., 0., 0., 0., 0., 0.,
          0., 0., 0., 4.40528616e-003, 0., 0., 0., 0., 0., 0., 0., 0.,
          0., 0., 0., 0., 0. ]
      - [ 0., 0., 0., 0., 0., 0., 0., 0., 0., 0., 0., 5.64971752e-003,
          0., 0., 0., 0., 0., 0., 1.69491526e-002, 0., 0., 0., 0.,
          5.64971752e-003, 0., 0., 0., 0., 0., 0., 0., 0., 0., 0.,
          5.64971752e-003, 0., 0., 0., 0., 0., 0., 0., 0.,
          5.64971752e-003, 0., 0., 0., 0., 0., 0., 0., 5.64971752e-003,
          0., 0., 0., 0., 0., 0., 5.64971752e-003, 5.64971752e-003, 0.,
          0., 0., 0., 0., 0., 0., 0., 0., 0., 0., 0., 0., 0., 0., 0., 0.,
          0., 1.12994350e-002, 0., 0., 0., 0., 0., 0., 5.64971752e-003,
          0., 0., 0., 0., 0., 0., 0., 0., 0., 0., 0., 0., 0., 0., 0., 0.,
          0., 0., 0., 0., 0., 0., 0., 0., 5.64971752e-003, 0.,
          1.12994350e-002, 0., 0., 0., 0., 0., 0., 0., 0., 0., 0.,
          5.64971752e-003, 0., 0., 0., 0., 0., 0., 0., 0., 0., 0., 0.,
          0., 0., 0., 0., 0., 0., 0., 0., 5.64971752e-003, 0., 0.,
          5.64971752e-003, 0., 0., 0., 0., 0., 0., 0., 0., 0., 0., 0.,
          0., 0., 0., 0., 0., 0., 0., 0., 0., 0., 0., 0.,
          5.64971752e-003, 0., 0., 0., 0., 0., 0., 0., 5.64971752e-003,
          0., 0., 0., 0., 0., 0., 0., 1.12994350e-002, 0., 0., 0., 0.,
          0., 0., 0., 0., 2.25988701e-002, 0., 0., 0., 0., 0., 0., 0.,
          0., 1.12994350e-002, 0., 0., 0., 0., 0., 0., 0., 0., 0.,
          5.64971752e-003, 0., 0., 0., 0., 0., 0., 0., 0., 0., 0., 0.,
          0., 0., 0., 0., 0., 5.64971752e-003, 0., 0., 0., 0., 0., 0.,
          5.64971752e-003, 0., 0., 0., 0., 0., 0., 0., 0., 0., 0., 0.,
          0., 0., 0., 5.64971752e-003, 0., 0., 0., 0., 5.64971752e-003,
          0., 0., 0., 0., 0., 0., 0., 0., 0., 0., 0., 0., 0., 0., 0., 0.,
          0., 0., 0., 0., 0., 0., 0., 0., 0., 0., 0., 0., 0.,
          5.64971752e-003, 0., 0., 0., 0., 0., 0., 0., 0., 0., 0., 0.,
          0., 0., 0., 0., 0., 0., 5.64971752e-003, 0., 0., 0., 0., 0.,
          0., 0., 0., 0., 0., 5.64971752e-003, 5.64971752e-003, 0., 0.,
          0., 0., 0., 0., 0., 0., 5.64971752e-003, 0., 0.,
          2.25988701e-002, 0., 0., 0., 0., 0., 0., 0., 0., 0., 0., 0.,
          0., 0., 0., 5.64971752e-003, 0., 5.64971752e-003, 0., 0., 0.,
          5.64971752e-003, 5.64971752e-003, 0., 0., 0., 0., 0., 0.,
          1.12994350e-002, 0., 0., 1.12994350e-002, 2.25988701e-002, 0.,
          0., 0., 0., 0., 5.64971752e-003, 0., 0., 0., 0.,
          1.69491526e-002, 0., 0., 0., 0., 0., 0., 0., 0., 0., 0., 0.,
          0., 5.64971752e-003, 0., 0., 0., 0., 0., 0., 0., 0., 0., 0.,
          0., 0., 0., 5.64971752e-003, 0., 0., 0., 0., 0., 0., 0., 0.,
          0., 0., 0., 0., 0., 0., 0., 0., 0., 0., 0., 0., 0., 0., 0., 0.,
          0., 0., 0., 0., 0., 0., 0., 0., 0., 0., 0., 1.12994350e-002,
          0., 0., 0., 0., 0., 0., 0., 0., 0., 0., 0., 0., 0., 0., 0.,
          5.64971752e-003, 0., 0., 5.64971752e-003, 0., 0.,
          5.64971752e-003, 0., 0., 5.64971752e-003, 0., 0., 0., 0., 0.,
          0., 5.64971752e-003, 5.64971752e-003, 0., 0., 0., 0., 0., 0.,
          0., 0., 0., 0., 0., 0., 0., 0., 0., 0., 0., 0., 0., 0., 0., 0.,
          0., 0., 5.64971752e-003, 0., 0., 0., 0., 0., 0., 0., 0.,
          5.64971752e-003, 0., 0., 0., 0., 0., 0., 0., 0., 0., 0., 0.,
          0., 0., 0., 0., 0., 0., 1.12994350e-002, 0., 0., 0., 0., 0.,
          0., 0., 0., 5.64971752e-003, 0., 0., 0., 0., 0., 0., 0., 0.,
          0., 0., 0., 0., 0., 0., 0., 0., 0., 0., 0., 0., 0., 0., 0., 0.,
          0., 0., 5.64971752e-003, 0., 0., 0., 5.64971752e-003, 0., 0.,
          0., 5.64971752e-003, 0., 0., 5.64971752e-003, 0., 0., 0., 0.,
          1.69491526e-002, 0., 0., 0., 0., 0., 0., 0., 5.64971752e-003,
          0., 0., 0., 0., 0., 0., 0., 0., 0., 0., 0., 0., 0., 0., 0., 0.,
          0., 0., 0., 0., 0., 0., 0., 0., 0., 1.12994350e-002, 0., 0.,
          0., 0., 0., 0., 0., 0., 0., 0., 0., 0., 0., 0., 0., 0., 0., 0.,
          0., 0., 0., 0., 0., 0., 5.64971752e-003, 0., 0., 0., 0., 0.,
          1.12994350e-002, 0., 0., 0., 0., 5.64971752e-003, 0., 0., 0.,
          0., 0., 0., 0., 0., 0., 0., 0., 5.64971752e-003, 0., 0., 0.,
          0., 0., 0., 0., 0., 0., 0., 0., 0., 0., 0., 0., 0., 0., 0., 0.,
          0., 0., 0., 0., 0., 0., 0., 0., 0., 0., 0., 0., 0.,
          1.12994350e-002, 0., 5.64971752e-003, 0., 0., 0., 0., 0., 0.,
          0., 0., 0., 0., 0., 0., 0., 0., 0., 0., 0., 0.,
          1.12994350e-002, 0., 0., 0., 0., 0., 0., 5.64971752e-003, 0.,
          0., 0., 0., 0., 0., 0., 1.12994350e-002, 0., 0., 0., 0., 0.,
          1.69491526e-002, 5.64971752e-003, 0., 0., 0., 0., 0., 0., 0.,
          0., 0., 0., 0., 0., 0., 0., 0., 0., 0., 0., 0., 0., 0., 0., 0.,
          0., 0., 0., 0., 0., 0., 0., 5.64971752e-003, 0., 0., 0., 0.,
          0., 0., 0., 0., 0., 0., 0., 0., 0., 0., 0., 0., 0.,
          5.64971752e-003, 0., 0., 0., 0., 0., 0., 0., 0., 0., 0.,
          5.64971752e-003, 0., 0., 0., 0., 0., 0., 0., 0., 0., 0., 0.,
          0., 0., 0., 0., 0., 0., 0., 0., 0., 0., 0., 0., 0., 0., 0., 0.,
          5.64971752e-002, 0., 0., 0., 0., 0., 0., 0., 0., 0.,
          5.64971752e-003, 0., 5.64971752e-003, 0., 0., 0., 0., 0., 0.,
          0., 0., 0., 0., 0., 0., 0., 0., 0., 0., 0., 0., 0., 0., 0., 0.,
          0., 5.64971752e-003, 0., 0., 0., 0., 0., 0., 0., 0., 0.,
          5.64971752e-003, 0., 0., 0., 0., 0., 0., 0., 0., 0., 0., 0.,
          0., 0., 0., 0., 0., 0., 0., 0., 0., 0., 0., 0., 0., 0., 0., 0.,
          0., 0., 0., 0., 0., 0., 0., 1.12994350e-002, 0., 0., 0., 0.,
          0., 0., 0., 0., 0., 0., 0., 0., 0., 0., 0., 0., 0., 0., 0., 0.,
          0., 0., 0., 0., 0., 0., 0., 0., 0., 0., 0., 0., 0., 0., 0., 0.,
          0., 0., 0., 5.64971752e-003, 5.64971752e-003, 0., 0., 0., 0.,
          0., 0., 0., 0., 0., 0., 0., 0., 5.64971752e-003, 0., 0., 0.,
          0., 0., 0., 1.69491526e-002, 0., 0., 5.64971752e-003, 0., 0.,
          0., 0., 5.64971752e-003, 0., 0., 0., 0., 0., 0., 0., 0., 0.,
          0., 0., 0., 0., 0., 0., 0., 0., 0., 0., 0., 0., 0., 0., 0., 0.,
          0., 0., 0., 1.12994350e-002, 0., 0., 0., 0., 0., 0., 0., 0.,
          0., 0., 0., 0., 0., 0., 2.25988701e-002, 0., 0., 0., 0., 0.,
          0., 0., 0., 0., 0., 0., 0., 0., 0., 0., 0., 0., 0., 0., 0., 0.,
          0., 0., 0., 0., 0., 0., 0., 0., 0., 0., 0., 0., 0., 0., 0., 0.,
          0., 0., 0., 0., 0., 0., 0., 0., 0., 0., 0., 0., 0., 0., 0., 0.,
          0., 0., 0., 0., 0., 0., 0., 5.64971752e-003, 0., 0., 0., 0.,
          0., 0., 5.64971752e-003, 0., 0., 0., 0., 0., 0., 0., 0., 0.,
          0., 0., 0., 0., 0., 0., 0., 5.64971752e-003, 0.,
          1.69491526e-002, 0., 0., 0., 0., 0., 0., 0., 0., 0., 0., 0.,
          0., 0., 0., 0., 5.64971752e-003, 0., 0., 0., 0., 0., 0., 0.,
          0., 0., 0., 5.64971752e-003, 0., 0., 0., 0., 0., 0., 0., 0.,
          0., 0., 0., 0., 0., 0., 0., 0., 0., 0., 0., 0., 0., 0., 0., 0.,
          0., 0., 0., 0., 0., 0., 0., 0., 0., 0., 0., 0., 0., 0., 0., 0.,
          0., 0., 0., 0., 0., 0., 0., 1.69491526e-002, 0., 0., 0., 0.,
          0., 0., 0., 0., 0., 1.12994350e-002, 0., 0., 0., 0., 0., 0.,
          0., 0., 0., 0., 0., 0., 0., 0., 0., 0., 0., 0., 0., 0., 0., 0.,
          0., 0., 0., 0., 0., 0., 0., 0., 0., 0., 0., 0., 0., 0., 0., 0.,
          0., 0., 0., 0., 0., 0., 0., 0., 0., 0., 0., 0., 0., 0., 0., 0.,
          0., 0., 0., 0., 0., 0., 0., 0., 0., 0., 0., 0., 0., 0., 0.,
          5.64971752e-003, 0., 0., 0., 0., 0., 0., 0., 0., 0., 0., 0.,
          0., 0., 0., 0., 0., 0., 0., 0., 0., 0., 0., 0., 0., 0., 0., 0.,
          0., 0., 0., 0., 0., 0., 0., 0., 0., 0., 0., 0.,
          5.64971752e-003, 0., 1.12994350e-002, 0., 0., 0., 0., 0.,
          5.64971752e-003, 0., 0., 0., 0., 0., 0., 0., 0., 0., 0., 0.,
          0., 0., 0., 0., 0., 0., 0., 0., 0., 0., 5.64971752e-003,
          1.12994350e-002, 0., 0., 0., 0., 0., 0., 0., 0., 0., 0., 0.,
          0., 0., 0., 0., 0., 0., 5.64971752e-003, 0., 0., 0., 0., 0.,
          0., 0., 0., 5.64971752e-003, 0., 0., 0., 0., 0., 0., 0., 0.,
          0., 0., 0., 0., 0., 0., 0., 0., 0., 0., 0., 0., 0., 0., 0., 0.,
          0., 0., 0., 0., 0., 0., 0., 0., 1.12994350e-002, 0., 0., 0.,
          0., 0., 0., 0., 0., 5.64971752e-003, 5.64971752e-003, 0., 0.,
          0., 0., 0., 0., 0., 0., 0., 0., 0., 0., 1.69491526e-002, 0.,
          0., 0., 0., 0., 0., 0., 0., 0., 0., 0., 0., 0., 0., 0., 0., 0.,
          0., 0., 0., 0., 0., 0., 0., 5.64971752e-003, 0., 0., 0., 0.,
          0., 2.82485876e-002, 0., 0., 0., 0., 0., 0., 0., 0., 0., 0.,
          0., 0., 0., 0., 0., 0., 0., 0., 0., 0., 0., 0., 0., 0., 0., 0.,
          0., 0., 0., 0., 0., 0., 0., 0., 0., 0., 0., 0., 0., 0., 0., 0.,
          0., 5.64971752e-003, 0., 0., 0., 1.12994350e-002, 0., 0., 0.,
          0., 0., 0., 2.25988701e-002, 0., 0., 0. ]
      - [ 0., 0., 0., 0., 0., 0., 9.34579410e-003, 0., 9.34579410e-003,
          0., 0., 0., 0., 0., 0., 0., 0., 0., 9.34579410e-003, 0., 0.,
          0., 1.86915882e-002, 0., 0., 0., 0., 0., 0., 0.,
          9.34579410e-003, 0., 9.34579410e-003, 0., 9.34579410e-003, 0.,
          0., 0., 0., 0., 0., 0., 0., 0., 0., 0., 0., 0., 0., 0., 0., 0.,
          0., 9.34579410e-003, 0., 9.34579410e-003, 0., 0., 0., 0., 0.,
          0., 0., 0., 0., 0., 0., 0., 0., 0., 0., 0., 0., 0., 0., 0., 0.,
          0., 0., 0., 0., 0., 0., 0., 0., 0., 0., 0., 0., 0., 0., 0., 0.,
          0., 0., 0., 0., 0., 9.34579410e-003, 0., 0., 0., 0., 0.,
          2.80373823e-002, 0., 0., 0., 0., 0., 0., 0., 0.,
          7.47663528e-002, 0., 1.86915882e-002, 0., 0., 0., 0., 0., 0.,
          0., 9.34579410e-003, 0., 0., 0., 0., 0., 0., 0.,
          9.34579410e-003, 9.34579410e-003, 1.86915882e-002, 0.,
          9.34579410e-003, 0., 0., 0., 0., 0., 0., 0., 9.34579410e-003,
          0., 0., 0., 0., 0., 0., 0., 1.86915882e-002, 0., 0., 0., 0.,
          0., 0., 0., 0., 0., 0., 0., 0., 0., 0., 0., 0., 0., 0., 0., 0.,
          0., 0., 0., 0., 0., 0., 0., 0., 0., 0., 0., 0., 0., 0., 0., 0.,
          0., 0., 0., 0., 9.34579410e-003, 0., 0., 9.34579410e-003, 0.,
          0., 0., 0., 0., 1.86915882e-002, 0., 0., 0., 0., 0., 0., 0.,
          0., 0., 0., 9.34579410e-003, 0., 0., 9.34579410e-003, 0., 0.,
          0., 0., 0., 0., 0., 0., 0., 0., 0., 0., 0., 0., 0., 0., 0., 0.,
          0., 0., 0., 0., 0., 0., 0., 0., 0., 0., 0., 0., 0., 0.,
          9.34579410e-003, 0., 0., 0., 0., 0., 0., 0., 0., 0., 0., 0.,
          0., 0., 0., 0., 0., 0., 0., 0., 0., 0., 0., 0., 0., 0., 0., 0.,
          0., 0., 0., 9.34579410e-003, 0., 0., 0., 0., 0.,
          9.34579410e-003, 0., 0., 0., 0., 0., 0., 0., 0., 0., 0., 0.,
          0., 0., 0., 0., 0., 0., 0., 0., 0., 0., 9.34579410e-003, 0.,
          0., 0., 0., 0., 0., 0., 0., 0., 0., 0., 0., 0., 0., 0., 0., 0.,
          0., 0., 0., 0., 0., 9.34579410e-003, 0., 0., 0., 0., 0., 0.,
          0., 9.34579410e-003, 0., 0., 0., 0., 0., 0., 0., 0., 0.,
          9.34579410e-003, 0., 0., 9.34579410e-003, 1.86915882e-002, 0.,
          0., 0., 0., 0., 0., 0., 0., 0., 0., 0., 0., 0., 0., 0., 0.,
          9.34579410e-003, 0., 0., 0., 0., 0., 0., 0., 0., 0., 0.,
          2.80373823e-002, 0., 0., 0., 0., 0., 0., 0., 0., 0., 0., 0.,
          0., 0., 0., 0., 0., 0., 0., 0., 1.86915882e-002,
          9.34579410e-003, 0., 0., 0., 0., 0., 0., 0., 4.67289686e-002,
          0., 0., 0., 0., 0., 0., 0., 0., 0., 0., 0., 0., 0., 0., 0., 0.,
          0., 0., 0., 0., 0., 0., 0., 0., 0., 0., 0., 9.34579410e-003,
          0., 0., 0., 0., 0., 0., 0., 0., 0., 0., 0., 0., 0., 0.,
          9.34579410e-003, 0., 0., 0., 0., 0., 0., 0., 0., 0., 0., 0.,
          0., 0., 0., 9.34579410e-003, 0., 0., 0., 0., 0., 0., 0., 0.,
          0., 9.34579410e-003, 0., 0., 0., 0., 0., 0., 0., 0., 0., 0.,
          0., 0., 0., 0., 0., 0., 0., 0., 0., 0., 0., 0., 0., 0., 0., 0.,
          9.34579410e-003, 0., 0., 0., 0., 0., 0., 0., 0., 0.,
          4.67289686e-002, 0., 0., 0., 0., 0., 0., 9.34579410e-003, 0.,
          0., 0., 0., 0., 0., 0., 0., 0., 0., 0., 0., 0., 0., 0.,
          1.86915882e-002, 0., 0., 9.34579410e-003, 0., 0., 0., 0., 0.,
          0., 0., 0., 0., 0., 0., 0., 0., 0., 0., 0., 9.34579410e-003,
          0., 0., 0., 0., 0., 0., 0., 0., 0., 0., 0., 0., 0., 0., 0., 0.,
          9.34579410e-003, 0., 0., 0., 0., 0., 0., 0., 9.34579410e-003,
          0., 0., 9.34579410e-003, 0., 0., 0., 0., 0., 0., 0., 0., 0.,
          0., 0., 0., 0., 0., 0., 0., 0., 0., 0., 0., 0., 0., 0., 0., 0.,
          0., 0., 0., 0., 0., 0., 0., 0., 0., 0., 0., 0., 0., 0., 0., 0.,
          0., 0., 0., 0., 0., 0., 0., 0., 0., 0., 0., 0., 0., 0., 0., 0.,
          0., 0., 0., 0., 0., 0., 0., 0., 0., 0., 0., 0., 0., 0., 0., 0.,
          0., 0., 0., 0., 0., 0., 0., 0., 0., 0., 0., 0., 0., 0., 0., 0.,
          0., 0., 0., 0., 0., 0., 0., 0., 0., 0., 0., 0., 0., 0., 0., 0.,
          0., 0., 0., 0., 0., 0., 0., 0., 0., 0., 0., 0., 0., 0., 0., 0.,
          0., 0., 0., 0., 0., 0., 0., 0., 0., 0., 0., 0., 0., 0., 0., 0.,
          0., 0., 0., 0., 0., 0., 0., 0., 0., 9.34579410e-003, 0.,
          9.34579410e-003, 0., 0., 0., 0., 0., 9.34579410e-003, 0., 0.,
          0., 0., 0., 0., 0., 0., 0., 0., 0., 0., 0., 0., 0., 0., 0., 0.,
          0., 9.34579410e-003, 0., 0., 0., 0., 0., 0., 0., 0., 0., 0.,
          0., 0., 0., 0., 0., 0., 0., 0., 0., 0., 0., 0., 0.,
          9.34579410e-003, 0., 0., 0., 0., 0., 0., 0., 0., 0., 0., 0.,
          0., 0., 0., 0., 0., 0., 0., 0., 0., 0., 0., 0., 0., 0., 0., 0.,
          0., 9.34579410e-003, 0., 0., 0., 0., 0., 0., 0., 0., 0., 0.,
          0., 0., 0., 0., 0., 0., 0., 0., 0., 0., 0., 0., 0., 0., 0., 0.,
          0., 0., 0., 0., 0., 0., 0., 0., 0., 0., 0., 0., 0., 0., 0., 0.,
          0., 0., 0., 0., 0., 0., 0., 0., 0., 0., 0., 0., 0., 0., 0., 0.,
          0., 0., 0., 0., 0., 0., 0., 0., 0., 0., 0., 0., 0.,
          9.34579410e-003, 0., 0., 0., 0., 0., 0., 0., 0., 0.,
          9.34579410e-003, 0., 0., 0., 0., 0., 0., 0., 0., 0., 0., 0.,
          0., 0., 0., 0., 0., 0., 0., 0., 0., 0., 0., 0., 0., 0., 0., 0.,
          0., 0., 0., 0., 0., 0., 9.34579410e-003, 0., 0., 0., 0., 0.,
          0., 0., 0., 0., 0., 0., 0., 0., 0., 0., 0., 0., 0., 0., 0., 0.,
          0., 0., 0., 0., 0., 0., 0., 0., 0., 0., 0., 0., 0., 0., 0.,
          9.34579410e-003, 0., 0., 0., 0., 0., 0., 0., 0., 0., 0., 0.,
          0., 0., 0., 0., 0., 0., 0., 0., 0., 0., 9.34579410e-003, 0.,
          0., 0., 0., 0., 0., 0., 0., 0., 0., 0., 0., 0., 0., 0., 0., 0.,
          0., 0., 0., 0., 0., 0., 0., 0., 0., 0., 0., 0., 0., 0., 0., 0.,
          0., 0., 0., 0., 0., 0., 0., 0., 0., 0., 0., 0., 0., 0., 0., 0.,
          0., 0., 0., 0., 0., 0., 0., 0., 0., 2.80373823e-002, 0., 0.,
          0., 0., 0., 0., 0., 0., 0., 0., 0., 0., 0., 0., 0., 0., 0., 0.,
          0., 0., 0., 0., 0., 0., 0., 0., 0., 0., 0., 0., 0., 0., 0., 0.,
          0., 0., 0., 0., 0., 0., 0., 0., 0., 0., 0., 0., 0., 0., 0., 0.,
          0., 0., 0., 0., 0., 0., 9.34579410e-003, 0., 0., 0., 0., 0.,
          0., 0., 0., 0., 0., 0., 0., 0., 0., 0., 0., 0., 0., 0., 0., 0.,
          0., 0., 9.34579410e-003, 0., 0., 0., 0., 0., 0., 0., 0., 0.,
          0., 0., 0., 0., 0., 0., 0., 0., 0., 0., 0., 0., 0., 0., 0., 0.,
          0., 0., 0., 0., 0., 0., 0., 0., 0., 0., 0., 0., 0., 0., 0., 0.,
          0., 0., 0., 0., 0., 0., 0., 0., 0., 0., 0., 0., 0., 0., 0., 0.,
          0., 0., 0., 0., 0., 0., 0., 0., 0., 0., 0., 0., 0., 0., 0., 0.,
          0., 0., 0., 9.34579410e-003, 0., 0., 0., 0., 0., 0., 0., 0.,
          0., 0., 0., 0., 0., 0., 0., 0., 0., 0., 0., 0., 0., 0., 0., 0.,
          0., 9.34579410e-003, 0., 0., 1.86915882e-002, 0., 0., 0., 0.,
          0., 0., 0., 0., 0., 0., 0., 0., 0., 0., 0., 0.,
          1.86915882e-002, 0., 0., 0., 0., 0., 0., 0., 0., 0., 0., 0.,
          0., 0., 0., 0., 0., 0., 0., 0., 0., 0., 0., 0., 0., 0., 0., 0.,
          0., 0., 0., 0., 0., 0., 0., 0., 0., 0., 0., 0., 0., 0., 0., 0.,
          0., 0., 0., 0., 0., 0., 0., 0., 0., 0., 0., 0., 0., 0., 0., 0.,
          0., 0., 0., 0., 0., 9.34579410e-003, 0., 0., 0., 0., 0., 0.,
          0., 0., 0., 0., 0., 0., 0., 0., 0., 0., 0., 0., 0., 0., 0., 0.,
          0., 0., 0., 0., 0., 0., 0., 0., 0., 0., 0., 0., 0., 0., 0., 0.,
          0., 0., 0., 0., 0., 9.34579410e-003, 0., 9.34579410e-003, 0.,
          0., 0., 0., 0., 0., 0., 0., 0., 0., 9.34579410e-003, 0., 0.,
          0., 0., 0., 0., 0., 0., 0., 0., 0., 0., 0., 0., 0., 0., 0., 0.,
          0., 0., 1.86915882e-002, 0., 0., 0., 0., 0., 0., 0., 0., 0.,
          0., 0., 0., 0., 0., 0., 0., 0., 0., 0., 0., 0., 0., 0., 0., 0.,
          0., 0., 0., 0., 0., 0., 0., 0., 0., 0., 0., 0., 0., 0., 0., 0.,
          0., 0., 0., 0., 0., 0., 0., 0., 0., 0., 0., 0., 0., 0., 0., 0.,
          0., 0., 0., 0., 0., 0., 0., 0., 0., 0., 0., 0., 0., 0., 0., 0.,
          0., 0., 0., 0., 0., 0., 0., 0., 0., 0., 0., 0., 0., 0., 0., 0.,
          0., 0., 0., 0., 0., 0., 0., 0., 0., 0., 0., 0., 0., 0., 0., 0. ]
      - [ 0., 0., 0., 0., 0., 0., 0., 0., 0., 0., 0., 0., 0.,
          1.26582282e-002, 0., 0., 0., 0., 0., 0., 0., 0., 0., 0., 0.,
          0., 0., 0., 0., 0., 1.26582282e-002, 0., 0., 0.,
          1.26582282e-002, 0., 0., 0., 0., 0., 0., 1.26582282e-002,
          2.53164563e-002, 0., 0., 0., 0., 0., 0., 0., 0., 0., 0.,
          1.26582282e-002, 0., 0., 0., 0., 0., 0., 0., 0., 0., 0., 0.,
          1.26582282e-002, 0., 0., 0., 0., 0., 0., 0., 0., 0., 0., 0.,
          0., 0., 0., 0., 0., 0., 0., 0., 0., 1.26582282e-002, 0., 0.,
          1.26582282e-002, 0., 0., 0., 0., 0., 0., 0., 0.,
          1.26582282e-002, 0., 1.26582282e-002, 0., 0., 0., 0., 0., 0.,
          0., 1.26582282e-002, 0., 0., 1.26582282e-002, 0., 0., 0., 0.,
          0., 0., 0., 0., 0., 0., 0., 0., 0., 0., 0., 0., 0., 0., 0., 0.,
          1.26582282e-002, 0., 0., 0., 0., 0., 0., 0., 0., 0., 0., 0.,
          0., 1.26582282e-002, 0., 0., 0., 0., 0., 0., 0., 0., 0., 0.,
          0., 0., 0., 0., 0., 0., 0., 0., 0., 0., 0., 0.,
          1.26582282e-002, 0., 0., 0., 0., 0., 1.26582282e-002, 0., 0.,
          0., 0., 0., 0., 0., 0., 0., 0., 0., 0., 0., 0., 0., 0., 0.,
          1.26582282e-002, 0., 0., 0., 0., 0., 0., 0., 0., 0., 0., 0.,
          0., 0., 0., 0., 0., 0., 0., 0., 0., 0., 0., 0., 0., 0., 0., 0.,
          0., 0., 0., 0., 0., 0., 0., 0., 0., 0., 0., 0., 0.,
          2.53164563e-002, 2.53164563e-002, 0., 0., 0., 0., 0., 0., 0.,
          0., 0., 0., 0., 0., 0., 0., 0., 0., 0., 0., 0., 0., 0., 0., 0.,
          0., 0., 0., 0., 0., 0., 0., 1.26582282e-002, 0., 0., 0., 0.,
          0., 0., 0., 0., 0., 0., 0., 0., 0., 0., 0., 0., 0., 0., 0., 0.,
          0., 0., 1.26582282e-002, 1.26582282e-002, 0., 0., 0., 0., 0.,
          0., 0., 0., 0., 0., 0., 0., 0., 0., 0., 0., 0., 0., 0., 0., 0.,
          0., 0., 0., 0., 0., 0., 0., 0., 0., 0., 0., 0., 0., 0.,
          1.26582282e-002, 0., 0., 0., 0., 0., 0., 0., 0., 0.,
          1.26582282e-002, 0., 0., 0., 0., 0., 0., 1.26582282e-002, 0.,
          0., 0., 0., 0., 0., 0., 0., 2.53164563e-002, 0., 0., 0., 0.,
          0., 0., 0., 0., 0., 0., 0., 0., 0., 0., 0., 0., 0., 0., 0., 0.,
          0., 0., 0., 0., 0., 0., 0., 1.26582282e-002, 1.26582282e-002,
          0., 0., 0., 0., 0., 0., 0., 0., 0., 0., 0., 0., 0., 0., 0., 0.,
          0., 0., 0., 0., 0., 0., 0., 0., 0., 0., 0., 1.26582282e-002,
          0., 0., 0., 2.53164563e-002, 0., 0., 0., 0., 0., 0., 0., 0.,
          0., 0., 0., 0., 0., 0., 0., 0., 0., 0., 0., 0., 0., 0., 0., 0.,
          0., 0., 0., 0., 0., 0., 0., 1.26582282e-002, 0., 0., 0., 0.,
          0., 0., 0., 1.26582282e-002, 0., 0., 0., 0., 0., 0., 0., 0.,
          0., 1.26582282e-002, 0., 0., 0., 0., 0., 0., 0., 0., 0., 0.,
          1.26582282e-002, 0., 0., 0., 0., 0., 0., 0., 0., 0., 0.,
          2.53164563e-002, 0., 0., 0., 0., 1.26582282e-002, 0., 0., 0.,
          0., 0., 0., 0., 0., 0., 0., 0., 0., 0., 0., 0., 0., 0., 0., 0.,
          0., 0., 0., 0., 0., 0., 0., 0., 0., 0., 0., 0., 0., 0., 0., 0.,
          0., 0., 0., 0., 0., 0., 0., 0., 0., 0., 0., 0., 0., 0.,
          2.53164563e-002, 0., 0., 0., 0., 0., 0., 0., 0., 0., 0., 0.,
          0., 1.26582282e-002, 0., 1.26582282e-002, 0., 2.53164563e-002,
          0., 0., 0., 0., 0., 0., 0., 0., 0., 0., 0., 0., 0., 0., 0., 0.,
          0., 0., 0., 0., 0., 0., 0., 0., 0., 1.26582282e-002, 0., 0.,
          0., 0., 0., 0., 0., 0., 0., 0., 0., 0., 0., 0.,
          2.53164563e-002, 0., 0., 0., 0., 0., 0., 0., 0., 0., 0., 0.,
          0., 0., 0., 0., 0., 0., 0., 0., 0., 0., 0., 0., 0.,
          1.26582282e-002, 0., 0., 0., 0., 0., 0., 0., 0.,
          2.53164563e-002, 0., 0., 0., 0., 0., 0., 0., 0., 0., 0., 0.,
          0., 0., 0., 0., 0., 0., 0., 0., 0., 0., 0., 0., 0., 0., 0., 0.,
          0., 0., 0., 0., 0., 0., 0., 0., 0., 0., 0., 0., 0., 0., 0., 0.,
          0., 0., 0., 0., 0., 0., 0., 0., 0., 0., 0., 0., 0., 0., 0., 0.,
          0., 0., 0., 0., 0., 0., 0., 0., 0., 0., 0., 0., 0., 0.,
          1.26582282e-002, 0., 0., 0., 0., 0., 0., 0., 0., 0., 0.,
          1.26582282e-002, 0., 0., 0., 0., 0., 0., 0., 0., 0., 0., 0.,
          0., 0., 0., 0., 0., 0., 0., 0., 0., 0., 0., 0., 0., 0., 0., 0.,
          0., 0., 0., 0., 0., 0., 0., 0., 0., 0., 0., 0., 0., 0., 0.,
          1.26582282e-002, 0., 0., 0., 1.26582282e-002, 0., 0., 0., 0.,
          0., 0., 0., 0., 0., 0., 0., 0., 0., 0., 0., 0., 0., 0., 0., 0.,
          0., 0., 0., 0., 0., 0., 0., 0., 0., 0., 0., 0., 0., 0., 0., 0.,
          0., 0., 0., 0., 0., 0., 0., 0., 0., 0., 0., 1.26582282e-002,
          0., 0., 0., 0., 0., 0., 0., 0., 0., 0., 0., 0., 0., 0., 0., 0.,
          0., 0., 0., 0., 0., 0., 0., 0., 0., 0., 0., 0., 0.,
          1.26582282e-002, 0., 0., 0., 0., 0., 0., 0., 0., 0., 0., 0.,
          0., 0., 0., 0., 0., 0., 0., 0., 0., 0., 0., 0., 0., 0., 0., 0.,
          0., 0., 0., 0., 0., 0., 0., 0., 0., 0., 0., 0., 0., 0., 0., 0.,
          0., 0., 0., 1.26582282e-002, 0., 0., 0., 0., 0., 0., 0., 0.,
          0., 0., 0., 0., 0., 0., 0., 0., 0., 0., 0., 0., 0., 0., 0., 0.,
          0., 0., 0., 0., 0., 0., 0., 0., 0., 0., 0., 0., 0., 0., 0.,
          1.26582282e-002, 0., 0., 0., 0., 0., 0., 0., 0., 0., 0., 0.,
          0., 0., 0., 0., 0., 0., 0., 0., 0., 0., 0., 0., 0., 0., 0., 0.,
          0., 0., 0., 0., 0., 0., 0., 0., 0., 0., 0., 0., 0., 0., 0., 0.,
          0., 0., 0., 0., 0., 0., 0., 0., 1.26582282e-002, 0., 0., 0.,
          0., 0., 1.26582282e-002, 0., 0., 0., 0., 0., 0., 0., 0., 0.,
          0., 0., 0., 0., 0., 0., 0., 0., 0., 0., 0., 0., 0., 0., 0., 0.,
          0., 0., 0., 0., 0., 0., 0., 0., 0., 0., 0., 0., 0., 0., 0., 0.,
          0., 0., 0., 0., 0., 0., 0., 0., 0., 0., 0., 0., 0., 0., 0., 0.,
          0., 0., 0., 0., 0., 0., 0., 0., 0., 0., 0., 0., 0., 0., 0.,
          1.26582282e-002, 0., 0., 0., 0., 0., 0., 0., 0., 0., 0., 0.,
          0., 0., 0., 0., 0., 0., 0., 0., 0., 0., 0., 0., 0., 0., 0., 0.,
          1.26582282e-002, 0., 0., 0., 0., 0., 0., 0., 0., 0., 0., 0.,
          0., 0., 0., 0., 0., 0., 0., 0., 0., 0., 0., 0., 0., 0., 0., 0.,
          0., 0., 0., 0., 0., 0., 0., 0., 0., 0., 0., 0., 0., 0., 0., 0.,
          0., 1.26582282e-002, 0., 0., 0., 0., 0., 0., 0., 0., 0., 0.,
          0., 0., 0., 0., 0., 0., 0., 0., 0., 1.26582282e-002, 0., 0.,
          0., 0., 0., 0., 0., 0., 0., 0., 0., 0., 0., 0., 0., 0., 0., 0.,
          0., 0., 0., 0., 0., 0., 1.26582282e-002, 0., 0., 0., 0., 0.,
          0., 0., 0., 0., 0., 0., 0., 0., 0., 0., 0., 0., 0., 0., 0., 0.,
          0., 0., 0., 0., 0., 0., 0., 0., 0., 0., 0., 0., 0., 0., 0., 0.,
          0., 0., 0., 0., 0., 0., 0., 0., 0., 0., 0., 0., 0., 0., 0., 0.,
          0., 0., 0., 1.26582282e-002, 0., 0., 0., 0., 0., 0., 0., 0.,
          0., 1.26582282e-002, 0., 0., 0., 0., 0., 0., 0., 0., 0., 0.,
          1.26582282e-002, 0., 0., 0., 0., 0., 0., 0., 0., 0., 0., 0.,
          0., 0., 0., 0., 0., 0., 0., 0., 0., 0., 0., 0., 0., 0., 0., 0.,
          0., 0., 0., 0., 0., 0., 0., 0., 0., 0., 0., 0., 0., 0., 0., 0.,
          0., 0., 0., 0., 0., 0., 0., 0., 0., 0., 0., 0., 0., 0., 0., 0.,
          0., 0., 0., 0., 0., 0., 0., 0., 1.26582282e-002, 0., 0., 0.,
          0., 0., 0., 0., 0., 0., 0., 0., 0., 0., 0., 0., 0., 0., 0., 0.,
          1.26582282e-002, 0., 0., 0., 0., 0., 0., 0., 0., 0., 0., 0.,
          0., 0., 2.53164563e-002, 0., 0., 0., 0., 0., 0., 0., 0., 0.,
          0., 0., 0., 0., 0., 0., 0., 0., 0., 0., 0., 0., 0., 0., 0., 0.,
          0., 0., 0., 0., 0., 0., 0., 0., 0., 0., 0., 0., 0., 0., 0., 0.,
          0., 0., 0., 0., 1.26582282e-002, 0., 0., 0., 0., 0., 0., 0.,
          0., 0., 0., 0., 0., 0., 0., 0., 0., 0., 0., 0., 0., 0., 0., 0.,
          0., 0., 0., 0., 0., 0., 0., 0., 0., 1.26582282e-002, 0., 0.,
          0., 0., 0., 0., 0., 0., 0., 0., 0., 0., 0., 0., 0., 0., 0., 0.,
          0., 0., 0., 0., 0., 0., 0., 0., 0., 0., 0., 0., 0., 0., 0., 0.,
          0., 0., 0., 0., 0., 0., 0., 0., 0., 0., 0., 0., 0., 0., 0., 0.,
          0., 0., 0., 0., 0., 0., 0., 0., 0., 0., 0., 0., 0. ]
      - [ 0., 0., 0., 0., 0., 0., 0., 2.47524749e-003, 2.47524749e-003,
          2.47524749e-003, 4.95049497e-003, 0., 2.47524749e-003, 0., 0.,
          0., 0., 0., 0., 0., 0., 1.48514844e-002, 0., 0., 0., 0., 0.,
          0., 0., 2.47524749e-003, 2.47524749e-003, 0., 0.,
          2.47524749e-003, 0., 0., 0., 0., 0., 0., 7.42574222e-003, 0.,
          0., 0., 0., 0., 2.47524749e-003, 0., 7.42574222e-003, 0.,
          2.47524749e-003, 0., 0., 2.47524749e-003, 0., 4.95049497e-003,
          0., 0., 0., 0., 0., 0., 0., 0., 0., 0., 0., 0.,
          2.47524749e-003, 0., 0., 0., 7.42574222e-003, 0., 0., 0., 0.,
          0., 0., 0., 0., 0., 4.95049497e-003, 0., 0., 0., 0., 0., 0.,
          2.47524749e-003, 0., 4.95049497e-003, 0., 0., 0., 0., 0., 0.,
          0., 9.90098994e-003, 0., 0., 0., 0., 0., 0., 2.47524749e-003,
          0., 0., 0., 0., 0., 2.47524749e-003, 0., 0., 0.,
          2.47524749e-003, 0., 0., 0., 0., 0., 0., 0., 0., 0., 0., 0.,
          0., 0., 2.47524749e-003, 2.47524749e-003, 0., 0., 0., 0., 0.,
          0., 0., 0., 0., 0., 0., 0., 2.47524749e-003, 0., 0., 0., 0.,
          0., 0., 0., 0., 7.42574222e-003, 0., 0., 0., 0., 0.,
          4.95049497e-003, 0., 0., 2.47524749e-003, 0., 0.,
          2.47524749e-003, 0., 0., 0., 0., 0., 0., 0., 2.47524749e-003,
          2.47524749e-003, 0., 0., 0., 2.47524749e-003, 2.47524749e-003,
          7.42574222e-003, 0., 2.47524749e-003, 0., 0., 0., 0., 0., 0.,
          0., 0., 7.42574222e-003, 2.47524749e-003, 0., 0., 0., 0., 0.,
          0., 4.95049497e-003, 0., 0., 2.47524749e-003, 0.,
          2.47524749e-003, 0., 0., 0., 0., 0., 0., 0., 0., 0., 0.,
          9.90098994e-003, 0., 0., 2.47524749e-003, 2.47524749e-003, 0.,
          0., 0., 0., 2.47524749e-003, 0., 2.47524749e-003,
          2.47524749e-003, 0., 0., 0., 2.47524749e-003, 0.,
          7.42574222e-003, 0., 0., 2.47524749e-003, 0., 1.23762377e-002,
          0., 0., 0., 0., 0., 2.47524749e-003, 0., 1.23762377e-002, 0.,
          0., 0., 0., 4.95049497e-003, 0., 0., 0., 0., 0., 0., 0., 0.,
          0., 0., 4.95049497e-003, 0., 0., 2.47524749e-003, 0., 0., 0.,
          0., 2.47524749e-003, 0., 0., 0., 0., 4.95049497e-003, 0., 0.,
          0., 0., 0., 0., 0., 0., 0., 0., 0., 2.47524749e-003,
          2.47524749e-003, 0., 0., 0., 0., 0., 0., 0., 0., 0.,
          2.47524749e-003, 0., 2.47524749e-003, 0., 0., 0., 0., 0., 0.,
          0., 0., 0., 0., 4.95049497e-003, 0., 0., 0., 0., 0., 0.,
          2.47524749e-003, 0., 0., 4.95049497e-003, 2.47524749e-003, 0.,
          0., 0., 0., 0., 0., 2.47524749e-003, 0., 0., 4.95049497e-003,
          2.47524749e-003, 2.47524749e-003, 0., 0., 0., 0.,
          2.47524749e-003, 0., 0., 2.47524749e-003, 4.95049497e-003, 0.,
          0., 2.47524749e-003, 2.47524749e-003, 4.95049497e-003,
          7.42574222e-003, 2.47524749e-003, 2.47524749e-003, 0., 0., 0.,
          2.47524749e-003, 0., 2.47524749e-003, 0., 4.95049497e-003, 0.,
          0., 2.47524749e-003, 0., 4.95049497e-003, 0., 0.,
          2.47524749e-003, 0., 1.23762377e-002, 0., 0., 0.,
          4.95049497e-003, 2.47524749e-003, 0., 0., 0., 0.,
          2.47524749e-003, 0., 0., 0., 2.47524749e-003, 2.47524749e-003,
          2.47524749e-003, 0., 0., 0., 0., 0., 0., 0., 0., 0., 0., 0.,
          0., 0., 0., 0., 0., 0., 4.95049497e-003, 0., 0., 0., 0., 0.,
          0., 0., 2.47524749e-003, 4.95049497e-003, 2.47524749e-003, 0.,
          0., 0., 0., 0., 0., 0., 0., 0., 0., 0., 0., 0., 0.,
          2.47524749e-003, 0., 4.95049497e-003, 0., 0., 0., 0., 0., 0.,
          2.47524749e-003, 0., 0., 0., 0., 0., 0., 4.95049497e-003, 0.,
          0., 0., 0., 0., 0., 0., 0., 0., 0., 0., 0., 2.47524749e-003,
          0., 0., 2.47524749e-003, 0., 0., 0., 0., 0., 0., 0., 0., 0.,
          2.47524749e-003, 0., 0., 2.47524749e-003, 0., 0.,
          2.47524749e-003, 2.47524749e-003, 0., 0., 0., 0., 0., 0., 0.,
          0., 0., 0., 2.47524749e-003, 2.47524749e-003, 0., 0., 0.,
          2.47524749e-003, 0., 0., 0., 0., 0., 0., 2.47524749e-003, 0.,
          2.47524749e-003, 0., 0., 0., 0., 0., 0., 0., 0.,
          2.47524749e-003, 0., 0., 0., 0., 0., 0., 2.47524749e-003, 0.,
          0., 0., 0., 0., 2.47524749e-003, 0., 0., 4.95049497e-003, 0.,
          0., 2.47524749e-003, 0., 0., 2.47524749e-003, 0., 0., 0., 0.,
          0., 1.23762377e-002, 0., 0., 0., 0., 0., 0., 0., 0., 0., 0.,
          0., 9.90098994e-003, 4.95049497e-003, 0., 0., 2.47524749e-003,
          2.47524749e-003, 0., 0., 0., 0., 0., 0., 0., 2.47524749e-003,
          0., 0., 0., 0., 0., 0., 0., 0., 0., 2.47524749e-003, 0.,
          2.47524749e-003, 0., 0., 0., 0., 0., 0., 0., 0., 0.,
          2.47524749e-003, 0., 0., 0., 0., 0., 0., 0., 0.,
          2.47524749e-003, 0., 0., 0., 0., 0., 2.47524749e-003,
          2.47524749e-003, 0., 0., 0., 0., 0., 0., 2.47524749e-003, 0.,
          0., 2.47524749e-003, 0., 2.47524749e-003, 0., 0., 0., 0., 0.,
          2.47524749e-003, 0., 0., 0., 0., 0., 0., 0., 0.,
          2.47524749e-003, 0., 2.47524749e-003, 0., 0., 0., 0., 0.,
          2.47524749e-003, 0., 0., 0., 0., 0., 0., 0., 0., 0., 0., 0.,
          0., 0., 0., 4.95049497e-003, 4.95049497e-003, 0., 0.,
          4.95049497e-003, 0., 0., 2.47524749e-003, 0., 0.,
          2.47524749e-003, 0., 9.90098994e-003, 2.47524749e-003, 0., 0.,
          0., 0., 0., 0., 0., 0., 2.47524749e-003, 0., 2.47524749e-003,
          0., 0., 0., 2.47524749e-003, 0., 2.47524749e-003, 0.,
          2.47524749e-003, 0., 0., 0., 0., 7.42574222e-003, 0.,
          2.47524749e-003, 0., 0., 0., 0., 0., 0., 0., 0., 0., 0., 0.,
          0., 0., 0., 0., 2.47524749e-003, 0., 0., 2.47524749e-003, 0.,
          0., 0., 0., 2.47524749e-003, 0., 2.47524749e-003, 0., 0., 0.,
          0., 0., 0., 0., 0., 2.47524749e-003, 0., 0., 0., 0., 0., 0.,
          0., 0., 0., 0., 0., 0., 0., 0., 0., 0., 0., 0., 0., 0., 0., 0.,
          0., 0., 2.47524749e-003, 0., 0., 0., 2.47524749e-003, 0.,
          2.47524749e-003, 0., 2.47524749e-003, 0., 0., 0., 0., 0., 0.,
          0., 0., 0., 0., 0., 4.95049497e-003, 0., 1.23762377e-002, 0.,
          0., 0., 0., 4.95049497e-003, 0., 0., 0., 0., 0., 0., 0., 0.,
          0., 0., 0., 2.47524749e-003, 2.47524749e-003, 0., 0., 0., 0.,
          7.42574222e-003, 0., 0., 2.47524749e-003, 0., 0., 0., 0., 0.,
          2.47524749e-003, 0., 0., 0., 0., 0., 0., 0., 0., 0., 0., 0.,
          0., 0., 0., 0., 0., 0., 0., 0., 2.47524749e-003, 0., 0., 0.,
          2.47524749e-003, 0., 0., 0., 0., 0., 0., 0., 2.47524749e-003,
          2.47524749e-003, 0., 0., 0., 0., 0., 0., 0., 0., 0., 0.,
          2.47524749e-003, 0., 0., 0., 0., 2.47524749e-003,
          2.47524749e-003, 0., 0., 2.47524749e-003, 0., 0., 0., 0., 0.,
          0., 0., 0., 0., 0., 0., 0., 0., 0., 0., 0., 0., 0.,
          2.47524749e-003, 0., 0., 0., 0., 0., 0., 0., 0.,
          2.47524749e-003, 2.47524749e-003, 0., 0., 0., 2.47524749e-003,
          0., 0., 2.47524749e-003, 0., 2.47524749e-003, 0., 0., 0., 0.,
          0., 2.47524749e-003, 4.95049497e-003, 0., 0., 0., 0., 0., 0.,
          0., 0., 0., 0., 0., 0., 0., 0., 0., 0., 0., 0.,
          2.47524749e-003, 0., 2.47524749e-003, 0., 0., 0., 0., 0., 0.,
          0., 0., 2.47524749e-003, 0., 0., 0., 0., 2.47524749e-003, 0.,
          0., 0., 0., 0., 0., 0., 0., 0., 0., 2.47524749e-003, 0., 0.,
          0., 0., 0., 7.42574222e-003, 0., 2.47524749e-003, 0., 0.,
          2.47524749e-003, 0., 0., 0., 2.47524749e-003, 0., 0.,
          2.47524749e-003, 2.47524749e-003, 0., 0., 7.42574222e-003, 0.,
          2.47524749e-003, 0., 2.47524749e-003, 0., 0., 0., 0., 0., 0.,
          0., 0., 0., 0., 4.95049497e-003, 0., 0., 0., 2.47524749e-003,
          0., 0., 0., 0., 0., 0., 0., 0., 2.47524749e-003, 0., 0., 0.,
          2.47524749e-003, 2.47524749e-003, 0., 0., 0., 0., 0.,
          2.47524749e-003, 0., 0., 0., 0., 0., 0., 0., 0., 0.,
          4.95049497e-003, 0., 0., 0., 2.47524749e-003, 0., 0., 0.,
          2.47524749e-003, 0., 0., 0., 0., 0., 0., 0., 0., 0.,
          4.95049497e-003, 0., 2.47524749e-003, 0., 0., 0.,
          2.47524749e-003, 0., 0., 0., 0., 0., 0., 0., 0., 0., 0.,
          2.47524749e-003, 2.47524749e-003, 0., 0., 0., 0., 0., 0., 0.,
          2.47524749e-003, 0., 2.47524749e-003, 0., 0., 0., 0.,
          2.47524749e-003, 0., 0., 0., 0., 0., 0., 0., 2.47524749e-003,
          0., 0., 0., 0., 0., 2.47524749e-003, 0., 2.47524749e-003,
          2.47524749e-003, 0., 0., 0., 0., 2.47524749e-003, 0., 0., 0.,
          0., 0., 0., 0., 0., 7.42574222e-003, 0., 2.47524749e-003, 0.,
          0., 0., 0., 0., 0., 0., 2.47524749e-003, 0., 0.,
          2.47524749e-003, 0., 0., 0., 2.47524749e-003, 0., 0., 0., 0.,
          0., 0., 0., 0., 0., 2.47524749e-003, 0., 0., 0., 0., 0., 0.,
          0., 2.47524749e-003, 0., 0., 0., 0., 0., 0., 2.47524749e-003,
          0., 0., 0., 0., 2.47524749e-003, 0., 0., 0., 0., 0.,
          2.47524749e-003, 2.47524749e-003, 0., 2.47524749e-003, 0., 0.,
          0., 0., 7.42574222e-003, 0., 0., 0., 0., 7.42574222e-003, 0.,
          0., 0., 0., 4.95049497e-003, 0., 0., 0., 0., 0., 0.,
          2.47524749e-003, 2.47524749e-003, 0., 0., 2.47524749e-003, 0.,
          0., 0., 7.42574222e-003, 0., 0., 0., 0., 0., 0., 0., 0.,
          2.47524749e-003, 2.47524749e-003, 0., 0., 0., 0., 0., 0., 0.,
          0., 2.47524749e-003, 0., 0., 0., 0., 0., 0., 0., 0., 0., 0.,
          0., 0., 2.47524749e-003, 0., 2.47524749e-003, 2.47524749e-003,
          0., 4.95049497e-003, 0., 0., 0., 2.47524749e-003, 0., 0., 0.,
          0., 0., 0., 0., 0., 0., 0., 0., 4.95049497e-003, 0., 0., 0.,
          0., 0., 2.47524749e-003, 0., 0., 0., 0., 0., 0., 0., 0., 0.,
          2.47524749e-003, 2.47524749e-003, 0., 0., 0., 0., 0., 0., 0.,
          0., 0., 0., 0., 0., 2.47524749e-003, 0., 0., 2.47524749e-003,
          0., 0., 0., 0., 0., 4.95049497e-003, 2.47524749e-003, 0., 0.,
          0., 2.47524749e-003, 0., 0., 0., 0., 0., 2.47524749e-003, 0.,
          0., 0., 0., 0., 0., 0., 0., 0., 0., 0., 0., 0., 0., 0., 0., 0.,
          0., 0., 2.47524749e-003, 0., 0., 2.47524749e-003, 0., 0., 0.,
          0., 2.47524749e-003, 0., 0., 0., 0., 0., 0., 0., 0.,
          2.47524749e-003, 0., 0., 0., 0., 0., 0., 0., 0., 0.,
          4.95049497e-003, 0., 0., 0., 0., 0., 0., 0., 0., 0., 0., 0.,
          0., 0., 0., 2.47524749e-003, 0., 0., 2.47524749e-003,
          7.42574222e-003, 0., 0., 0., 2.47524749e-003, 0., 0., 0., 0.,
          0., 0., 0., 2.47524749e-003, 0., 0., 0., 0., 0., 0., 0., 0.,
          0., 2.47524749e-003, 2.47524749e-003, 0., 2.47524749e-003, 0.,
          0., 0., 0., 0., 0., 0., 0., 0., 0., 0., 0., 2.47524749e-003,
          0., 0., 2.47524749e-003, 0., 0., 0., 0., 0., 0., 0., 0., 0.,
          0., 0., 0., 0., 0., 0., 0., 2.47524749e-003, 0., 0., 0.,
          2.47524749e-003, 0., 0., 0., 2.47524749e-003, 2.47524749e-003,
          0., 0., 0., 0., 0., 2.47524749e-003, 0., 0., 0., 0.,
          4.95049497e-003, 1.23762377e-002, 0., 2.47524749e-003, 0., 0.,
          0., 0., 0., 0., 2.47524749e-003, 0., 0., 0., 0.,
          2.47524749e-003, 0., 0., 0., 0., 0., 0., 2.47524749e-003, 0.,
          0., 0., 2.47524749e-003, 0., 0., 0., 0., 0., 0., 0., 0.,
          2.47524749e-003, 0., 0., 2.47524749e-003, 0., 2.47524749e-003,
          0., 2.47524749e-003, 0., 0., 2.47524749e-003, 0., 0., 0., 0.,
          0., 0., 0., 0., 0., 0., 2.47524749e-003, 0., 2.47524749e-003,
          0., 0., 0., 0., 0., 0. ]
      - [ 0., 0., 0., 0., 0., 0., 0., 0., 9.43396240e-003, 0., 0., 0.,
          0., 0., 0., 0., 0., 0., 0., 0., 0., 0., 9.43396240e-003, 0.,
          0., 0., 0., 0., 0., 0., 0., 0., 9.43396240e-003, 0., 0., 0.,
          0., 0., 0., 0., 0., 0., 0., 0., 0., 0., 0., 0., 0., 0., 0., 0.,
          0., 9.43396240e-003, 9.43396240e-003, 0., 0., 0., 0., 0., 0.,
          0., 0., 0., 0., 0., 0., 0., 0., 0., 0., 0., 0.,
          9.43396240e-003, 0., 0., 0., 0., 0., 0., 0., 0., 0., 0., 0.,
          0., 0., 0., 0., 9.43396240e-003, 0., 0., 0., 0., 0., 0.,
          9.43396240e-003, 0., 9.43396240e-003, 0., 0., 0., 0., 0.,
          6.60377368e-002, 0., 0., 0., 0., 0., 0., 0., 0., 0., 0.,
          1.88679248e-002, 0., 0., 0., 0., 0., 0., 0., 0., 0., 0., 0.,
          0., 0., 0., 0., 0., 0., 0., 0., 0., 0., 0., 0., 0., 0., 0., 0.,
          9.43396240e-003, 0., 0., 9.43396240e-003, 0., 0., 0., 0.,
          1.88679248e-002, 0., 0., 0., 0., 0., 0., 0., 0., 0., 0., 0.,
          0., 0., 0., 0., 0., 0., 0., 0., 0., 0., 0., 0., 0., 0., 0., 0.,
          0., 0., 0., 0., 0., 0., 0., 4.71698120e-002, 0., 0., 0., 0.,
          0., 0., 0., 0., 0., 0., 0., 9.43396240e-003, 0., 0., 0., 0.,
          0., 0., 0., 0., 0., 0., 0., 0., 0., 0., 0., 0.,
          9.43396240e-003, 0., 0., 0., 0., 0., 0., 0., 0., 0.,
          9.43396240e-003, 0., 0., 0., 0., 0., 0., 0., 0., 0., 0., 0.,
          0., 0., 0., 0., 0., 0., 0., 0., 0., 0., 0., 0., 0., 0., 0., 0.,
          1.88679248e-002, 0., 0., 0., 0., 0., 0., 0., 0.,
          1.88679248e-002, 0., 0., 0., 0., 0., 0., 0., 0., 0., 0., 0.,
          0., 0., 0., 0., 0., 9.43396240e-003, 0., 0., 0.,
          9.43396240e-003, 0., 0., 0., 9.43396240e-003, 9.43396240e-003,
          0., 0., 0., 0., 0., 0., 0., 0., 0., 0., 0., 0., 0., 0., 0., 0.,
          0., 0., 0., 0., 0., 0., 0., 0., 0., 0., 0., 0., 0., 0., 0., 0.,
          0., 0., 0., 0., 1.88679248e-002, 0., 0., 0., 0., 0., 0., 0.,
          0., 0., 0., 0., 0., 0., 0., 0., 0., 0., 0., 0., 0., 0., 0., 0.,
          0., 0., 9.43396240e-003, 1.88679248e-002, 0., 0., 0., 0., 0.,
          0., 0., 0., 0., 0., 0., 0., 0., 0., 0., 0., 0., 0., 0., 0., 0.,
          0., 0., 0., 0., 0., 0., 0., 0., 0., 0., 0., 0., 0., 0., 0., 0.,
          0., 0., 0., 0., 0., 0., 0., 0., 0., 0., 9.43396240e-003,
          1.88679248e-002, 0., 0., 0., 0., 0., 0., 0., 2.83018872e-002,
          0., 0., 0., 0., 0., 0., 0., 0., 0., 0., 9.43396240e-003, 0.,
          0., 0., 0., 0., 0., 0., 0., 0., 0., 0., 0., 0., 0., 0., 0., 0.,
          0., 0., 0., 0., 0., 0., 0., 0., 0., 0., 0., 0., 0., 0., 0., 0.,
          0., 9.43396240e-003, 0., 0., 0., 0., 0., 0., 0., 0., 0., 0.,
          0., 0., 9.43396240e-003, 9.43396240e-003, 0., 0., 0., 0., 0.,
          0., 0., 9.43396240e-003, 0., 0., 0., 0., 0., 0., 0., 0., 0.,
          0., 0., 0., 0., 0., 0., 0., 0., 0., 0., 0., 0., 0., 0., 0., 0.,
          0., 9.43396240e-003, 0., 0., 0., 0., 0., 0., 0., 0., 0.,
          2.83018872e-002, 0., 0., 0., 0., 0., 0., 9.43396240e-003, 0.,
          0., 0., 0., 0., 0., 0., 0., 0., 0., 0., 0., 0.,
          9.43396240e-003, 0., 0., 0., 0., 0., 0., 0., 0., 0., 0., 0.,
          0., 0., 0., 0., 0., 0., 0., 0., 0., 0., 0., 0., 0., 0., 0., 0.,
          0., 0., 0., 0., 0., 0., 0., 0., 0., 0., 0., 0., 0., 0., 0., 0.,
          9.43396240e-003, 0., 0., 0., 0., 0., 0., 0., 0., 0.,
          9.43396240e-003, 0., 0., 0., 0., 0., 0., 0., 0., 0., 0., 0.,
          0., 0., 0., 0., 0., 0., 0., 0., 0., 0., 0., 0., 0.,
          9.43396240e-003, 0., 0., 0., 0., 0., 0., 0., 0., 0.,
          3.77358496e-002, 0., 0., 0., 0., 0., 0., 0., 0., 0., 0., 0.,
          0., 0., 0., 0., 0., 0., 0., 0., 0., 0., 0., 0., 0., 0., 0., 0.,
          0., 0., 9.43396240e-003, 0., 0., 0., 0., 0., 0., 0., 0., 0.,
          0., 0., 0., 0., 0., 0., 0., 0., 0., 0., 0., 0., 0., 0., 0., 0.,
          0., 0., 0., 0., 0., 0., 0., 0., 0., 0., 0., 0., 0., 0., 0., 0.,
          0., 0., 0., 0., 0., 0., 0., 0., 9.43396240e-003, 0., 0., 0.,
          0., 0., 0., 0., 0., 0., 0., 0., 0., 0., 0., 0., 0., 0., 0., 0.,
          0., 0., 0., 0., 0., 0., 0., 0., 9.43396240e-003, 0., 0., 0.,
          0., 0., 0., 0., 0., 0., 0., 0., 0., 0., 0., 0., 0., 0., 0., 0.,
          0., 0., 0., 0., 0., 0., 0., 0., 0., 0., 0., 9.43396240e-003,
          0., 0., 0., 0., 0., 0., 0., 0., 0., 0., 0., 0., 0., 0., 0., 0.,
          0., 0., 0., 0., 9.43396240e-003, 0., 0., 0., 0., 0., 0., 0.,
          0., 0., 0., 0., 0., 0., 0., 0., 0., 0., 0., 0., 0., 0., 0., 0.,
          0., 0., 0., 0., 0., 0., 0., 0., 0., 0., 0., 0., 0., 0.,
          9.43396240e-003, 0., 0., 0., 0., 0., 0., 0., 0., 0., 0., 0.,
          0., 0., 0., 0., 0., 0., 0., 9.43396240e-003, 4.71698120e-002,
          0., 0., 0., 0., 0., 0., 0., 0., 0., 0., 0., 9.43396240e-003,
          0., 0., 0., 0., 0., 0., 0., 0., 0., 0., 0., 0., 0., 0., 0., 0.,
          0., 0., 0., 0., 3.77358496e-002, 0., 0., 0., 0., 0., 0., 0.,
          0., 0., 0., 0., 0., 9.43396240e-003, 0., 0., 0., 0., 0., 0.,
          0., 0., 0., 0., 0., 0., 0., 0., 0., 0., 0., 0., 0., 0.,
          9.43396240e-003, 0., 0., 0., 0., 0., 0., 0., 0., 0., 0., 0.,
          0., 0., 0., 0., 0., 0., 0., 0., 0., 0., 0., 0.,
          9.43396240e-003, 0., 0., 0., 0., 0., 0., 0., 0., 0., 0., 0.,
          0., 0., 0., 0., 0., 0., 0., 0., 9.43396240e-003, 0., 0., 0.,
          0., 0., 0., 0., 0., 0., 0., 0., 0., 9.43396240e-003, 0., 0.,
          0., 9.43396240e-003, 0., 0., 0., 0., 0., 0., 0., 0., 0., 0.,
          9.43396240e-003, 0., 0., 0., 0., 0., 0., 0., 0.,
          9.43396240e-003, 0., 0., 0., 0., 0., 0., 0., 0., 0., 0., 0.,
          0., 0., 0., 0., 0., 0., 0., 0., 0., 0., 0., 0., 0., 0., 0., 0.,
          0., 0., 0., 0., 0., 0., 0., 0., 9.43396240e-003, 0., 0., 0.,
          0., 0., 0., 0., 0., 0., 0., 0., 0., 0., 0., 0., 0., 0., 0., 0.,
          0., 1.88679248e-002, 0., 0., 0., 0., 0., 0., 0., 0., 0., 0.,
          0., 9.43396240e-003, 0., 0., 0., 0., 0., 0., 0., 0., 0., 0.,
          0., 0., 0., 0., 0., 0., 0., 0., 0., 0., 0., 0., 0., 0., 0., 0.,
          0., 0., 0., 9.43396240e-003, 0., 0., 0., 0., 0., 0., 0., 0.,
          0., 0., 0., 0., 0., 0., 0., 0., 0., 0., 0., 0., 0., 0., 0., 0.,
          0., 0., 0., 0., 0., 0., 0., 0., 0., 0., 0., 0., 0., 0., 0., 0.,
          0., 0., 0., 0., 0., 0., 0., 0., 0., 0., 0., 0., 0., 0., 0., 0.,
          0., 0., 0., 0., 0., 0., 0., 0., 0., 0., 0., 0., 0., 0., 0., 0.,
          0., 0., 0., 0., 0., 0., 0., 0., 0., 0., 0., 0., 0., 0., 0., 0.,
          0., 0., 0., 0., 0., 0., 0., 0., 0., 0., 0., 0., 0., 0., 0., 0.,
          0., 0., 0., 0., 0., 0., 0., 0., 0., 0., 0., 0., 0., 0., 0., 0.,
          0., 0., 0., 0., 0., 0., 0., 0., 0., 0., 0., 0., 0., 0., 0., 0.,
          0., 0., 0., 0., 0., 0., 0., 0., 0., 0., 0., 0., 0., 0., 0., 0.,
          0., 0., 0., 0., 0., 0., 0., 0., 0., 9.43396240e-003, 0., 0.,
          0., 0., 0., 0., 0., 0., 0., 0., 0., 0., 0., 0., 0., 0., 0., 0.,
          0., 0., 0., 0., 0., 0., 0., 0., 0., 0., 0., 0., 0., 0., 0., 0.,
          0., 0., 0., 0., 0., 0., 0., 1.88679248e-002, 0., 0., 0., 0.,
          0., 0., 0., 0., 0., 0., 0., 0., 0., 0., 0., 0., 0., 0., 0., 0.,
          0., 0., 9.43396240e-003, 0., 0., 0., 0., 0., 0., 0., 0., 0.,
          0., 0., 0., 0., 0., 0., 0., 0., 0., 0., 0., 0., 0., 0., 0., 0.,
          0., 0., 0., 0., 0., 0., 9.43396240e-003, 0., 0., 0., 0., 0.,
          0., 0., 0., 0., 0., 0., 0., 0., 0., 0., 0., 0., 0., 0., 0., 0.,
          0., 0., 0., 0., 0., 0., 0., 0., 0., 0., 0., 0., 0., 0., 0., 0.,
          0., 0., 0., 0., 0., 0., 0., 0., 0., 0., 0., 0., 0., 0., 0., 0.,
          0., 0., 0., 0., 0., 0., 0., 0., 0., 0., 0., 0., 0., 0., 0., 0.,
          0., 0., 0., 0., 0., 0., 0., 0., 0., 0., 0., 0., 0., 0., 0., 0.,
          0., 0., 0., 0., 0., 0., 0., 0., 0., 0., 0., 0., 0., 0., 0., 0.,
          0., 0., 0., 0., 0., 0., 0., 0., 0., 0., 0., 0., 0., 0., 0., 0.,
          0., 0., 0., 0., 0., 0., 0., 0., 0., 0., 0., 0., 0., 0., 0., 0.,
          0., 0., 0., 0., 0., 0., 0., 0., 9.43396240e-003, 0., 0., 0.,
          0., 0., 0., 0., 0., 2.83018872e-002 ]
      - [ 0., 0., 2.02429155e-003, 0., 0., 4.04858310e-003, 0.,
          2.02429155e-003, 0., 0., 0., 0., 0., 6.07287465e-003, 0., 0.,
          0., 0., 2.02429155e-003, 0., 0., 8.50202441e-002, 0., 0., 0.,
          0., 0., 0., 0., 0., 2.02429155e-003, 0., 0., 2.02429155e-003,
          0., 0., 4.04858310e-003, 0., 0., 0., 0., 0., 0., 0., 0., 0.,
          1.21457493e-002, 0., 2.02429155e-003, 0., 0., 2.02429155e-003,
          0., 2.02429155e-003, 8.09716620e-003, 0., 0., 0.,
          4.04858310e-003, 0., 0., 0., 2.02429155e-003, 0., 0., 0., 0.,
          0., 0., 0., 0., 0., 6.07287465e-003, 0., 0., 0., 0., 0., 0.,
          0., 0., 0., 2.02429155e-003, 0., 2.02429155e-003, 0., 0.,
          6.07287465e-003, 0., 2.02429155e-003, 2.02429155e-003, 0., 0.,
          0., 0., 0., 0., 0., 0., 8.09716620e-003, 2.02429155e-003,
          2.02429155e-003, 0., 0., 0., 2.02429155e-003, 0., 0.,
          2.02429155e-003, 0., 4.04858310e-003, 0., 2.02429155e-003, 0.,
          0., 0., 2.02429155e-003, 0., 0., 2.02429155e-003, 0., 0., 0.,
          0., 0., 0., 0., 0., 0., 0., 0., 0., 2.02429155e-003, 0., 0.,
          0., 2.02429155e-003, 6.07287465e-003, 0., 4.04858310e-003, 0.,
          2.02429155e-003, 0., 0., 2.02429155e-003, 0., 2.02429155e-003,
          0., 0., 0., 0., 0., 0., 0., 0., 0., 2.02429155e-003, 0., 0.,
          3.03643737e-002, 0., 2.02429155e-003, 0., 0., 0., 0., 0., 0.,
          0., 0., 0., 0., 0., 0., 0., 2.02429155e-003, 0., 0., 0., 0.,
          2.02429155e-003, 0., 0., 0., 0., 0., 0., 2.02429155e-003, 0.,
          2.02429155e-003, 0., 2.02429155e-003, 0., 0., 0., 0., 0., 0.,
          0., 2.02429155e-003, 0., 0., 0., 0., 4.04858310e-003, 0., 0.,
          0., 0., 0., 0., 6.07287465e-003, 2.02429155e-003, 0., 0.,
          6.07287465e-003, 0., 0., 2.02429155e-003, 0., 0., 0., 0., 0.,
          2.02429155e-003, 0., 0., 0., 0., 0., 0., 0., 0.,
          2.02429155e-003, 0., 0., 0., 0., 1.21457493e-002, 0., 0.,
          2.02429155e-003, 4.04858310e-003, 0., 0., 0., 0., 0.,
          2.02429155e-003, 0., 0., 0., 0., 0., 0., 0., 1.21457493e-002,
          0., 0., 0., 0., 0., 0., 6.07287465e-003, 0., 0., 0., 0., 0.,
          0., 0., 0., 0., 0., 0., 0., 0., 2.02429155e-003, 0.,
          2.02429155e-003, 0., 0., 0., 0., 0., 0., 0., 0.,
          2.02429155e-003, 0., 0., 0., 0., 0., 0., 0., 0., 0., 0., 0.,
          0., 0., 2.02429155e-003, 0., 0., 0., 2.02429155e-003, 0., 0.,
          4.04858310e-003, 1.21457493e-002, 0., 2.02429155e-003,
          2.02429155e-003, 0., 0., 0., 0., 8.09716620e-003,
          2.02429155e-003, 0., 2.02429155e-003, 0., 0., 0., 0., 0., 0.,
          0., 3.23886648e-002, 0., 0., 0., 0., 0., 2.02429155e-003, 0.,
          0., 0., 0., 0., 1.01214573e-002, 0., 0., 0., 4.04858310e-003,
          0., 0., 0., 8.09716620e-003, 0., 2.02429155e-003, 0.,
          2.02429155e-003, 4.04858310e-003, 0., 0., 2.02429155e-003, 0.,
          0., 0., 0., 4.04858310e-003, 0., 2.02429155e-003, 0., 0., 0.,
          2.02429155e-003, 0., 0., 0., 0., 0., 2.02429155e-003, 0.,
          2.02429155e-003, 0., 0., 2.02429155e-003, 0., 0., 0.,
          2.02429155e-003, 0., 2.02429155e-003, 0., 0., 0., 0., 0., 0.,
          0., 0., 2.02429155e-003, 0., 4.04858310e-003, 0., 0.,
          6.07287465e-003, 0., 0., 0., 0., 0., 0., 0., 0., 0., 0., 0.,
          0., 0., 0., 0., 2.02429155e-003, 0., 2.02429155e-003, 0., 0.,
          0., 0., 0., 8.09716620e-003, 0., 0., 0., 0., 0., 0.,
          2.02429155e-003, 0., 0., 0., 0., 0., 0., 0., 0.,
          2.02429155e-003, 0., 0., 4.04858310e-003, 0., 8.09716620e-003,
          2.02429155e-003, 0., 0., 0., 0., 0., 0., 0., 0., 0., 0., 0.,
          0., 0., 0., 0., 0., 0., 0., 0., 0., 0., 0., 0., 0., 0., 0., 0.,
          0., 0., 0., 2.02429155e-003, 0., 0., 0., 0., 0., 0.,
          2.02429155e-003, 8.09716620e-003, 0., 0., 0., 0.,
          2.02429155e-003, 0., 0., 0., 0., 0., 0., 0., 0., 0.,
          2.02429155e-003, 2.02429155e-003, 2.02429155e-003, 0., 0.,
          2.02429155e-003, 0., 0., 0., 0., 0., 0., 0., 6.07287465e-003,
          0., 0., 0., 0., 0., 0., 0., 4.04858310e-003, 0., 0., 0., 0.,
          0., 0., 0., 4.04858310e-003, 0., 0., 0., 0., 0., 0., 0., 0.,
          0., 0., 0., 0., 0., 0., 0., 0., 0., 0., 0., 0., 0., 0., 0.,
          2.02429155e-003, 0., 2.02429155e-003, 0., 2.02429155e-003, 0.,
          0., 0., 0., 0., 0., 4.04858310e-003, 0., 0., 0., 0., 0., 0.,
          0., 0., 0., 0., 0., 0., 0., 0., 0., 2.02429155e-003,
          2.02429155e-003, 0., 0., 0., 0., 0., 0., 0., 0., 0., 0., 0.,
          0., 2.02429155e-003, 0., 0., 2.02429155e-003, 0., 0.,
          2.02429155e-003, 2.02429155e-003, 0., 0., 0., 0., 0., 0., 0.,
          2.02429155e-003, 0., 0., 6.07287465e-003, 0., 0., 0., 0., 0.,
          0., 2.02429155e-003, 0., 0., 0., 0., 0., 0., 0., 0., 0., 0.,
          0., 0., 0., 0., 0., 0., 0., 0., 0., 0., 0., 0., 0., 0., 0., 0.,
          0., 0., 0., 6.07287465e-003, 0., 2.02429155e-003, 0., 0., 0.,
          0., 0., 0., 0., 0., 0., 0., 0., 0., 0., 2.02429155e-003,
          4.04858310e-003, 0., 0., 0., 0., 0., 0., 0., 0., 0., 0., 0.,
          2.02429155e-003, 0., 0., 0., 0., 0., 0., 0., 0., 0., 0., 0.,
          2.02429155e-003, 0., 0., 4.04858310e-003, 0., 0., 0., 0., 0.,
          0., 0., 2.02429155e-003, 0., 0., 2.02429155e-003, 0.,
          4.04858310e-003, 0., 0., 0., 0., 0., 0., 0., 0., 0., 0., 0.,
          2.02429155e-003, 0., 0., 0., 2.02429155e-003, 6.07287465e-003,
          2.02429155e-003, 0., 0., 2.02429155e-003, 0., 0., 0., 0., 0.,
          0., 0., 0., 0., 0., 0., 0., 0., 0., 0., 0., 0.,
          4.04858310e-003, 2.02429155e-003, 0., 0., 0., 0., 0., 0., 0.,
          0., 0., 0., 0., 0., 0., 0., 0., 0., 0., 0., 0., 0., 0., 0., 0.,
          0., 0., 0., 0., 7.08502010e-002, 0., 0., 0., 0.,
          4.04858310e-003, 0., 0., 0., 2.02429155e-003, 0., 0., 0., 0.,
          0., 0., 0., 0., 0., 0., 0., 0., 0., 0., 0., 0., 0., 0., 0., 0.,
          0., 0., 0., 0., 0., 0., 0., 0., 0., 0., 0., 0., 0., 0., 0., 0.,
          0., 0., 0., 0., 0., 0., 0., 0., 0., 0., 2.02429155e-003, 0.,
          0., 0., 2.02429155e-003, 0., 0., 0., 0., 6.07287465e-003, 0.,
          0., 0., 0., 0., 0., 0., 0., 0., 0., 0., 2.02429155e-003, 0.,
          0., 0., 2.02429155e-003, 0., 0., 0., 0., 0., 0., 0., 0., 0.,
          0., 0., 0., 0., 0., 0., 0., 0., 0., 0., 2.02429155e-003, 0.,
          4.04858310e-003, 0., 0., 0., 0., 2.02429155e-003, 0., 0., 0.,
          0., 0., 0., 0., 0., 0., 0., 2.02429155e-003, 0., 0., 0., 0.,
          0., 0., 0., 0., 0., 0., 2.02429155e-003, 0., 0., 0., 0., 0.,
          0., 0., 0., 0., 0., 0., 0., 0., 0., 0., 0., 0., 0., 0., 0., 0.,
          0., 0., 0., 0., 0., 0., 0., 2.02429155e-003, 0.,
          2.02429155e-003, 0., 0., 0., 0., 0., 2.02429155e-003, 0., 0.,
          0., 0., 0., 0., 0., 0., 2.02429155e-003, 0., 0., 0., 0., 0.,
          0., 0., 0., 0., 2.02429155e-003, 0., 0., 0., 0., 0., 0., 0.,
          0., 0., 0., 0., 4.04858310e-003, 0., 0., 0., 2.02429155e-003,
          0., 0., 0., 0., 0., 0., 0., 0., 0., 0., 4.04858310e-003,
          4.04858310e-003, 0., 0., 0., 4.04858310e-003, 0., 0.,
          2.02429155e-003, 0., 0., 0., 0., 2.02429155e-003, 0., 0., 0.,
          0., 0., 0., 0., 1.01214573e-002, 0., 0., 0., 0.,
          2.02429155e-003, 0., 0., 0., 4.04858310e-003, 0.,
          2.02429155e-003, 0., 2.02429155e-003, 0., 0., 0., 0., 0.,
          4.04858310e-003, 2.02429155e-003, 0., 0., 0., 2.02429155e-003,
          0., 0., 0., 0., 0., 0., 0., 2.02429155e-003, 2.02429155e-003,
          0., 0., 0., 0., 0., 0., 0., 0., 1.41700413e-002, 0., 0., 0.,
          0., 0., 0., 0., 0., 2.02429155e-003, 0., 0., 0., 0., 0., 0.,
          0., 0., 0., 1.21457493e-002, 0., 0., 0., 0., 0., 0., 0., 0.,
          0., 0., 0., 0., 0., 2.02429155e-003, 0., 0., 0.,
          2.02429155e-003, 0., 0., 0., 0., 0., 0., 0., 0., 0., 0., 0.,
          0., 2.02429155e-003, 0., 2.02429155e-003, 0., 0., 0.,
          4.04858310e-003, 0., 0., 0., 0., 0., 0., 0., 0., 0., 0., 0.,
          2.02429155e-003, 0., 0., 0., 0., 0., 0., 0., 0.,
          2.02429155e-003, 0., 2.02429155e-003, 0., 0., 0., 0., 0., 0.,
          2.02429155e-003, 2.02429155e-003, 0., 0., 0., 0., 0., 0., 0.,
          0., 0., 2.02429155e-003, 0., 2.02429155e-003, 0., 0., 0., 0.,
          1.82186235e-002, 0., 0., 0., 0., 0., 0., 0., 0., 0., 0., 0.,
          0., 0., 0., 0., 0., 0., 0., 4.04858310e-003, 0., 0., 0., 0.,
          0., 0., 0., 0., 0., 0., 0., 2.02429155e-003, 4.04858310e-003,
          0., 0., 0., 0., 0., 0., 0., 0., 0., 2.02429155e-003, 0., 0.,
          2.02429155e-003, 0., 0., 0., 0., 0., 8.09716620e-003, 0., 0.,
          0., 0., 0., 0., 0., 0., 0., 0., 0., 0., 0., 0., 0., 0., 0., 0.,
          0., 0., 0., 0., 2.02429155e-003, 0., 0., 0., 0.,
          2.02429155e-003, 0., 0., 2.02429155e-003, 0., 0., 0., 0., 0.,
          0., 0., 0., 0., 0., 0., 0., 0., 0., 0., 0., 1.21457493e-002,
          0., 0., 0., 0., 0., 0., 0., 0., 2.02429155e-003, 0., 0., 0.,
          0., 0., 0., 2.02429155e-003, 0., 2.02429155e-003, 0., 0.,
          2.02429155e-003, 0., 0., 0., 0., 0., 0., 0., 0., 0., 0.,
          2.02429155e-003, 0., 0., 0., 0., 0., 0., 0., 0., 0., 0., 0.,
          2.02429155e-003, 0., 0., 0., 0., 0., 0., 2.02429155e-003, 0.,
          0., 0., 0., 0., 0., 0., 0., 0., 0., 0., 0., 6.07287465e-003,
          0., 0., 0., 0., 2.02429155e-003, 0., 2.02429155e-003, 0., 0.,
          0., 0., 0., 0., 0., 0., 0., 0., 0., 0., 0., 2.02429155e-003,
          0., 0., 0., 0., 0., 0., 0., 0., 0., 0., 0., 0., 0., 0., 0., 0.,
          0., 0., 0., 0., 0., 0., 0., 0., 0., 2.02429155e-003, 0., 0.,
          0., 2.02429155e-003, 0., 0., 0., 2.02429155e-003, 0., 0., 0.,
          2.02429155e-003, 0., 0., 0., 1.21457493e-002, 0., 0., 0., 0.,
          8.09716620e-003, 0., 0., 0., 0., 0., 0., 0., 0., 0., 0., 0.,
          0., 0., 0., 0., 0., 4.04858310e-003, 0., 0., 4.04858310e-003,
          0., 0., 0., 2.02429155e-003, 0., 0., 0., 0., 0., 0., 0., 0.,
          0., 0., 0., 0., 0., 0., 0., 2.02429155e-003, 0.,
          4.04858310e-003, 2.02429155e-003, 0., 0., 0., 0., 0., 0., 0.,
          0., 0., 2.02429155e-003, 0., 0., 2.02429155e-003, 0.,
          2.02429155e-003, 0., 0., 2.02429155e-003, 0., 0., 0.,
          2.02429155e-003, 0., 2.02429155e-003, 0., 0., 2.02429155e-003,
          0., 0., 1.82186235e-002, 0., 0., 0., 0., 0., 0., 0., 0., 0.,
          2.02429155e-003, 2.02429155e-003, 0., 0., 0., 0., 0., 0., 0.,
          0., 0., 0., 0., 0., 0., 0., 0., 0., 0., 0., 0., 0., 0., 0., 0.,
          2.02429155e-003, 0., 0., 0., 0., 0., 0., 0. ]
      - [ 0., 0., 0., 0., 0., 0., 0., 0., 0., 0., 0., 0., 0., 0., 0., 0.,
          0., 0., 0., 0., 0., 0., 0., 0., 0., 0., 0., 0., 0., 0.,
          8.26446246e-003, 0., 0., 0., 8.26446246e-003, 0., 0., 0., 0.,
          0., 0., 8.26446246e-003, 0., 0., 0., 0., 8.26446246e-003, 0.,
          0., 0., 0., 0., 0., 0., 0., 8.26446246e-003, 0., 0.,
          8.26446246e-003, 0., 0., 8.26446246e-003, 0., 0., 0., 0., 0.,
          0., 0., 0., 0., 0., 0., 0., 8.26446246e-003, 0., 0., 0., 0.,
          0., 0., 0., 0., 0., 8.26446246e-003, 0., 0., 0., 0.,
          8.26446246e-003, 0., 0., 0., 0., 0., 2.47933865e-002, 0., 0.,
          0., 2.47933865e-002, 0., 0., 0., 8.26446246e-003, 0., 0., 0.,
          0., 0., 0., 0., 8.26446246e-003, 0., 8.26446246e-003, 0., 0.,
          0., 0., 0., 0., 0., 0., 0., 0., 0., 0., 0., 0., 0., 0., 0., 0.,
          8.26446246e-003, 0., 0., 0., 0., 0., 0., 0., 0., 0., 0., 0.,
          0., 0., 0., 0., 0., 0., 0., 0., 0., 0., 0., 0., 0., 0., 0.,
          1.65289249e-002, 0., 0., 0., 0., 0., 0., 0., 0.,
          8.26446246e-003, 0., 0., 0., 0., 0., 0., 0., 0., 0., 0., 0.,
          0., 0., 0., 0., 8.26446246e-003, 0., 0., 0., 0., 0., 0., 0.,
          0., 0., 0., 8.26446246e-003, 0., 0., 0., 0., 0., 0., 0., 0.,
          0., 0., 0., 0., 0., 0., 0., 0., 0., 0., 8.26446246e-003, 0.,
          0., 0., 0., 0., 0., 0., 0., 0., 0., 0., 0., 0., 0., 0., 0., 0.,
          0., 0., 0., 0., 0., 0., 0., 0., 0., 8.26446246e-003, 0., 0.,
          0., 0., 0., 0., 0., 0., 0., 0., 0., 0., 0., 0., 0.,
          8.26446246e-003, 0., 0., 0., 0., 0., 0., 0., 0., 0.,
          8.26446246e-003, 0., 0., 8.26446246e-003, 0., 0., 0., 0., 0.,
          0., 0., 8.26446246e-003, 8.26446246e-003, 0., 0., 0., 0., 0.,
          8.26446246e-003, 0., 0., 8.26446246e-003, 0., 0., 0., 0., 0.,
          8.26446246e-003, 0., 0., 0., 0., 0., 0., 0., 0.,
          8.26446246e-003, 0., 0., 0., 0., 0., 0., 0., 0.,
          8.26446246e-003, 0., 0., 0., 0., 0., 0., 0., 0., 0., 0., 0.,
          0., 1.65289249e-002, 0., 0., 0., 0., 0., 0., 0., 0., 0., 0.,
          0., 0., 0., 0., 8.26446246e-003, 0., 0., 0., 0., 0.,
          8.26446246e-003, 0., 0., 0., 0., 8.26446246e-003, 0., 0., 0.,
          0., 0., 0., 0., 0., 0., 0., 0., 0., 8.26446246e-003, 0., 0.,
          0., 0., 0., 8.26446246e-003, 0., 0., 0., 0., 0., 0., 0., 0.,
          0., 0., 0., 0., 0., 0., 0., 0., 0., 0., 0., 0., 0., 0., 0., 0.,
          0., 0., 0., 0., 0., 0., 0., 0., 0., 0., 0., 0., 0., 0., 0., 0.,
          0., 0., 0., 0., 0., 0., 0., 0., 0., 0., 0., 0., 0., 0., 0., 0.,
          0., 0., 0., 0., 0., 0., 0., 0., 0., 0., 0., 0., 0., 0., 0.,
          8.26446246e-003, 0., 0., 0., 0., 8.26446246e-003, 0., 0., 0.,
          0., 0., 0., 0., 0., 0., 0., 0., 0., 0., 0., 0., 0., 0., 0., 0.,
          0., 0., 0., 0., 0., 0., 0., 8.26446246e-003, 0., 0., 0., 0.,
          0., 0., 0., 0., 0., 0., 0., 0., 0., 0., 0., 0., 0., 0., 0., 0.,
          0., 0., 0., 0., 0., 0., 0., 0., 0., 8.26446246e-003, 0., 0.,
          0., 0., 0., 0., 0., 0., 0., 0., 0., 0., 0., 0., 0., 0., 0., 0.,
          0., 0., 0., 0., 0., 0., 0., 0., 0., 0., 0., 0., 0., 0., 0., 0.,
          8.26446246e-003, 1.65289249e-002, 0., 0., 0., 0., 0., 0., 0.,
          0., 0., 0., 0., 0., 0., 0., 0., 0., 0., 0., 0., 0., 0., 0., 0.,
          0., 0., 0., 0., 0., 0., 0., 0., 0., 0., 8.26446246e-003, 0.,
          0., 0., 0., 0., 0., 0., 0., 0., 0., 0., 8.26446246e-003, 0.,
          0., 0., 0., 0., 0., 0., 0., 8.26446246e-003, 0., 0., 0., 0.,
          0., 8.26446246e-003, 0., 0., 0., 8.26446246e-003, 0., 0., 0.,
          0., 0., 0., 0., 0., 0., 0., 0., 0., 0., 0., 0., 0., 0., 0., 0.,
          0., 2.47933865e-002, 0., 0., 0., 8.26446246e-003, 0., 0., 0.,
          0., 0., 0., 0., 0., 0., 0., 0., 0., 0., 0., 0., 0., 0., 0.,
          1.65289249e-002, 0., 0., 0., 0., 0., 0., 0., 0., 0., 0., 0.,
          0., 0., 0., 0., 0., 0., 0., 0., 0., 0., 0., 0., 0., 0., 0., 0.,
          0., 0., 0., 0., 0., 0., 0., 0., 0., 0., 0., 0., 0., 0., 0., 0.,
          0., 0., 0., 0., 0., 0., 0., 0., 0., 0., 0., 0., 0., 0., 0., 0.,
          0., 0., 0., 0., 0., 8.26446246e-003, 0., 0., 0., 0., 0.,
          8.26446246e-003, 0., 0., 0., 0., 0., 8.26446246e-003, 0., 0.,
          0., 0., 0., 0., 0., 0., 0., 0., 0., 0., 0., 3.30578499e-002,
          0., 0., 0., 0., 0., 0., 0., 0., 0., 0., 0., 0., 0., 0., 0., 0.,
          0., 0., 0., 0., 0., 0., 0., 0., 0., 0., 8.26446246e-003, 0.,
          0., 0., 2.47933865e-002, 0., 0., 0., 0., 0., 0., 0., 0., 0.,
          0., 0., 0., 0., 0., 0., 8.26446246e-003, 0., 0., 0.,
          1.65289249e-002, 0., 0., 0., 0., 0., 8.26446246e-003, 0., 0.,
          0., 0., 0., 0., 0., 0., 0., 0., 0., 0., 0., 0., 0., 0., 0., 0.,
          0., 0., 0., 0., 0., 0., 0., 0., 0., 0., 0., 0., 0., 0., 0., 0.,
          0., 0., 0., 0., 0., 0., 0., 0., 0., 0., 0., 0., 0., 0., 0., 0.,
          0., 0., 0., 0., 0., 0., 0., 0., 0., 0., 0., 0.,
          8.26446246e-003, 0., 0., 0., 0., 0., 0., 0., 0., 0., 0., 0.,
          0., 0., 0., 0., 0., 0., 0., 0., 0., 0., 0., 0., 0., 0., 0., 0.,
          8.26446246e-003, 0., 0., 0., 0., 0., 0., 0., 0., 0., 0., 0.,
          0., 0., 0., 1.65289249e-002, 0., 0., 0., 0., 0., 0., 0., 0.,
          0., 0., 0., 0., 0., 0., 0., 0., 0., 0., 0., 0., 0., 0., 0., 0.,
          0., 0., 0., 0., 0., 0., 0., 0., 0., 0., 0., 0., 0., 0., 0., 0.,
          0., 0., 0., 0., 0., 0., 0., 0., 0., 8.26446246e-003, 0., 0.,
          0., 0., 0., 0., 0., 0., 0., 0., 0., 0., 0., 0., 0., 0.,
          8.26446246e-003, 0., 0., 0., 0., 0., 0., 0., 0., 0., 0., 0.,
          0., 0., 0., 0., 0., 0., 0., 0., 0., 0., 0., 0., 0., 0., 0., 0.,
          0., 0., 0., 0., 0., 0., 0., 0., 0., 0., 0., 0., 0., 0., 0.,
          8.26446246e-003, 0., 0., 0., 0., 0., 0., 0., 0., 0., 0., 0.,
          0., 3.30578499e-002, 0., 0., 0., 0., 0., 0., 0., 0., 0., 0.,
          0., 0., 0., 0., 0., 0., 0., 0., 0., 0., 0., 0., 0., 0., 0., 0.,
          0., 0., 0., 0., 0., 0., 0., 0., 0., 0., 0., 0., 0., 0., 0., 0.,
          0., 0., 0., 0., 0., 0., 0., 0., 0., 0., 8.26446246e-003, 0.,
          0., 0., 0., 0., 0., 0., 2.47933865e-002, 8.26446246e-003, 0.,
          0., 0., 0., 0., 0., 0., 0., 0., 0., 0., 0., 0., 0., 0., 0., 0.,
          0., 0., 8.26446246e-003, 0., 0., 0., 0., 0., 0., 0., 0., 0.,
          0., 0., 0., 0., 0., 0., 0., 0., 0., 0., 8.26446246e-003, 0.,
          0., 0., 0., 0., 0., 0., 0., 0., 0., 0., 0., 0., 0., 0., 0., 0.,
          0., 0., 0., 0., 0., 0., 0., 8.26446246e-003, 0., 0., 0., 0.,
          0., 0., 0., 0., 0., 0., 0., 0., 0., 0., 0., 0., 0.,
          8.26446246e-003, 0., 0., 0., 0., 0., 0., 0., 0., 0., 0., 0.,
          8.26446246e-003, 8.26446246e-003, 0., 0., 0., 0., 0., 0., 0.,
          0., 0., 0., 8.26446246e-003, 0., 0., 0., 0., 0., 0., 0., 0.,
          0., 0., 1.65289249e-002, 0., 0., 0., 0., 0., 0.,
          8.26446246e-003, 0., 0., 0., 0., 0., 0., 0., 0., 0., 0., 0.,
          0., 0., 0., 0., 0., 0., 0., 0., 0., 0., 0., 0., 0., 0.,
          8.26446246e-003, 0., 0., 0., 0., 0., 0., 0., 0., 0., 0., 0.,
          8.26446246e-003, 8.26446246e-003, 0., 0., 0., 0., 0., 0., 0.,
          0., 0., 0., 0., 0., 0., 0., 0., 0., 0., 0., 0., 0., 0., 0., 0.,
          0., 0., 0., 0., 0., 0., 0., 0., 0., 0., 0., 0., 0., 0., 0., 0.,
          0., 0., 0., 0., 0., 0., 0., 0., 0., 0., 0., 0., 0., 0., 0., 0.,
          0., 8.26446246e-003, 0., 0., 0., 0., 0., 0., 0., 0., 0., 0.,
          0., 0., 0., 0., 0., 0., 0., 0., 0., 0., 0., 0., 0., 0., 0., 0.,
          0., 0., 0., 0., 0., 0., 0., 0., 0., 0., 0., 0., 0., 0., 0., 0.,
          0., 0., 0., 0., 0., 8.26446246e-003, 0., 0., 0., 0.,
          8.26446246e-003, 0., 0., 0., 0., 0., 0., 0., 0., 0., 0., 0.,
          0., 0., 0., 0., 0., 8.26446246e-003, 0., 0., 0., 0., 0., 0.,
          0., 0., 0., 0., 0., 8.26446246e-003, 0., 0., 0., 0., 0., 0.,
          0., 0., 0., 0., 0., 8.26446246e-003, 0., 0., 0., 0.,
          3.30578499e-002, 0., 0., 8.26446246e-003, 0., 0., 0., 0., 0.,
          0., 0., 0., 0., 1.65289249e-002, 0., 0., 0., 0., 0., 0., 0.,
          0., 0., 0., 0., 0., 0., 0., 0., 0., 0., 0., 0., 0., 0., 0., 0.,
          0., 0., 0., 0., 0., 0., 0., 0., 1.65289249e-002, 0., 0., 0.,
          0., 0., 0., 0., 0., 0., 0., 0., 0., 0., 0., 0., 0., 0., 0., 0.,
          0., 0., 0., 0., 0., 0., 0., 0., 0., 0., 0., 0., 0., 0., 0., 0.,
          0., 0., 0., 0., 0., 0., 0., 0., 0., 0., 0. ]
      - [ 0., 0., 0., 0., 0., 0., 0., 0., 0., 0., 0., 1.19047621e-002,
          0., 0., 0., 0., 3.57142873e-002, 0., 0., 0., 0., 0., 0., 0.,
          0., 0., 0., 0., 0., 1.19047621e-002, 0., 1.19047621e-002, 0.,
          0., 1.19047621e-002, 0., 0., 0., 0., 0., 0., 0.,
          1.19047621e-002, 0., 0., 0., 0., 0., 0., 0., 0., 0., 0., 0.,
          0., 0., 0., 0., 0., 0., 0., 0., 0., 0., 0., 0., 0., 0., 0., 0.,
          0., 0., 0., 0., 0., 0., 0., 0., 0., 0., 0., 0., 0., 0., 0., 0.,
          0., 0., 0., 0., 0., 0., 0., 0., 0., 0., 0., 0., 0., 0.,
          1.19047621e-002, 0., 0., 0., 0., 0., 0., 0., 0.,
          1.19047621e-002, 0., 0., 0., 1.19047621e-002, 0.,
          1.19047621e-002, 0., 0., 0., 0., 0., 0., 0., 2.38095243e-002,
          0., 0., 0., 0., 0., 0., 0., 0., 0., 0., 0., 1.19047621e-002,
          0., 0., 0., 0., 0., 0., 0., 0., 0., 0., 0., 0., 0., 0., 0., 0.,
          1.19047621e-002, 0., 0., 0., 0., 0., 1.19047621e-002, 0., 0.,
          0., 0., 0., 0., 0., 0., 0., 0., 0., 1.19047621e-002, 0., 0.,
          0., 0., 0., 0., 0., 0., 0., 0., 0., 0., 0., 0., 0., 0.,
          1.19047621e-002, 0., 0., 0., 0., 0., 0., 0., 0., 0., 0., 0.,
          0., 0., 1.19047621e-002, 0., 1.19047621e-002, 0., 0., 0., 0.,
          0., 0., 0., 0., 0., 0., 0., 0., 3.57142873e-002, 0., 0., 0.,
          0., 0., 0., 0., 0., 0., 0., 0., 0., 0., 0., 1.19047621e-002,
          0., 0., 0., 0., 0., 0., 0., 0., 0., 0., 0., 0., 0., 0., 0., 0.,
          0., 0., 0., 0., 0., 0., 0., 0., 0., 1.19047621e-002, 0., 0.,
          0., 0., 0., 0., 0., 0., 2.38095243e-002, 0., 0., 0., 0., 0.,
          0., 0., 0., 0., 0., 0., 0., 1.19047621e-002, 0., 0., 0., 0.,
          0., 0., 0., 0., 1.19047621e-002, 0., 0., 0., 1.19047621e-002,
          0., 1.19047621e-002, 0., 0., 0., 0., 0., 0., 0., 0., 0., 0.,
          0., 0., 0., 0., 0., 0., 0., 0., 0., 0., 0., 0., 0., 0., 0., 0.,
          0., 0., 0., 0., 2.38095243e-002, 0., 0., 0., 0., 0., 0., 0.,
          0., 0., 0., 0., 0., 0., 0., 0., 0., 0., 0., 0., 0., 0.,
          1.19047621e-002, 0., 0., 0., 1.19047621e-002, 0., 0., 0., 0.,
          0., 0., 0., 0., 0., 0., 0., 0., 0., 0., 0., 0., 0., 0., 0., 0.,
          0., 0., 0., 0., 0., 0., 0., 0., 0., 0., 0., 0., 0., 0., 0., 0.,
          0., 0., 0., 0., 0., 0., 0., 0., 0., 0., 0., 0., 0.,
          1.19047621e-002, 0., 0., 0., 0., 0., 0., 0., 0., 0., 0., 0.,
          0., 0., 0., 0., 0., 0., 0., 0., 0., 0., 0., 0., 0., 0., 0., 0.,
          0., 0., 0., 0., 0., 0., 0., 0., 0., 0., 0., 0., 0., 0., 0., 0.,
          0., 0., 0., 0., 0., 0., 0., 0., 0., 0., 0., 0., 0., 0., 0., 0.,
          0., 0., 0., 0., 0., 0., 0., 0., 0., 0., 0., 0., 0., 0., 0., 0.,
          0., 0., 0., 0., 0., 0., 0., 0., 0., 0., 0., 1.19047621e-002,
          1.19047621e-002, 0., 0., 0., 0., 0., 0., 0., 0., 0., 0., 0.,
          0., 0., 0., 1.19047621e-002, 0., 0., 0., 0., 0., 0., 0., 0.,
          0., 1.19047621e-002, 0., 0., 0., 0., 0., 0., 1.19047621e-002,
          0., 0., 0., 0., 0., 0., 0., 0., 0., 0., 0., 0., 0.,
          1.19047621e-002, 0., 0., 0., 0., 1.19047621e-002, 0., 0., 0.,
          0., 0., 0., 0., 0., 0., 0., 0., 0., 0., 0., 0., 0., 0., 0., 0.,
          0., 0., 0., 0., 0., 0., 0., 0., 0., 0., 0., 0., 0., 0., 0.,
          1.19047621e-002, 0., 0., 0., 0., 0., 0., 0., 0., 0.,
          1.19047621e-002, 0., 0., 0., 0., 0., 0., 0., 2.38095243e-002,
          0., 0., 0., 0., 0., 0., 0., 0., 0., 0., 0., 0., 0., 0., 0., 0.,
          0., 0., 0., 0., 0., 0., 0., 0., 0., 0., 0., 0., 0., 0., 0., 0.,
          0., 0., 0., 0., 0., 0., 0., 0., 0., 0., 0., 0., 0., 0., 0., 0.,
          0., 0., 0., 0., 0., 0., 0., 0., 0., 0., 0., 0., 0., 0., 0., 0.,
          0., 0., 0., 4.76190485e-002, 0., 0., 0., 0., 0., 0., 0., 0.,
          0., 0., 0., 0., 0., 0., 0., 0., 0., 0., 0., 0., 0., 0., 0., 0.,
          0., 0., 0., 0., 0., 0., 0., 0., 0., 0., 0., 0., 0., 0., 0., 0.,
          0., 0., 0., 0., 0., 0., 0., 0., 0., 0., 0., 0., 0., 0., 0., 0.,
          0., 0., 0., 0., 0., 0., 0., 0., 0., 0., 0., 0., 0., 0., 0., 0.,
          0., 0., 0., 0., 0., 0., 0., 0., 0., 0., 0., 0., 0., 0., 0., 0.,
          0., 0., 0., 0., 0., 0., 0., 0., 0., 0., 1.19047621e-002, 0.,
          0., 0., 0., 0., 0., 0., 0., 0., 0., 0., 0., 0., 0., 0., 0., 0.,
          0., 0., 0., 0., 0., 0., 0., 0., 0., 0., 0., 0., 0., 0., 0., 0.,
          0., 0., 0., 0., 0., 0., 0., 0., 0., 0., 0., 0., 0., 0., 0.,
          1.19047621e-002, 0., 0., 0., 1.19047621e-002, 0., 0., 0., 0.,
          0., 0., 0., 0., 0., 0., 0., 0., 0., 0., 0., 0.,
          3.57142873e-002, 0., 0., 0., 0., 0., 0., 0., 2.38095243e-002,
          0., 0., 0., 0., 0., 0., 0., 0., 0., 0., 0., 0., 0., 0., 0., 0.,
          0., 0., 0., 0., 0., 0., 0., 0., 0., 0., 0., 0., 0., 0., 0., 0.,
          0., 0., 0., 0., 0., 0., 0., 0., 0., 0., 0., 0., 0., 0., 0., 0.,
          0., 0., 0., 0., 0., 0., 0., 0., 0., 0., 0., 0., 0., 0., 0., 0.,
          0., 0., 0., 0., 0., 0., 0., 0., 0., 0., 0., 0., 0., 0., 0., 0.,
          0., 0., 0., 0., 0., 0., 0., 0., 0., 0., 0., 0., 0., 0., 0.,
          1.19047621e-002, 0., 0., 0., 0., 0., 0., 0., 0., 0., 0., 0.,
          0., 2.38095243e-002, 0., 0., 0., 0., 0., 0., 0., 0., 0., 0.,
          0., 0., 0., 0., 0., 0., 0., 0., 0., 0., 1.19047621e-002, 0.,
          1.19047621e-002, 1.19047621e-002, 0., 0., 0., 0., 0., 0., 0.,
          0., 0., 0., 0., 0., 0., 0., 0., 0., 0., 0., 0., 0., 0., 0., 0.,
          0., 0., 0., 0., 0., 0., 0., 0., 0., 0., 0., 0., 0., 0., 0., 0.,
          0., 0., 0., 1.19047621e-002, 0., 0., 0., 0., 0., 0., 0., 0.,
          0., 0., 0., 0., 0., 0., 0., 0., 0., 0., 0., 0., 0., 0., 0., 0.,
          0., 0., 0., 0., 0., 0., 0., 0., 0., 0., 0., 0., 0., 0., 0., 0.,
          0., 0., 0., 0., 0., 0., 0., 0., 0., 0., 0., 0., 0., 0., 0., 0.,
          0., 1.19047621e-002, 0., 0., 0., 0., 0., 0., 0., 0., 0., 0.,
          0., 0., 0., 0., 0., 0., 0., 0., 0., 0., 0., 1.19047621e-002,
          0., 0., 0., 0., 0., 0., 0., 0., 0., 0., 0., 0., 0., 0., 0., 0.,
          0., 0., 0., 0., 0., 0., 0., 0., 0., 0., 0., 0., 0., 0., 0., 0.,
          0., 1.19047621e-002, 0., 0., 2.38095243e-002, 0., 0., 0., 0.,
          0., 0., 0., 0., 0., 0., 0., 0., 0., 0., 0., 0., 0., 0., 0., 0.,
          0., 0., 0., 0., 0., 0., 0., 0., 0., 0., 0., 0., 0., 0., 0., 0.,
          0., 0., 0., 0., 0., 0., 0., 0., 0., 0., 0., 0., 0., 0.,
          1.19047621e-002, 0., 0., 0., 0., 0., 0., 0., 0., 0., 0., 0.,
          0., 0., 0., 0., 0., 0., 0., 0., 0., 0., 0., 0., 0., 0., 0., 0.,
          0., 0., 0., 0., 0., 0., 0., 0., 0., 0., 0., 0., 0., 0., 0., 0.,
          0., 0., 2.38095243e-002, 0., 0., 0., 0., 0., 0., 0., 0., 0.,
          0., 0., 0., 0., 0., 0., 0., 0., 0., 0., 0., 0., 0.,
          2.38095243e-002, 0., 0., 0., 1.19047621e-002, 0., 0., 0., 0.,
          0., 0., 0., 0., 0., 0., 0., 0., 0., 0., 0., 0., 0., 0., 0., 0.,
          0., 0., 0., 0., 0., 0., 0., 0., 0., 0., 0., 0., 0., 0., 0., 0.,
          0., 0., 0., 0., 0., 0., 0., 0., 0., 0., 0., 0., 0., 0., 0., 0.,
          0., 1.19047621e-002, 0., 0., 0., 0., 0., 0., 0., 0., 0., 0.,
          0., 0., 0., 0., 0., 0., 0., 0., 0., 0., 0., 0., 0., 0., 0., 0.,
          0., 0., 0., 0., 0., 0., 0., 0., 0., 0., 0., 0., 0., 0., 0., 0.,
          0., 0., 0., 0., 0., 0., 0., 0., 0., 0., 0., 0., 0., 0., 0., 0.,
          0., 0., 0., 0., 0., 0., 0., 0., 0., 0., 0., 0., 0., 0., 0., 0.,
          0., 0., 0., 0., 0., 0., 0., 1.19047621e-002, 0., 0., 0., 0.,
          0., 0., 0., 0., 0., 0., 0., 1.19047621e-002, 0., 0., 0., 0.,
          0., 0., 0., 0., 0., 0., 0., 0., 0., 0., 0., 0., 0., 0., 0., 0.,
          0., 0., 0., 0., 0., 0., 0., 0., 0., 0., 0., 0., 0., 0., 0., 0.,
          0., 1.19047621e-002, 0., 0., 0., 0., 0., 0., 0., 0., 0., 0.,
          0., 0., 0., 0., 0., 0., 0., 0., 0., 0., 0., 0.,
          1.19047621e-002, 0., 0., 0., 0., 0., 0., 0., 0., 0., 0., 0.,
          0., 0., 0., 0., 0., 0., 0., 1.19047621e-002, 0., 0., 0., 0.,
          0., 0., 0., 0., 0., 0., 0., 0., 0., 0., 0., 0. ]
      - [ 0., 0., 0., 0., 0., 0., 0., 0., 4.58715577e-003, 0., 0.,
          4.58715577e-003, 0., 0., 0., 0., 0., 0., 0., 0., 0.,
          4.58715577e-003, 0., 4.58715577e-003, 0., 4.58715577e-003, 0.,
          0., 0., 0., 4.58715577e-003, 0., 0., 0., 0., 0., 0., 0., 0.,
          9.17431153e-003, 4.58715577e-003, 4.58715577e-003,
          4.58715577e-003, 0., 0., 0., 0., 0., 4.58715577e-003, 0., 0.,
          0., 0., 0., 4.58715577e-003, 0., 4.58715577e-003,
          1.37614673e-002, 1.37614673e-002, 0., 0., 0., 0., 0., 0., 0.,
          0., 0., 0., 0., 0., 0., 9.17431153e-003, 0., 0., 0., 0., 0.,
          0., 0., 0., 0., 0., 0., 4.58715577e-003, 0., 0.,
          4.58715577e-003, 0., 0., 4.58715577e-003, 0., 0., 0., 0.,
          1.37614673e-002, 0., 0., 0., 4.58715577e-003, 0., 0., 0., 0.,
          0., 0., 0., 0., 0., 0., 0., 0., 4.58715577e-003, 0., 0.,
          9.17431153e-003, 0., 0., 0., 4.58715577e-003, 0., 0., 0., 0.,
          0., 0., 0., 0., 9.17431153e-003, 0., 3.21100913e-002, 0., 0.,
          0., 0., 4.58715577e-003, 0., 0., 0., 4.58715577e-003, 0., 0.,
          0., 4.58715577e-003, 0., 0., 0., 0., 0., 0., 0., 0.,
          9.17431153e-003, 4.58715577e-003, 0., 0., 0., 0.,
          4.58715577e-003, 9.17431153e-003, 0., 0., 0., 0.,
          4.58715577e-003, 0., 0., 0., 0., 4.58715577e-003, 0., 0., 0.,
          0., 0., 0., 0., 0., 0., 0., 0., 0., 0., 0., 0., 0., 0., 0., 0.,
          0., 0., 0., 4.58715577e-003, 0., 0., 9.17431153e-003, 0., 0.,
          4.58715577e-003, 0., 0., 0., 0., 0., 0., 0., 0., 0., 0., 0.,
          0., 0., 0., 0., 0., 0., 0., 0., 0., 0., 0., 0., 0., 0., 0., 0.,
          0., 0., 0., 0., 0., 0., 0., 0., 0., 0., 0., 4.58715577e-003,
          2.29357779e-002, 0., 0., 4.58715577e-003, 0., 0., 0., 0., 0.,
          0., 0., 0., 0., 0., 0., 0., 0., 0., 0., 4.58715577e-003, 0.,
          0., 0., 0., 1.83486231e-002, 0., 0., 4.58715577e-003,
          4.58715577e-003, 0., 0., 0., 0., 0., 0., 0., 0.,
          4.58715577e-003, 0., 0., 0., 0., 0., 0., 4.58715577e-003, 0.,
          0., 0., 0., 0., 4.58715577e-003, 0., 9.17431153e-003, 0., 0.,
          0., 4.58715577e-003, 0., 0., 4.58715577e-003, 0., 0., 0.,
          4.58715577e-003, 0., 1.37614673e-002, 0., 0., 0.,
          4.58715577e-003, 0., 0., 0., 0., 0., 0., 0., 0.,
          4.58715577e-003, 0., 0., 0., 0., 0., 0., 4.58715577e-003, 0.,
          0., 0., 0., 0., 0., 0., 0., 0., 0., 0., 0., 0., 0.,
          4.58715577e-003, 0., 0., 0., 0., 4.58715577e-003, 0., 0., 0.,
          0., 0., 0., 0., 4.58715577e-003, 0., 0., 0., 0., 0., 0., 0.,
          0., 0., 0., 0., 0., 0., 0., 0., 0., 0., 0., 1.37614673e-002,
          0., 0., 0., 0., 0., 0., 0., 0., 0., 0., 0., 0.,
          9.17431153e-003, 0., 9.17431153e-003, 0., 0., 0., 0.,
          4.58715577e-003, 0., 0., 0., 0., 0., 0., 0., 0., 0., 0.,
          4.58715577e-003, 0., 0., 0., 0., 0., 0., 0., 0., 0., 0., 0.,
          0., 0., 0., 0., 0., 0., 4.58715577e-003, 0., 0., 0., 0., 0.,
          0., 0., 0., 0., 0., 0., 4.58715577e-003, 0., 0., 0.,
          9.17431153e-003, 0., 0., 0., 0., 0., 0., 0., 0., 0.,
          9.17431153e-003, 0., 0., 0., 0., 0., 0., 0., 0., 0., 0., 0.,
          0., 0., 0., 0., 0., 0., 0., 0., 0., 0., 0., 0., 0., 0., 0., 0.,
          0., 0., 0., 0., 4.58715577e-003, 0., 0., 0., 9.17431153e-003,
          0., 0., 4.58715577e-003, 0., 0., 0., 4.58715577e-003, 0., 0.,
          0., 0., 0., 0., 0., 0., 0., 0., 0., 4.58715577e-003,
          4.58715577e-003, 0., 0., 4.58715577e-003, 0., 0., 0., 0., 0.,
          0., 0., 0., 0., 0., 0., 0., 0., 0., 0., 0., 0., 0., 0., 0.,
          4.58715577e-003, 0., 0., 0., 0., 0., 9.17431153e-003, 0., 0.,
          0., 0., 0., 0., 0., 0., 0., 0., 0., 0., 4.58715577e-003, 0.,
          0., 0., 0., 4.58715577e-003, 0., 0., 0., 0., 0., 0., 0., 0.,
          0., 0., 0., 0., 0., 0., 0., 0., 0., 4.58715577e-003, 0.,
          4.58715577e-003, 0., 0., 0., 4.58715577e-003, 4.58715577e-003,
          0., 0., 0., 0., 0., 0., 0., 0., 0., 0., 0., 0., 0.,
          4.58715577e-003, 0., 0., 0., 0., 0., 0., 0., 0., 0., 0., 0.,
          0., 0., 0., 0., 0., 0., 0., 0., 0., 0., 0., 0., 0., 0., 0., 0.,
          0., 0., 0., 0., 0., 0., 0., 0., 0., 0., 0., 0., 0., 0.,
          9.17431153e-003, 0., 0., 0., 0., 0., 0., 9.17431153e-003, 0.,
          4.58715577e-003, 0., 0., 0., 0., 0., 0., 0., 0., 0.,
          4.58715577e-003, 9.17431153e-003, 0., 0., 0., 0., 0.,
          4.58715577e-003, 0., 9.17431153e-003, 0., 0., 0., 0., 0.,
          4.58715577e-003, 4.58715577e-003, 0., 0., 0., 0., 0., 0., 0.,
          0., 0., 0., 0., 0., 0., 0., 0., 0., 0., 0., 0.,
          4.58715577e-003, 0., 0., 0., 4.58715577e-003, 0., 0., 0., 0.,
          0., 0., 0., 0., 0., 0., 0., 4.58715577e-003, 0., 0., 0., 0.,
          0., 0., 0., 0., 0., 0., 0., 0., 0., 0., 0., 0., 0., 0., 0., 0.,
          0., 0., 0., 0., 0., 0., 0., 0., 0., 0., 4.58715577e-003, 0.,
          4.58715577e-003, 0., 0., 0., 0., 0., 4.58715577e-003, 0., 0.,
          0., 0., 4.58715577e-003, 0., 0., 0., 0., 0., 0., 0., 0., 0.,
          0., 0., 0., 0., 0., 0., 0., 0., 0., 0., 0., 0., 0., 0., 0., 0.,
          0., 0., 9.17431153e-003, 0., 0., 4.58715577e-003, 0., 0., 0.,
          0., 0., 0., 0., 0., 4.58715577e-003, 0., 0., 0., 0., 0., 0.,
          0., 0., 0., 0., 0., 0., 0., 4.58715577e-003, 0., 0., 0., 0.,
          0., 0., 4.58715577e-003, 0., 0., 0., 0., 0., 0., 0., 0., 0.,
          0., 0., 0., 0., 0., 0., 4.58715577e-003, 0., 0., 0., 0., 0.,
          0., 2.29357779e-002, 0., 4.58715577e-003, 0., 0., 0., 0., 0.,
          0., 0., 0., 0., 0., 0., 0., 0., 0., 0., 0., 0., 0., 0., 0., 0.,
          0., 0., 0., 0., 0., 0., 0., 4.58715577e-003, 0., 0., 0., 0.,
          0., 0., 4.58715577e-003, 0., 0., 0., 0., 0., 0., 0., 0., 0.,
          0., 4.58715577e-003, 0., 0., 0., 0., 0., 1.37614673e-002, 0.,
          0., 0., 4.58715577e-003, 0., 0., 0., 0., 0., 0., 0., 0., 0.,
          0., 0., 0., 0., 0., 4.58715577e-003, 0., 0., 0., 0., 0., 0.,
          0., 0., 0., 0., 0., 0., 0., 0., 0., 0., 0., 0., 0., 0., 0., 0.,
          0., 0., 0., 0., 0., 0., 0., 0., 0., 4.58715577e-003, 0., 0.,
          0., 0., 4.58715577e-003, 0., 0., 0., 0., 0., 0., 0., 0., 0.,
          0., 0., 0., 4.58715577e-003, 0., 4.58715577e-003, 0., 0., 0.,
          0., 4.58715577e-003, 0., 0., 4.58715577e-003, 0., 0., 0., 0.,
          0., 0., 0., 9.17431153e-003, 0., 0., 0., 0., 0.,
          4.58715577e-003, 0., 0., 0., 0., 0., 0., 0., 0., 0., 0., 0.,
          0., 0., 0., 0., 0., 0., 0., 0., 0., 0., 0., 0.,
          4.58715577e-003, 0., 0., 0., 0., 0., 4.58715577e-003, 0., 0.,
          4.58715577e-003, 0., 0., 4.58715577e-003, 0., 0., 0., 0., 0.,
          0., 0., 0., 0., 0., 0., 0., 1.83486231e-002, 0., 0., 0., 0.,
          0., 0., 0., 0., 0., 0., 0., 0., 0., 0., 0., 0.,
          4.58715577e-003, 0., 0., 0., 0., 0., 0., 0., 0., 0., 0., 0.,
          0., 0., 0., 0., 0., 0., 0., 0., 0., 0., 0., 0., 0., 0., 0., 0.,
          0., 4.58715577e-003, 0., 0., 0., 0., 0., 0., 0., 0., 0., 0.,
          0., 0., 0., 0., 0., 0., 4.58715577e-003, 0., 0., 0., 0., 0.,
          0., 4.58715577e-003, 4.58715577e-003, 0., 0., 0., 0., 0., 0.,
          0., 0., 0., 0., 0., 0., 0., 0., 0., 0., 0., 0., 0., 0., 0., 0.,
          0., 0., 0., 0., 0., 0., 0., 0., 4.58715577e-003, 0., 0., 0.,
          0., 0., 0., 0., 0., 0., 0., 0., 4.58715577e-003, 0., 0., 0.,
          0., 0., 0., 0., 0., 4.58715577e-003, 0., 0., 0., 0., 0., 0.,
          0., 0., 0., 0., 9.17431153e-003, 4.58715577e-003, 0., 0., 0.,
          0., 0., 0., 0., 0., 0., 0., 0., 0., 0., 0., 0., 0., 0., 0., 0.,
          0., 0., 0., 0., 0., 0., 0., 0., 0., 0., 0., 0., 0., 0., 0., 0.,
          0., 0., 0., 0., 0., 0., 0., 0., 4.58715577e-003,
          4.58715577e-003, 0., 0., 0., 0., 0., 0., 0., 0., 0., 0., 0.,
          0., 0., 0., 0., 0., 4.58715577e-003, 4.58715577e-003, 0., 0.,
          0., 0., 0., 0., 0., 0., 4.58715577e-003, 0., 0., 0., 0., 0.,
          0., 0., 0., 0., 0., 0., 0., 0., 0., 0., 0., 0.,
          9.17431153e-003, 0., 0., 0., 0., 0., 0., 0., 0., 0., 0., 0.,
          0., 0., 0., 0., 0., 0., 0., 0., 0., 0., 0., 0., 0., 0., 0.,
          4.58715577e-003, 0., 0., 0., 0., 0., 1.37614673e-002, 0., 0.,
          0., 0., 0., 0., 0., 0., 0., 0., 0., 0., 0., 0., 0., 0., 0., 0.,
          0., 0., 0., 0., 0., 0., 0., 0., 0., 0., 0., 0., 0., 0., 0., 0.,
          0., 0., 0., 0., 4.58715577e-003, 4.58715577e-003, 0., 0., 0.,
          0., 0., 0., 0., 0., 0., 0., 0., 0., 0., 4.58715577e-003, 0.,
          0., 0., 4.58715577e-003, 0., 0., 0., 0., 0., 0., 0., 0., 0.,
          0., 0., 0., 0., 0., 0., 0., 4.58715577e-003, 0., 0., 0., 0.,
          0., 0., 0., 0., 0., 0., 0., 0., 0., 0., 0., 0., 0., 0., 0.,
          9.17431153e-003, 0., 0., 0., 0., 0., 0., 0., 0., 0., 0., 0.,
          0., 0., 0., 0., 0., 0., 0., 0., 4.58715577e-003, 0., 0., 0.,
          4.58715577e-003, 4.58715577e-003, 0., 0., 0., 0., 0., 0., 0.,
          0., 0., 0., 0., 0., 0., 0., 0., 0., 0., 0., 0.,
          4.58715577e-003, 0., 0., 0., 0., 0., 0., 4.58715577e-003, 0.,
          0., 0., 0., 4.58715577e-003, 0., 0., 0., 0., 0., 0., 0., 0.,
          0., 0., 0., 4.58715577e-003, 0., 0., 0., 0., 0., 0., 0., 0.,
          4.58715577e-003, 0., 0., 0., 0., 0., 0., 0., 0., 0., 0., 0.,
          0., 0., 0., 0., 0., 0., 0., 0., 0., 0., 0., 0., 0., 0., 0., 0.,
          0., 0., 0., 0., 0., 0., 0., 0., 0., 0., 0., 4.58715577e-003,
          0., 4.58715577e-003, 0. ]
      - [ 0., 0., 0., 0., 0., 0., 0., 0., 0., 0., 0., 0., 0., 0., 0., 0.,
          0., 0., 0., 0., 0., 0., 0., 0., 0., 0., 0., 0., 0., 0., 0., 0.,
          0., 0., 0., 0., 0., 0., 0., 0., 0., 0., 0., 0., 0., 0., 0., 0.,
          0., 0., 0., 0., 0., 0., 0., 0., 0., 0., 0., 0., 0., 0., 0., 0.,
          0., 0., 0., 0., 0., 0., 0., 0., 0., 0., 0., 0., 0., 0., 0., 0.,
          0., 0., 0., 0., 0., 0., 0., 0., 0., 0., 0., 0., 0., 0., 0., 0.,
          0., 0., 0., 0., 0., 0., 0., 0., 0., 0., 0., 0., 0., 0., 0., 0.,
          0., 0., 0., 0., 0., 0., 0., 0., 0., 0., 0., 0., 0., 0., 0., 0.,
          0., 0., 0., 0., 0., 0., 0., 0., 0., 0., 0., 0., 0., 0., 0., 0.,
          0., 0., 0., 0., 0., 0., 0., 0., 0., 0., 0., 0., 0., 0., 0., 0.,
          0., 0., 0., 0., 0., 0., 0., 0., 0., 0., 5.26315793e-002, 0.,
          0., 0., 0., 0., 0., 0., 0., 0., 0., 0., 0., 0., 0., 0., 0., 0.,
          0., 0., 0., 0., 0., 0., 0., 0., 0., 0., 0., 0., 0., 0., 0.,
          1.05263159e-001, 0., 0., 0., 0., 0., 0., 0., 0., 0.,
          1.05263159e-001, 0., 0., 0., 0., 5.26315793e-002, 0., 0., 0.,
          0., 0., 0., 0., 0., 0., 0., 0., 0., 0., 0., 0., 0., 0., 0., 0.,
          0., 0., 0., 0., 0., 0., 0., 0., 0., 0., 0., 0., 0., 0., 0., 0.,
          0., 0., 0., 0., 0., 0., 0., 0., 0., 0., 0., 0., 0., 0., 0., 0.,
          0., 0., 0., 0., 0., 0., 0., 0., 0., 0., 0., 0., 0., 0., 0., 0.,
          0., 0., 0., 0., 0., 0., 0., 0., 5.26315793e-002, 0., 0., 0.,
          0., 0., 0., 0., 0., 0., 0., 0., 0., 0., 0., 0., 0., 0., 0., 0.,
          0., 0., 0., 0., 0., 0., 0., 0., 0., 0., 0., 0., 0., 0., 0., 0.,
          0., 0., 0., 0., 0., 0., 0., 0., 0., 0., 0., 0., 0., 0., 0., 0.,
          0., 0., 0., 0., 0., 0., 0., 0., 0., 0., 0., 0., 0., 0., 0., 0.,
          0., 0., 0., 0., 0., 0., 0., 0., 0., 0., 0., 0., 0., 0., 0., 0.,
          0., 0., 0., 0., 0., 0., 0., 0., 0., 0., 0., 0., 0., 0., 0., 0.,
