<?xml version="1.0"?>
<opencv_storage>
<cascade>
  <stageType>BOOST</stageType>
  <featureType>LBP</featureType>
  <height>20</height>
  <width>60</width>
  <stageParams>
    <boostType>GAB</boostType>
    <minHitRate>9.9900001287460327e-01</minHitRate>
    <maxFalseAlarm>5.0000000000000000e-01</maxFalseAlarm>
    <weightTrimRate>9.4999999999999996e-01</weightTrimRate>
    <maxDepth>1</maxDepth>
    <maxWeakCount>100</maxWeakCount></stageParams>
  <featureParams>
    <maxCatCount>256</maxCatCount>
    <featSize>1</featSize></featureParams>
  <stageNum>20</stageNum>
  <stages>
    <!-- stage 0 -->
    <_>
      <maxWeakCount>6</maxWeakCount>
      <stageThreshold>-1.6312792301177979e+00</stageThreshold>
      <weakClassifiers>
        <_>
          <internalNodes>
            0 -1 91 -754921256 -586481656 268472537 -551609963
            -1953855270 -92045176 -2012702213 -548697699</internalNodes>
          <leafValues>
            -7.9208540916442871e-01 4.8350253701210022e-01</leafValues></_>
        <_>
          <internalNodes>
            0 -1 57 -104730416 -11415536 1426083925 1599410483
            -1609858824 -922730256 202017439 185534623</internalNodes>
          <leafValues>
            -8.0125236511230469e-01 4.4203224778175354e-01</leafValues></_>
        <_>
          <internalNodes>
            0 -1 94 -1191161608 -41566008 286871793 1431126289
            -1214742290 -1953890070 402689215 -15859507</internalNodes>
          <leafValues>
            -6.4387685060501099e-01 5.1965105533599854e-01</leafValues></_>
        <_>
          <internalNodes>
            0 -1 136 -662662920 -41385984 269684949 1460244557
            -2146921800 -1886779134 33564575 -1706360421</internalNodes>
          <leafValues>
            -5.8181780576705933e-01 5.6172871589660645e-01</leafValues></_>
        <_>
          <internalNodes>
            0 -1 82 -176107304 -2259776 134320633 -749188967 -1459611480
            -1450573696 439401151 -1626727749</internalNodes>
          <leafValues>
            -5.4190647602081299e-01 5.6595718860626221e-01</leafValues></_>
        <_>
          <internalNodes>
            0 -1 71 1602279888 -102379496 288527189 890574161
            -1417096774 -1157146424 286269599 -112519805</internalNodes>
          <leafValues>
            -4.8786157369613647e-01 6.2179607152938843e-01</leafValues></_></weakClassifiers></_>
    <!-- stage 1 -->
    <_>
      <maxWeakCount>8</maxWeakCount>
      <stageThreshold>-1.6496732234954834e+00</stageThreshold>
      <weakClassifiers>
        <_>
          <internalNodes>
            0 -1 165 -3090216 -33827432 -720268069 -606387043
            -1146561286 -89483080 -1710580993 -543531815</internalNodes>
          <leafValues>
            -7.4730998277664185e-01 1.8753416836261749e-01</leafValues></_>
        <_>
          <internalNodes>
            0 -1 64 -640549639 -145623792 -620666977 1494454811
            -653818630 -1678964517 134973631 521906331</internalNodes>
          <leafValues>
            -5.8178031444549561e-01 4.3799030780792236e-01</leafValues></_>
        <_>
          <internalNodes>
            0 -1 36 -39659302 -678719358 813695095 1363874051 -262095702
            -930377462 4235519 -1882486625</internalNodes>
          <leafValues>
            -5.2693659067153931e-01 4.7522267699241638e-01</leafValues></_>
        <_>
          <internalNodes>
            0 -1 178 -67633666 -579035792 -1307567720 1061432764
            -586043400 508563444 997229532 -136052741</internalNodes>
          <leafValues>
            -4.1976153850555420e-01 5.3640848398208618e-01</leafValues></_>
        <_>
          <internalNodes>
            0 -1 119 -1097317156 1606746264 1057396055 1571493661
            -1182111494 -5770094 437435359 -1626730497</internalNodes>
          <leafValues>
            -4.7962874174118042e-01 4.9171882867813110e-01</leafValues></_>
        <_>
          <internalNodes>
            0 -1 24 -111027472 -19467088 1528421141 1526853976
            -1047469314 1646116880 -1734608181 1466252443</internalNodes>
          <leafValues>
            -5.9302264451980591e-01 3.7188103795051575e-01</leafValues></_>
        <_>
          <internalNodes>
            0 -1 74 -1977593640 -46940032 1208074609 1530987545
            -838166292 -106262520 1527416570 503978445</internalNodes>
          <leafValues>
            -6.2955963611602783e-01 3.6928647756576538e-01</leafValues></_>
        <_>
          <internalNodes>
            0 -1 201 -763105278 1230881416 -800997373 1474548283
            -987776018 1078051338 1131399999 1128759299</internalNodes>
          <leafValues>
            -5.4276925325393677e-01 4.3130034208297729e-01</leafValues></_></weakClassifiers></_>
    <!-- stage 2 -->
    <_>
      <maxWeakCount>9</maxWeakCount>
      <stageThreshold>-1.3228777647018433e+00</stageThreshold>
      <weakClassifiers>
        <_>
          <internalNodes>
            0 -1 96 -38143752 -33980376 1057021275 1566561617
            -1458913606 -608206181 -1744645377 -284421</internalNodes>
          <leafValues>
            -6.8737864494323730e-01 1.9382716715335846e-01</leafValues></_>
        <_>
          <internalNodes>
            0 -1 203 -8912898 -775946096 470816476 1382599558 1325727932
            295182580 1229535116 -11541509</internalNodes>
          <leafValues>
            -4.7131928801536560e-01 4.8053923249244690e-01</leafValues></_>
        <_>
          <internalNodes>
            0 -1 77 -741157422 -682377712 1560330719 1594040095
            1086431968 -1141274374 16898803 526328383</internalNodes>
          <leafValues>
            -6.3316690921783447e-01 3.1105336546897888e-01</leafValues></_>
        <_>
          <internalNodes>
            0 -1 217 -600253224 1563496464 1493701023 1597447573
            -360019718 -878834375 34117019 255564953</internalNodes>
          <leafValues>
            -5.4013907909393311e-01 3.4046697616577148e-01</leafValues></_>
        <_>
          <internalNodes>
            0 -1 225 -788479926 2004074507 -763307635 -204619701
            -787895890 -1659764601 1942940618 1909185423</internalNodes>
          <leafValues>
            -4.8622334003448486e-01 4.0055552124977112e-01</leafValues></_>
        <_>
          <internalNodes>
            0 -1 47 -846604080 -550027256 521161201 488198609
            -1970900776 -644904822 403439834 655083914</internalNodes>
          <leafValues>
            -5.3766238689422607e-01 3.5353845357894897e-01</leafValues></_>
        <_>
          <internalNodes>
            0 -1 192 -605031438 1544596064 1543528764 1493696660
            -364829784 967967896 1881684408 -293601313</internalNodes>
          <leafValues>
            -4.3189969658851624e-01 4.5911964774131775e-01</leafValues></_>
        <_>
          <internalNodes>
            0 -1 66 -660957000 -585166656 436338809 1393825263
            -620700424 -1668642134 -953511686 -1642965622</internalNodes>
          <leafValues>
            -4.7312122583389282e-01 3.9432916045188904e-01</leafValues></_>
        <_>
          <internalNodes>
            0 -1 213 -493903830 340976650 403998912 570626562 -993154936
            -1341976064 152144046 242725519</internalNodes>
          <leafValues>
            -5.8782190084457397e-01 3.2527673244476318e-01</leafValues></_></weakClassifiers></_>
    <!-- stage 3 -->
    <_>
      <maxWeakCount>9</maxWeakCount>
      <stageThreshold>-1.1892774105072021e+00</stageThreshold>
      <weakClassifiers>
        <_>
          <internalNodes>
            0 -1 163 -33 1061436348 1568969936 -207052268 -181884676
            2101347128 -83326001 -2049</internalNodes>
          <leafValues>
            -5.9223300218582153e-01 2.9411765933036804e-01</leafValues></_>
        <_>
          <internalNodes>
            0 -1 138 -73860872 2143016968 934754749 1599409545 -14511974
            -14776034 -1349862401 -620082084</internalNodes>
          <leafValues>
            -5.4146188497543335e-01 2.8074029088020325e-01</leafValues></_>
        <_>
          <internalNodes>
            0 -1 63 -2500389 -547551209 1374376191 -744549093 -96425842
            -615873714 -1849456449 -540309281</internalNodes>
          <leafValues>
            -3.2468983530998230e-01 5.0769752264022827e-01</leafValues></_>
        <_>
          <internalNodes>
            0 -1 25 -67109136 -114051456 2122853040 1494071602 73264872
            624084616 168644239 25114783</internalNodes>
          <leafValues>
            -5.5439031124114990e-01 2.9954394698143005e-01</leafValues></_>
        <_>
          <internalNodes>
            0 -1 85 -7810824 -313700280 806506773 1569940741 -1624745286
            -1106869736 134274555 1041453638</internalNodes>
          <leafValues>
            -5.8020460605621338e-01 2.8992208838462830e-01</leafValues></_>
        <_>
          <internalNodes>
            0 -1 72 -70126856 -547532531 -670658533 1599410578
            1967970896 -24912300 1090555615 459217115</internalNodes>
          <leafValues>
            -6.1461865901947021e-01 2.4173176288604736e-01</leafValues></_>
        <_>
          <internalNodes>
            0 -1 159 -138479378 -742346112 446693888 320875144
            2080435064 272374818 136325800 1457517779</internalNodes>
          <leafValues>
            -5.3962111473083496e-01 2.8388348221778870e-01</leafValues></_>
        <_>
          <internalNodes>
            0 -1 205 -726402638 -240389686 -1573883783 1901161255
            -870384438 -1718631542 1080802239 -74508309</internalNodes>
          <leafValues>
            -3.5151791572570801e-01 4.8824638128280640e-01</leafValues></_>
        <_>
          <internalNodes>
            0 -1 162 -230429206 139773988 100928128 24109383 -1038777640
            83893280 -1013746029 -1022361733</internalNodes>
          <leafValues>
            -4.1347211599349976e-01 3.9721754193305969e-01</leafValues></_></weakClassifiers></_>
    <!-- stage 4 -->
    <_>
      <maxWeakCount>11</maxWeakCount>
      <stageThreshold>-1.5074051618576050e+00</stageThreshold>
      <weakClassifiers>
        <_>
          <internalNodes>
            0 -1 133 -67938056 -539012908 1359565181 1465210293
            -83170582 -78933365 -2102199809 -548413217</internalNodes>
          <leafValues>
            -6.7554479837417603e-01 7.8614622354507446e-02</leafValues></_>
        <_>
          <internalNodes>
            0 -1 84 -1652535088 -37535600 436752669 1561547201
            -1432184070 -540028696 436793343 -1693459511</internalNodes>
          <leafValues>
            -5.3069299459457397e-01 2.5482895970344543e-01</leafValues></_>
        <_>
          <internalNodes>
            0 -1 67 -1742685992 -1078128448 -1877765927 2082443721
            -1173686054 -1106573080 -150462465 1326139547</internalNodes>
          <leafValues>
            -5.2492088079452515e-01 2.6057898998260498e-01</leafValues></_>
        <_>
          <internalNodes>
            0 -1 234 -69206594 1567625724 1039458812 823928468
            -304301576 79999732 -1955027308 -213518337</internalNodes>
          <leafValues>
            -3.4968259930610657e-01 4.0423154830932617e-01</leafValues></_>
        <_>
          <internalNodes>
            0 -1 89 -1634503973 -116240104 -1689128835 1981092695
            -753231270 -582018543 178096895 -548421181</internalNodes>
          <leafValues>
            -3.1193032860755920e-01 4.5123204588890076e-01</leafValues></_>
        <_>
          <internalNodes>
            0 -1 118 444613784 1605177588 1377185739 1607947287
            680021752 -1612750919 671796990 413797436</internalNodes>
          <leafValues>
            -7.0732945203781128e-01 2.1355715394020081e-01</leafValues></_>
        <_>
          <internalNodes>
            0 -1 156 -1063000062 2036849229 42458756 -404238605
            -931946005 -414997127 -1911574385 -1068252513</internalNodes>
          <leafValues>
            -4.0214893221855164e-01 3.8084948062896729e-01</leafValues></_>
        <_>
          <internalNodes>
            0 -1 46 -1626179766 -13937149 1375850619 1462964410
            -1870626616 -1423650774 285376219 354355966</internalNodes>
          <leafValues>
            -6.0024172067642212e-01 2.6564598083496094e-01</leafValues></_>
        <_>
          <internalNodes>
            0 -1 69 -288751544 -279216048 303239899 819947485
            -1301767302 2123530825 1196095955 -1626606119</internalNodes>
          <leafValues>
            -4.5531144738197327e-01 3.2307410240173340e-01</leafValues></_>
        <_>
          <internalNodes>
            0 -1 130 -1038956022 -507515311 2031174555 -615154995
            548133603 -1047334753 1293792407 1093138315</internalNodes>
          <leafValues>
            -4.3688839673995972e-01 3.5365861654281616e-01</leafValues></_>
        <_>
          <internalNodes>
            0 -1 11 -1187006214 -1390201004 -969712112 1956362397
            380556991 1914831721 265210315 1400305839</internalNodes>
          <leafValues>
            -5.1444792747497559e-01 3.0335387587547302e-01</leafValues></_></weakClassifiers></_>
    <!-- stage 5 -->
    <_>
      <maxWeakCount>10</maxWeakCount>
      <stageThreshold>-1.5524554252624512e+00</stageThreshold>
      <weakClassifiers>
        <_>
          <internalNodes>
            0 -1 173 -1 -4391941 -5456392 -178399458 -481796 1564765484
            -475139 -131089</internalNodes>
          <leafValues>
            -5.6871509552001953e-01 2.0000000298023224e-01</leafValues></_>
        <_>
          <internalNodes>
            0 -1 5 -537859382 -12538078 -1057578386 1934039151
            -407720778 1600902701 1148478717 1997488191</internalNodes>
          <leafValues>
            -5.2483832836151123e-01 2.2087310254573822e-01</leafValues></_>
        <_>
          <internalNodes>
            0 -1 45 -71052833 -243576812 1594020319 1562107373
            -1895151416 -6301462 1594544875 -549720145</internalNodes>
          <leafValues>
            -3.1124955415725708e-01 4.4246032834053040e-01</leafValues></_>
        <_>
          <internalNodes>
            0 -1 227 -24578 871641024 1576853500 1352965624 -1481855108
            980200808 -1140820088 -372244481</internalNodes>
          <leafValues>
            -3.4130457043647766e-01 3.7712150812149048e-01</leafValues></_>
        <_>
          <internalNodes>
            0 -1 154 680531152 1853824989 -1088479235 -1073871915
            -1690748515 -1075872295 715700380 1069030744</internalNodes>
          <leafValues>
            -6.0830289125442505e-01 2.5427374243736267e-01</leafValues></_>
        <_>
          <internalNodes>
            0 -1 18 784223911 -1563234585 -295712114 -1930809606
            -1283506571 -949636669 2012604181 -524421154</internalNodes>
          <leafValues>
            -4.0248024463653564e-01 3.3720064163208008e-01</leafValues></_>
        <_>
          <internalNodes>
            0 -1 92 -1075822499 -302327615 313456625 531979349
            -1197816656 -1146422072 1512217061 606088220</internalNodes>
          <leafValues>
            -5.4833519458770752e-01 2.4412566423416138e-01</leafValues></_>
        <_>
          <internalNodes>
            0 -1 164 -1086684965 1401886720 -1727897421 1433951761
            -760636678 -23491784 23777527 1515161877</internalNodes>
          <leafValues>
            -4.3422847986221313e-01 3.0077549815177917e-01</leafValues></_>
        <_>
          <internalNodes>
            0 -1 13 -322474257 -428242770 -836367698 -488543442
            -944354442 889154819 1735941845 -126663939</internalNodes>
          <leafValues>
            -4.2247784137725830e-01 3.0916664004325867e-01</leafValues></_>
        <_>
          <internalNodes>
            0 -1 81 -1811932968 -1089484134 -1873668973 2103926099
            -882181893 -1903277944 944210422 -1956989640</internalNodes>
          <leafValues>
            -4.8752516508102417e-01 2.8197473287582397e-01</leafValues></_></weakClassifiers></_>
    <!-- stage 6 -->
    <_>
      <maxWeakCount>12</maxWeakCount>
      <stageThreshold>-1.7293800115585327e+00</stageThreshold>
      <weakClassifiers>
        <_>
          <internalNodes>
            0 -1 137 -1 -15688211 16806618 -1341900500 -1307780
            450641584 1332513422 -3137</internalNodes>
          <leafValues>
            -5.6144714355468750e-01 2.0477502048015594e-01</leafValues></_>
        <_>
          <internalNodes>
            0 -1 108 -4681480 -1651603256 1755274751 -544227115
            -1960657894 -4208408 521321403 -1106753347</internalNodes>
          <leafValues>
            -5.0886815786361694e-01 2.3119769990444183e-01</leafValues></_>
        <_>
          <internalNodes>
            0 -1 176 -323839846 -719415166 403198109 1595883532
            -1893168982 -1683318366 34704815 -1626353704</internalNodes>
          <leafValues>
            -4.4432285428047180e-01 2.6272615790367126e-01</leafValues></_>
        <_>
          <internalNodes>
            0 -1 155 -1073495998 -17346897 -1058078721 -671353975
            -505434133 -980697121 -1158951937 -848574301</internalNodes>
          <leafValues>
            -3.3867517113685608e-01 3.7971451878547668e-01</leafValues></_>
        <_>
          <internalNodes>
            0 -1 199 1145294850 2036317543 -546340781 -767839389
            1625029327 -21741373 -175376542 1090973762</internalNodes>
          <leafValues>
            -4.3743300437927246e-01 2.9753431677818298e-01</leafValues></_>
        <_>
          <internalNodes>
            0 -1 19 -141890386 -343205758 -2136045490 463824087
            -27213838 -273399549 -134159308 641270795</internalNodes>
          <leafValues>
            -5.0140726566314697e-01 2.5159934163093567e-01</leafValues></_>
        <_>
          <internalNodes>
            0 -1 97 -759836168 -1682297877 1695907577 1482475549
            -117302774 436896074 239853741 722468863</internalNodes>
          <leafValues>
            -4.8340249061584473e-01 2.5716191530227661e-01</leafValues></_>
        <_>
          <internalNodes>
            0 -1 181 -268457329 -849565866 -2135287540 -2134470616
            -2099598112 98613545 -523848564 -922228737</internalNodes>
          <leafValues>
            -3.0308115482330322e-01 4.2751237750053406e-01</leafValues></_>
        <_>
          <internalNodes>
            0 -1 219 -1462237104 -2018220975 496229399 1572164441
            -1466394438 -938341798 713734135 1318063345</internalNodes>
          <leafValues>
            -6.0351163148880005e-01 2.3502023518085480e-01</leafValues></_>
        <_>
          <internalNodes>
            0 -1 211 -1073684414 -409348937 12942615 -792465330
            -362290449 -485783403 -7369790 -624703406</internalNodes>
          <leafValues>
            -3.7768849730491638e-01 3.7129765748977661e-01</leafValues></_>
        <_>
          <internalNodes>
            0 -1 111 -1090315998 1045127168 1347309783 1358722449
            -576569654 -1425613174 356856431 1560987069</internalNodes>
          <leafValues>
            -4.9875468015670776e-01 2.7302527427673340e-01</leafValues></_>
        <_>
          <internalNodes>
            0 -1 78 -1365681574 -29314232 21012961 -599697607
            -1272800384 -1570763592 850770191 442188111</internalNodes>
          <leafValues>
            -4.7792401909828186e-01 2.8499075770378113e-01</leafValues></_></weakClassifiers></_>
    <!-- stage 7 -->
    <_>
      <maxWeakCount>12</maxWeakCount>
      <stageThreshold>-1.2742893695831299e+00</stageThreshold>
      <weakClassifiers>
        <_>
          <internalNodes>
            0 -1 114 -1073487357 1407710899 -720131309 -1313885
            -1146096945 -240148306 -403737957 -679230581</internalNodes>
          <leafValues>
            -5.7220786809921265e-01 1.4914424717426300e-01</leafValues></_>
        <_>
          <internalNodes>
            0 -1 49 -48513008 -797720368 -1308518275 -45543314
            -894852870 -1163947816 251717563 -616703297</internalNodes>
          <leafValues>
            -4.3608549237251282e-01 2.5831028819084167e-01</leafValues></_>
        <_>
          <internalNodes>
            0 -1 62 -610667045 -547756712 1462947805 1460836293
            -1635099766 -606381944 51549659 -85778560</internalNodes>
          <leafValues>
            -3.2753846049308777e-01 3.7282788753509521e-01</leafValues></_>
        <_>
          <internalNodes>
            0 -1 221 -1073225213 -1142950029 1474295295 -447230413
            -1847599701 -1113063857 -1946431509 -1063268193</internalNodes>
          <leafValues>
            -2.4254618585109711e-01 5.0960272550582886e-01</leafValues></_>
        <_>
          <internalNodes>
            0 -1 152 -398980492 -537757688 -130754095 1343249468
            -1397583256 -1077999606 1111536567 -635826739</internalNodes>
          <leafValues>
            -4.2768898606300354e-01 2.8514641523361206e-01</leafValues></_>
        <_>
          <internalNodes>
            0 -1 171 -1062748158 -204498870 -1861562094 -711997742
            -849813278 2131905767 -1549802798 1158673034</internalNodes>
          <leafValues>
            -4.4370499253273010e-01 2.9298642277717590e-01</leafValues></_>
        <_>
          <internalNodes>
            0 -1 98 -393027842 -411571592 1225647327 1532298321
            1376309482 -309835094 -1735425377 169841023</internalNodes>
          <leafValues>
            -4.4574084877967834e-01 3.0538851022720337e-01</leafValues></_>
        <_>
          <internalNodes>
            0 -1 158 -803151158 1292775650 -807597566 -982395861
            -1205295461 -234220669 -1490726897 -2067275197</internalNodes>
          <leafValues>
            -3.8616502285003662e-01 3.3219558000564575e-01</leafValues></_>
        <_>
          <internalNodes>
            0 -1 228 -1649780482 -745960847 287249841 1394443481
            -1166358392 -1323689814 117586131 461355255</internalNodes>
          <leafValues>
            -4.3984434008598328e-01 2.9198279976844788e-01</leafValues></_>
        <_>
          <internalNodes>
            0 -1 70 -1210719376 1972501059 -1958354051 456245151
            -88530716 -23480875 1075161200 158500019</internalNodes>
          <leafValues>
            -5.5511349439620972e-01 2.1824689209461212e-01</leafValues></_>
        <_>
          <internalNodes>
            0 -1 177 -575944149 -2144812856 -1734586318 684424827
            -440322610 -1677487664 -670644033 -27264257</internalNodes>
          <leafValues>
            -2.8130623698234558e-01 5.0281202793121338e-01</leafValues></_>
        <_>
          <internalNodes>
            0 -1 90 -1610875493 1970603476 -24408327 -1245966243
            -1145003013 -2058631969 -1542277383 -899983394</internalNodes>
          <leafValues>
            -3.1176573038101196e-01 4.4552412629127502e-01</leafValues></_></weakClassifiers></_>
    <!-- stage 8 -->
    <_>
      <maxWeakCount>14</maxWeakCount>
      <stageThreshold>-1.5094252824783325e+00</stageThreshold>
      <weakClassifiers>
        <_>
          <internalNodes>
            0 -1 14 -286069009 -286825938 -1393629569 -1368595281
            -144214249 -671393531 -144214153 -26019850</internalNodes>
          <leafValues>
            -6.4007419347763062e-01 -4.2183622717857361e-02</leafValues></_>
        <_>
          <internalNodes>
            0 -1 185 217848181 2046238204 -524291 -1294980 -1090863106
            -1073943556 -1415513094 956826688</internalNodes>
          <leafValues>
            -5.7155960798263550e-01 1.8202836811542511e-01</leafValues></_>
        <_>
          <internalNodes>
            0 -1 122 926421136 1567609072 951652853 466964980
            -1666045734 -1328392 844365823 1062089732</internalNodes>
          <leafValues>
            -6.2128686904907227e-01 1.7660464346408844e-01</leafValues></_>
        <_>
          <internalNodes>
            0 -1 142 679478320 -42001207 496861141 1603215197 1001061361
            -1107435521 -1581654789 1069028856</internalNodes>
          <leafValues>
            -5.7886731624603271e-01 2.0618802309036255e-01</leafValues></_>
        <_>
          <internalNodes>
            0 -1 214 2146416314 2109007544 1509954590 924329218
            2043230904 675386080 -1345400148 2101345215</internalNodes>
          <leafValues>
            -4.0453559160232544e-01 2.8428605198860168e-01</leafValues></_>
        <_>
          <internalNodes>
            0 -1 245 1048540929 76970847 2012737292 1784905311 981283843
            337034107 -1114344192 -1057489423</internalNodes>
          <leafValues>
            -4.1983181238174438e-01 2.8318154811859131e-01</leafValues></_>
        <_>
          <internalNodes>
            0 -1 157 -1944825608 -830267744 1934350805 1398541605
            -1954953216 -284507555 977336061 -1707567735</internalNodes>
          <leafValues>
            -4.1716763377189636e-01 2.9604896903038025e-01</leafValues></_>
        <_>
          <internalNodes>
            0 -1 149 -4673538 -291749984 514851900 -1075570828 -14554601
            -585863652 409792700 2111139068</internalNodes>
          <leafValues>
            -5.2541333436965942e-01 2.3625059425830841e-01</leafValues></_>
        <_>
          <internalNodes>
            0 -1 6 -1352162641 -2005469441 -369516561 -286765377
            1202797670 886587294 -93520586 -423233802</internalNodes>
          <leafValues>
            -3.2177281379699707e-01 3.9280909299850464e-01</leafValues></_>
        <_>
          <internalNodes>
            0 -1 222 -243947794 -748895109 -1751605772 -155124354
            -377901062 -578786890 979023759 2000010296</internalNodes>
          <leafValues>
            -4.5170387625694275e-01 2.8767731785774231e-01</leafValues></_>
        <_>
          <internalNodes>
            0 -1 235 2107196155 -114225768 1513798135 2140825077
            -97321766 -1195705348 590520063 -10654545</internalNodes>
          <leafValues>
            -2.8204491734504700e-01 4.6566957235336304e-01</leafValues></_>
        <_>
          <internalNodes>
            0 -1 21 -2037510354 -2042745056 -1413746818 -2035396694
            998667381 -483581059 652779061 -428340140</internalNodes>
          <leafValues>
            -5.3850841522216797e-01 2.4719889461994171e-01</leafValues></_>
        <_>
          <internalNodes>
            0 -1 39 -617719239 2037399582 -883983233 -177777291
            -1232025438 -16062261 1219475570 -1116197446</internalNodes>
          <leafValues>
            -3.5110744833946228e-01 3.9346835017204285e-01</leafValues></_>
        <_>
          <internalNodes>
            0 -1 8 -134419926 -1295986125 -724182706 1663285674
            -1051203452 546050673 -2119297373 58049833</internalNodes>
          <leafValues>
            -6.0712361335754395e-01 2.2888565063476562e-01</leafValues></_></weakClassifiers></_>
    <!-- stage 9 -->
    <_>
      <maxWeakCount>13</maxWeakCount>
      <stageThreshold>-1.2580834627151489e+00</stageThreshold>
      <weakClassifiers>
        <_>
          <internalNodes>
            0 -1 125 -68157441 -673383428 -1292056580 1073495530
            -294604872 423364436 -1114358376 -17154</internalNodes>
          <leafValues>
            -5.7210123538970947e-01 1.0213414579629898e-01</leafValues></_>
        <_>
          <internalNodes>
            0 -1 132 -1901963055 -458597136 271889277 294149631
            -1149711288 -269751511 489354959 -1994745468</internalNodes>
          <leafValues>
            -3.9436441659927368e-01 2.6352640986442566e-01</leafValues></_>
        <_>
          <internalNodes>
            0 -1 112 577383929 1863012604 655291895 1449107068
            -1900502966 -1366599104 370721787 -1621490467</internalNodes>
          <leafValues>
            -3.3774822950363159e-01 3.2136797904968262e-01</leafValues></_>
        <_>
          <internalNodes>
            0 -1 168 -1069301758 -1527127369 1270348671 -562894529
            -506989793 -1729126226 1917974918 30917179</internalNodes>
          <leafValues>
            -3.8162124156951904e-01 2.8604927659034729e-01</leafValues></_>
        <_>
          <internalNodes>
            0 -1 166 -1900521256 59154008 -1835567209 458211740
            -1181033846 -6651170 1375794147 -926229104</internalNodes>
          <leafValues>
            -4.2361104488372803e-01 2.8344297409057617e-01</leafValues></_>
        <_>
          <internalNodes>
            0 -1 246 -297844991 783252238 -154019296 1622715391
            1336409380 81641234 -19053308 -726140957</internalNodes>
          <leafValues>
            -3.9096322655677795e-01 3.0673474073410034e-01</leafValues></_>
        <_>
          <internalNodes>
            0 -1 15 1546535534 2005844070 1793967309 1716340238
            1380385143 -149955308 1999303023 1979924518</internalNodes>
          <leafValues>
            -5.8253109455108643e-01 2.0401300489902496e-01</leafValues></_>
        <_>
          <internalNodes>
            0 -1 68 -826849063 -10534894 -2101443371 1366898591
            -637744634 -1720806041 -836790427 -15994993</internalNodes>
          <leafValues>
            -2.8824910521507263e-01 4.2483118176460266e-01</leafValues></_>
        <_>
          <internalNodes>
            0 -1 59 -128846664 -44828640 -670179895 1427240718
            -439898912 -1837126999 160171247 259763125</internalNodes>
          <leafValues>
            -5.4825782775878906e-01 2.3439885675907135e-01</leafValues></_>
        <_>
          <internalNodes>
            0 -1 193 -243023414 1382744086 38142660 -796799275 -97542833
            -771699695 -1898535741 -236990217</internalNodes>
          <leafValues>
            -3.3624124526977539e-01 3.8422283530235291e-01</leafValues></_>
        <_>
          <internalNodes>
            0 -1 172 2130730361 -3473188 272194939 1129847436 -95272724
            -808503253 38464764 2046830300</internalNodes>
          <leafValues>
            -4.5709466934204102e-01 2.8468769788742065e-01</leafValues></_>
        <_>
          <internalNodes>
            0 -1 33 -173810217 -181670404 757023613 1268451707
            -214728246 -108852216 1295778939 -69995031</internalNodes>
          <leafValues>
            -2.7438440918922424e-01 4.6691969037055969e-01</leafValues></_>
        <_>
          <internalNodes>
            0 -1 36 -1417776198 -1559453874 -188247961 407604546
            1684072618 -907305702 -1868300035 -537973825</internalNodes>
          <leafValues>
            -4.1703161597251892e-01 3.0838111042976379e-01</leafValues></_></weakClassifiers></_>
    <!-- stage 10 -->
    <_>
      <maxWeakCount>12</maxWeakCount>
      <stageThreshold>-1.2285410165786743e+00</stageThreshold>
      <weakClassifiers>
        <_>
          <internalNodes>
            0 -1 121 -498867709 -671351849 1161557974 -67505173
            -213386497 -338167610 -389039121 -142089281</internalNodes>
          <leafValues>
            -5.3598690032958984e-01 1.4971208572387695e-01</leafValues></_>
        <_>
          <internalNodes>
            0 -1 127 -1660774248 -1895053135 -1649451029 -576778871
            -1089824534 -358705194 -14540833 -1664526945</internalNodes>
          <leafValues>
            -4.4845029711723328e-01 2.1351978182792664e-01</leafValues></_>
        <_>
          <internalNodes>
            0 -1 161 -34108894 -112154114 879888416 821368061 807405992
            286059400 523076923 891926695</internalNodes>
          <leafValues>
            -5.3532761335372925e-01 1.7792832851409912e-01</leafValues></_>
        <_>
          <internalNodes>
            0 -1 37 -31427936 -183514384 1110384867 538860145 -281608440
            -1084275700 102376309 673888272</internalNodes>
          <leafValues>
            -5.6863623857498169e-01 1.9959442317485809e-01</leafValues></_>
        <_>
          <internalNodes>
            0 -1 120 -1149253812 250657761 2075649368 -1043210039
            -1613783606 294388633 -1478099040 -1316857069</internalNodes>
          <leafValues>
            -3.9642342925071716e-01 2.6605007052421570e-01</leafValues></_>
        <_>
          <internalNodes>
            0 -1 87 2143615184 -1291595768 69084345 488798129
            -1222323670 1594552832 419716351 1983698632</internalNodes>
          <leafValues>
            -5.3297019004821777e-01 2.0543587207794189e-01</leafValues></_>
        <_>
          <internalNodes>
            0 -1 224 -1064578558 -488772869 -326184913 1435722931
            -661549585 -675082918 -358749201 -2117077334</internalNodes>
          <leafValues>
            -3.1757545471191406e-01 3.5038974881172180e-01</leafValues></_>
        <_>
          <internalNodes>
            0 -1 209 -869317104 116414837 583004195 1079655355 138399945
            -828456057 92936181 1596693771</internalNodes>
          <leafValues>
            -4.5818805694580078e-01 2.4439360201358795e-01</leafValues></_>
        <_>
          <internalNodes>
            0 -1 17 -1895890945 -1565374257 -1468411250 -487673140
            1441854773 -533649482 -983074477 -853016657</internalNodes>
          <leafValues>
            -3.3824256062507629e-01 3.3875414729118347e-01</leafValues></_>
        <_>
          <internalNodes>
            0 -1 202 -192425446 -336595674 1035943615 -1670407042
            -240141764 837677247 -761930034 -792469497</internalNodes>
          <leafValues>
            -3.0105912685394287e-01 3.8250735402107239e-01</leafValues></_>
        <_>
          <internalNodes>
            0 -1 129 -456388520 961221448 -97091617 2030194900
            -1473353138 -503362668 186621403 -817202983</internalNodes>
          <leafValues>
            -4.1828140616416931e-01 2.7789121866226196e-01</leafValues></_>
        <_>
          <internalNodes>
            0 -1 143 -1700638152 -737789276 1097011858 552525139
            -1489249784 -831725494 386156178 471338456</internalNodes>
          <leafValues>
            -5.4988819360733032e-01 2.1512897312641144e-01</leafValues></_></weakClassifiers></_>
    <!-- stage 11 -->
    <_>
      <maxWeakCount>15</maxWeakCount>
      <stageThreshold>-1.5089411735534668e+00</stageThreshold>
      <weakClassifiers>
        <_>
          <internalNodes>
            0 -1 141 -1073489405 -543163225 -926164545 -69232129
            -222569473 -238657286 -671089998 -928264037</internalNodes>
          <leafValues>
            -5.4982620477676392e-01 6.9952301681041718e-02</leafValues></_>
        <_>
          <internalNodes>
            0 -1 140 235036272 -181795784 -696487305 1381716197
            672683608 -1611183592 638750931 253238781</internalNodes>
          <leafValues>
            -5.2413082122802734e-01 1.5241095423698425e-01</leafValues></_>
        <_>
          <internalNodes>
            0 -1 95 -1707943464 -380974384 1399071089 1344812656
            -1873219000 -569790134 1095126846 1146837719</internalNodes>
          <leafValues>
            -5.2514237165451050e-01 1.7614860832691193e-01</leafValues></_>
        <_>
          <internalNodes>
            0 -1 131 -1042948916 -1049099068 -576149764 -321362304
            -1872131925 -1487693271 171621182 -38560325</internalNodes>
          <leafValues>
            -3.4233307838439941e-01 3.1304210424423218e-01</leafValues></_>
        <_>
          <internalNodes>
            0 -1 1 -1366970625 214099707 -1035768562 -2134450449
            1444768613 -726764809 -79989210 1652520435</internalNodes>
          <leafValues>
            -3.9673155546188354e-01 2.6428398489952087e-01</leafValues></_>
        <_>
          <internalNodes>
            0 -1 237 -1291318160 -1626913776 2119832523 1466897821
            -1352623990 -2085895937 1044950253 321459202</internalNodes>
          <leafValues>
            -5.6110507249832153e-01 2.0090587437152863e-01</leafValues></_>
        <_>
          <internalNodes>
            0 -1 241 -167774309 -43201172 1064050044 1473036028
            803485656 111217848 1033119612 -2129</internalNodes>
          <leafValues>
            -2.6024997234344482e-01 4.5542633533477783e-01</leafValues></_>
        <_>
          <internalNodes>
            0 -1 124 -1073708542 -1623136702 605098506 -81063928
            1653676166 402731163 1259041362 1378013714</internalNodes>
          <leafValues>
            -5.4262876510620117e-01 2.1005330979824066e-01</leafValues></_>
        <_>
          <internalNodes>
            0 -1 250 469229359 1651506731 -306446740 1660850105
            -1082169597 645897343 -1107706011 -218759536</internalNodes>
          <leafValues>
            -3.1777617335319519e-01 3.6977565288543701e-01</leafValues></_>
        <_>
          <internalNodes>
            0 -1 93 -1363166735 -1343406360 -1795173633 1348164860
            -810745654 -47575236 -269899746 -82842403</internalNodes>
          <leafValues>
            -2.7580100297927856e-01 4.2432928085327148e-01</leafValues></_>
        <_>
          <internalNodes>
            0 -1 204 -286807550 -128109916 226755112 850699762
            1765813026 410845964 1758673820 1592720558</internalNodes>
          <leafValues>
            -4.6944510936737061e-01 2.5925227999687195e-01</leafValues></_>
        <_>
          <internalNodes>
            0 -1 10 -181471646 -785443062 -1334132552 1311473903
            -1277525965 -651728094 1618219285 628968455</internalNodes>
          <leafValues>
            -5.7778942584991455e-01 2.0685666799545288e-01</leafValues></_>
        <_>
          <internalNodes>
            0 -1 139 -1508918147 -20232704 -621070925 1400330231
            1610242248 -604343560 1646765758 -1626677761</internalNodes>
          <leafValues>
            -3.1662291288375854e-01 4.0823251008987427e-01</leafValues></_>
        <_>
          <internalNodes>
            0 -1 187 983239920 -696303899 421352949 1582714877
            -1307002629 -831794686 2014339507 -1640297987</internalNodes>
          <leafValues>
            -3.5778906941413879e-01 3.5377344489097595e-01</leafValues></_>
        <_>
          <internalNodes>
            0 -1 34 1000191984 -1587593155 295296343 1596974928
            444660674 -43906676 -1643017078 -1142809206</internalNodes>
          <leafValues>
            -3.8047248125076294e-01 3.2407450675964355e-01</leafValues></_></weakClassifiers></_>
    <!-- stage 12 -->
    <_>
      <maxWeakCount>14</maxWeakCount>
      <stageThreshold>-1.5942051410675049e+00</stageThreshold>
      <weakClassifiers>
        <_>
          <internalNodes>
            0 -1 182 -536887297 -1107524655 879809468 1004053668
            2146712316 -439867656 1046755316 -131077</internalNodes>
          <leafValues>
            -5.7989692687988281e-01 -6.2266499735414982e-03</leafValues></_>
        <_>
          <internalNodes>
            0 -1 79 -910639078 1607650392 -27823565 -548059118
            -861217173 -1970632488 -1870433937 1595540827</internalNodes>
          <leafValues>
            -4.7848528623580933e-01 1.7126636207103729e-01</leafValues></_>
        <_>
          <internalNodes>
            0 -1 109 -333778280 -572556040 1354212147 106531869
            -1826431870 -810820598 438449939 1443892701</internalNodes>
          <leafValues>
            -5.4899817705154419e-01 1.6354951262474060e-01</leafValues></_>
        <_>
          <internalNodes>
            0 -1 244 -100699839 1085628279 2006884864 303198321
            1992126240 585680703 1421836034 1074973186</internalNodes>
          <leafValues>
            -4.7550389170646667e-01 2.1958798170089722e-01</leafValues></_>
        <_>
          <internalNodes>
            0 -1 100 -1263249159 -143885827 451934623 1531936511
            -1104883008 -1954939622 -1640306461 -548692743</internalNodes>
          <leafValues>
            -2.7441126108169556e-01 3.8518270850181580e-01</leafValues></_>
        <_>
          <internalNodes>
            0 -1 134 -170025158 -1646518366 285481952 -114517348
            1501225786 1397753716 531953146 2144729891</internalNodes>
          <leafValues>
            -4.0881642699241638e-01 2.5261783599853516e-01</leafValues></_>
        <_>
          <internalNodes>
            0 -1 44 -1291696574 1537588106 1992291377 1890517143
            -1015043705 822214660 -1771754613 1460105985</internalNodes>
          <leafValues>
            -4.9795871973037720e-01 2.1923623979091644e-01</leafValues></_>
        <_>
          <internalNodes>
            0 -1 148 -244011382 2002432681 -871331736 910299799
            -168170580 913715617 1086014104 212799487</internalNodes>
          <leafValues>
            -5.9938275814056396e-01 1.5290351212024689e-01</leafValues></_>
        <_>
          <internalNodes>
            0 -1 242 -345261312 -520268268 -1193936128 1383558505
            -372516088 1147288296 338497079 408538685</internalNodes>
          <leafValues>
            -5.3908729553222656e-01 2.1368357539176941e-01</leafValues></_>
        <_>
          <internalNodes>
            0 -1 28 932440842 -829275991 -583411713 -1970123498
            -568732215 1176654780 1705460410 6551625</internalNodes>
          <leafValues>
            -5.0002419948577881e-01 2.1021583676338196e-01</leafValues></_>
        <_>
          <internalNodes>
            0 -1 123 -763320702 -785080156 892150430 1753726730
            1213301314 -1481299609 1256165005 847986207</internalNodes>
          <leafValues>
            -5.3793859481811523e-01 2.0706266164779663e-01</leafValues></_>
        <_>
          <internalNodes>
            0 -1 56 -1458105169 1460876432 -686238979 -149030135
            -1909512004 -1948567316 -1638813618 -1096830844</internalNodes>
          <leafValues>
            -2.9798832535743713e-01 3.8245519995689392e-01</leafValues></_>
        <_>
          <internalNodes>
            0 -1 251 609957383 5030772 -1021609048 1820786625
            -1051230972 1418632016 -939591344 1123350240</internalNodes>
          <leafValues>
            -4.9624922871589661e-01 2.2136181592941284e-01</leafValues></_>
        <_>
          <internalNodes>
            0 -1 240 -277881038 1842954876 1195251732 385379316
            403453164 687869136 1379512828 928890622</internalNodes>
          <leafValues>
            -4.3017137050628662e-01 2.6795065402984619e-01</leafValues></_></weakClassifiers></_>
    <!-- stage 13 -->
    <_>
      <maxWeakCount>15</maxWeakCount>
      <stageThreshold>-1.5955421924591064e+00</stageThreshold>
      <weakClassifiers>
        <_>
          <internalNodes>
            0 -1 167 -1073512445 -294675521 -1447047233 -1150290082
            -1414540849 -2416209 -282079521 -1054883285</internalNodes>
          <leafValues>
            -5.8307009935379028e-01 2.3316062986850739e-02</leafValues></_>
        <_>
          <internalNodes>
            0 -1 212 -1041767710 -24053078 1666773056 -266090926
            -494802782 -1012825039 -909431606 38764552</internalNodes>
          <leafValues>
            -4.8632520437240601e-01 1.5963649749755859e-01</leafValues></_>
        <_>
          <internalNodes>
            0 -1 196 -1397750584 -572124164 -1883584047 1549473264
            -1901552424 -916956912 397080275 436207621</internalNodes>
          <leafValues>
            -6.8163603544235229e-01 1.2814611196517944e-01</leafValues></_>
        <_>
          <internalNodes>
            0 -1 183 -543176197 -888299290 1648511067 -912144813
            -70015765 -919964742 -790134013 -1033896278</internalNodes>
          <leafValues>
            -2.2129194438457489e-01 4.4043236970901489e-01</leafValues></_>
        <_>
          <internalNodes>
            0 -1 61 800080120 1173195808 977910393 558567764 -1162201414
            -808775166 340800453 1493648213</internalNodes>
          <leafValues>
            -5.3923571109771729e-01 2.0999090373516083e-01</leafValues></_>
        <_>
          <internalNodes>
            0 -1 247 124767744 542030275 -22047200 1625344830 1140788480
            911734195 1867715876 72678408</internalNodes>
          <leafValues>
            -6.5899121761322021e-01 1.4321437478065491e-01</leafValues></_>
        <_>
          <internalNodes>
            0 -1 105 -514850817 1985367998 1836844936 1673805794
            1325195164 1003503340 -35649106 -22545</internalNodes>
          <leafValues>
            -2.3726770281791687e-01 4.4967037439346313e-01</leafValues></_>
        <_>
          <internalNodes>
            0 -1 65 744986579 -45979840 233124081 2072450513 -609439048
            -356378424 1629204381 -808591655</internalNodes>
          <leafValues>
            -2.5923258066177368e-01 4.1926148533821106e-01</leafValues></_>
        <_>
          <internalNodes>
            0 -1 226 1442857152 -43579123 711081180 1013907850
            -364712530 1236527971 1084272622 288066434</internalNodes>
          <leafValues>
            -5.9063422679901123e-01 1.9208063185214996e-01</leafValues></_>
        <_>
          <internalNodes>
            0 -1 88 -1084278529 2031570944 890716636 -653207110
            -1079261013 -399158 84058536 -1474825981</internalNodes>
          <leafValues>
            -3.2913911342620850e-01 3.2987904548645020e-01</leafValues></_>
        <_>
          <internalNodes>
            0 -1 3 -489247186 -1438453130 -855638786 -483573785
            2145908727 1442862130 1348853824 -1128443406</internalNodes>
          <leafValues>
            -4.2847535014152527e-01 2.6353159546852112e-01</leafValues></_>
        <_>
          <internalNodes>
            0 -1 102 -1060837923 2079378384 -1958570573 -1508200016
            -1072459381 -300984370 219231935 840639369</internalNodes>
          <leafValues>
            -3.9400711655616760e-01 2.7409183979034424e-01</leafValues></_>
        <_>
          <internalNodes>
            0 -1 121 -1006525950 -1921912082 1833893721 -55486196
            -1285430743 -531982122 -530205869 1357100711</internalNodes>
          <leafValues>
            -4.1711515188217163e-01 2.7186396718025208e-01</leafValues></_>
        <_>
          <internalNodes>
            0 -1 29 -1720682828 -1383208192 433421137 -1735130892
            -383887115 151726914 1111597125 1493348121</internalNodes>
          <leafValues>
            -5.2381813526153564e-01 2.1129569411277771e-01</leafValues></_>
        <_>
          <internalNodes>
            0 -1 243 2045628595 -1834787767 871102033 415725052
            428510216 -582576275 -1815941735 -595929591</internalNodes>
          <leafValues>
            -3.3055877685546875e-01 3.5654482245445251e-01</leafValues></_></weakClassifiers></_>
    <!-- stage 14 -->
    <_>
      <maxWeakCount>14</maxWeakCount>
      <stageThreshold>-1.4583526849746704e+00</stageThreshold>
      <weakClassifiers>
        <_>
          <internalNodes>
            0 -1 231 -501758317 -208431973 2078760827 -456162865
            -1959796929 -26294117 -81814097 -911243217</internalNodes>
          <leafValues>
            -5.3114569187164307e-01 8.9766606688499451e-02</leafValues></_>
        <_>
          <internalNodes>
            0 -1 16 267907023 -1360070642 -1227329810 -1903276310
            2079848265 2114938704 -268582698 -193464361</internalNodes>
          <leafValues>
            -3.0085283517837524e-01 3.0482152104377747e-01</leafValues></_>
        <_>
          <internalNodes>
            0 -1 207 -529732 1337780630 489430972 402575854 1609908141
            956065488 1563290280 -117446270</internalNodes>
          <leafValues>
            -2.8307801485061646e-01 3.2490193843841553e-01</leafValues></_>
        <_>
          <internalNodes>
            0 -1 145 -1078192904 -442128 344478449 1600068861
            -1162317238 -565253486 579588222 -821375282</internalNodes>
          <leafValues>
            -4.1125887632369995e-01 2.2823195159435272e-01</leafValues></_>
        <_>
          <internalNodes>
            0 -1 197 930309651 -405892607 341885749 412250650
            -1928249128 -1879354662 326281142 458402303</internalNodes>
          <leafValues>
            -3.4113901853561401e-01 3.0172315239906311e-01</leafValues></_>
        <_>
          <internalNodes>
            0 -1 20 -290535833 -356605884 -744031090 136332394
            1630997877 -193174243 2121755958 1705866821</internalNodes>
          <leafValues>
            -4.6834409236907959e-01 2.1033057570457458e-01</leafValues></_>
        <_>
          <internalNodes>
            0 -1 53 638239359 -1615609734 -1940483467 1380581397
            -1193731192 -654309046 -696077060 1865150663</internalNodes>
          <leafValues>
            -3.6078122258186340e-01 2.8839835524559021e-01</leafValues></_>
        <_>
          <internalNodes>
            0 -1 190 -1833895695 -56207187 -740198565 1567989237
            -1629820702 -829434291 -1212613131 -817360688</internalNodes>
          <leafValues>
            -2.8474059700965881e-01 3.5848844051361084e-01</leafValues></_>
        <_>
          <internalNodes>
            0 -1 144 -805138238 -413952828 -218390947 -171334311
            -1035817997 -329081346 268973993 675485451</internalNodes>
          <leafValues>
            -4.9261695146560669e-01 2.1929195523262024e-01</leafValues></_>
        <_>
          <internalNodes>
            0 -1 76 1305533488 -284134864 -83099693 693503235 78287900
            -1276655505 35070206 403639594</internalNodes>
          <leafValues>
            -6.7574995756149292e-01 1.4163801074028015e-01</leafValues></_>
        <_>
          <internalNodes>
            0 -1 75 -367506729 -227574547 1923639551 1141852313
            -1300576040 -390751406 2013724277 -1979097603</internalNodes>
          <leafValues>
            -3.2242423295974731e-01 3.3670964837074280e-01</leafValues></_>
        <_>
          <internalNodes>
            0 -1 184 -457462674 -641189272 -1676113281 661170816
            1800202653 1073239669 1292691692 -523247046</internalNodes>
          <leafValues>
            -3.2611176371574402e-01 3.4365910291671753e-01</leafValues></_>
        <_>
          <internalNodes>
            0 -1 186 733491521 1584060658 1391705329 1347128541
            -1361327864 -1990273023 -1090324494 -820373091</internalNodes>
          <leafValues>
            -3.5300362110137939e-01 3.2250237464904785e-01</leafValues></_>
        <_>
          <internalNodes>
            0 -1 116 1578368922 690576219 1057326827 2021575399
            -1319054426 -556379206 -139539254 1040115082</internalNodes>
          <leafValues>
            -3.7296101450920105e-01 2.9363629221916199e-01</leafValues></_></weakClassifiers></_>
    <!-- stage 15 -->
    <_>
      <maxWeakCount>15</maxWeakCount>
      <stageThreshold>-1.3196177482604980e+00</stageThreshold>
      <weakClassifiers>
        <_>
          <internalNodes>
            0 -1 229 -75497473 -537121508 1363677116 -676851412
            -110346306 -812374564 -1175117908 -1060881</internalNodes>
          <leafValues>
            -5.5294805765151978e-01 5.7647962123155594e-02</leafValues></_>
        <_>
          <internalNodes>
            0 -1 150 -203690357 -1461937718 1464230229 326430030
            2078772057 1003108420 1826291789 -74455285</internalNodes>
          <leafValues>
            -2.6622301340103149e-01 3.4202179312705994e-01</leafValues></_>
        <_>
          <internalNodes>
            0 -1 22 713961006 -2030376274 -298965466 -1964314930
            877082484 -411659050 1717995877 -2066398362</internalNodes>
          <leafValues>
            -4.4432398676872253e-01 1.9063717126846313e-01</leafValues></_>
        <_>
          <internalNodes>
            0 -1 41 -205826083 -278151304 993195930 -44073145
            -1128733750 -274849718 9888981 -604250787</internalNodes>
          <leafValues>
            -2.4721725285053253e-01 3.8003468513488770e-01</leafValues></_>
        <_>
          <internalNodes>
            0 -1 249 -1494770940 108330332 -1525225214 610299150
            1692354368 43510003 1911535104 1624688483</internalNodes>
          <leafValues>
            -5.4689484834671021e-01 1.9879519939422607e-01</leafValues></_>
        <_>
          <internalNodes>
            0 -1 147 -1878965061 -57667199 -1124573289 1488998810
            -1583678223 -583417857 740941467 -1668340296</internalNodes>
          <leafValues>
            -2.8570067882537842e-01 3.5185858607292175e-01</leafValues></_>
        <_>
          <internalNodes>
            0 -1 104 1528404434 504584984 -1828695277 857362291
            -848563762 -1693296486 1361238238 1480348392</internalNodes>
          <leafValues>
            -4.7204887866973877e-01 2.0314182341098785e-01</leafValues></_>
        <_>
          <internalNodes>
            0 -1 153 -1071415293 -572801549 -1162514465 2012738523
            -830546241 -318767369 -148214785 -531019746</internalNodes>
          <leafValues>
            -2.9405680298805237e-01 3.6994576454162598e-01</leafValues></_>
        <_>
          <internalNodes>
            0 -1 51 -1325302220 -307671277 1368869359 1426281663
            -300823360 -105843662 -1059982471 295374843</internalNodes>
          <leafValues>
            -4.7516044974327087e-01 2.1481066942214966e-01</leafValues></_>
        <_>
          <internalNodes>
            0 -1 206 -926221110 -58659711 -1598285056 1138599957
            -241438069 -2012998484 -526065001 -259026273</internalNodes>
          <leafValues>
            -3.0935442447662354e-01 3.6029788851737976e-01</leafValues></_>
        <_>
          <internalNodes>
            0 -1 27 -224693606 -77920645 -1192858408 696874709 10801294
            -1907071436 -599604001 -602855711</internalNodes>
          <leafValues>
            -3.7074601650238037e-01 2.9099443554878235e-01</leafValues></_>
        <_>
          <internalNodes>
            0 -1 40 850037371 -9819356 -2102965201 308400236 376150538
            -651746431 1650185172 1607561493</internalNodes>
          <leafValues>
            -3.9748701453208923e-01 2.5415414571762085e-01</leafValues></_>
        <_>
          <internalNodes>
            0 -1 4 2101794736 -1618786648 -2005096355 962038049
            -213886111 451364660 -722640660 307299347</internalNodes>
          <leafValues>
            -4.9169859290122986e-01 2.1652427315711975e-01</leafValues></_>
        <_>
          <internalNodes>
            0 -1 55 -231416104 625459402 816124451 504986549 -72157593
            2068087910 393542900 -1891678015</internalNodes>
          <leafValues>
            -3.9882898330688477e-01 2.6952350139617920e-01</leafValues></_>
        <_>
          <internalNodes>
            0 -1 0 -1037571281 640266147 -233689137 -997221202
            1831302815 1140862153 -269520127 -1838811537</internalNodes>
          <leafValues>
            -3.2262989878654480e-01 3.3859947323799133e-01</leafValues></_></weakClassifiers></_>
    <!-- stage 16 -->
    <_>
      <maxWeakCount>15</maxWeakCount>
      <stageThreshold>-1.4841390848159790e+00</stageThreshold>
      <weakClassifiers>
        <_>
          <internalNodes>
            0 -1 188 -1039941373 2136457531 -1175872065 -21528870
            -303317505 -105917194 -663241762 -348135765</internalNodes>
          <leafValues>
            -5.4381823539733887e-01 2.4981074035167694e-02</leafValues></_>
        <_>
          <internalNodes>
            0 -1 73 2065215696 296797209 -193386596 -772193676
            -911556886 -1372015141 -1272838344 800856304</internalNodes>
          <leafValues>
            -5.2791482210159302e-01 1.2858580052852631e-01</leafValues></_>
        <_>
          <internalNodes>
            0 -1 99 -1073552894 -199190081 -544409604 -150542176
            -256150285 -1626882287 -531500090 1661188880</internalNodes>
          <leafValues>
            -3.9324280619621277e-01 2.0786698162555695e-01</leafValues></_>
        <_>
          <internalNodes>
            0 -1 91 1136316504 1336879352 -2109035821 492802329
            -1825957680 -1640331648 404493105 1565101393</internalNodes>
          <leafValues>
            -5.1247614622116089e-01 1.9979788362979889e-01</leafValues></_>
        <_>
          <internalNodes>
            0 -1 110 214610651 -1687221770 -1964413345 1363107294
            -1944365366 -1160943002 -1649692969 -15998977</internalNodes>
          <leafValues>
            -2.4795553088188171e-01 3.8155695796012878e-01</leafValues></_>
        <_>
          <internalNodes>
            0 -1 160 -398212557 -399786612 1225893232 1387254910
            -18727904 420984629 -489895230 -607454269</internalNodes>
          <leafValues>
            -2.2021706402301788e-01 4.1747021675109863e-01</leafValues></_>
        <_>
          <internalNodes>
            0 -1 115 219175377 -98542488 -830472835 -1389472271
            -1544882032 -607354895 447002489 489686509</internalNodes>
          <leafValues>
            -4.2770376801490784e-01 2.2035545110702515e-01</leafValues></_>
        <_>
          <internalNodes>
            0 -1 31 949639912 -714653640 914016063 1433880726 1370159288
            -90681094 407168664 373296792</internalNodes>
          <leafValues>
            -5.1425033807754517e-01 1.9425900280475616e-01</leafValues></_>
        <_>
          <internalNodes>
            0 -1 83 44715775 -561306592 683000413 -648052739 -278246278
            1864102000 2032109780 -1159987713</internalNodes>
          <leafValues>
            -2.8000721335411072e-01 3.6043038964271545e-01</leafValues></_>
        <_>
          <internalNodes>
            0 -1 2 41918015 164543087 542696685 -2087142682 1683977477
            27341350 1911333716 1080360082</internalNodes>
          <leafValues>
            -4.1051200032234192e-01 2.5286287069320679e-01</leafValues></_>
        <_>
          <internalNodes>
            0 -1 175 -2044474725 1740801080 -1040224611 1565115515
            -472936566 1870431194 1402722516 -1030751273</internalNodes>
          <leafValues>
            -2.5254881381988525e-01 4.2126238346099854e-01</leafValues></_>
        <_>
          <internalNodes>
            0 -1 179 -979271660 1506542304 520785561 1200399709
            -810936262 -1088845574 437398269 523861050</internalNodes>
          <leafValues>
            -4.9614983797073364e-01 2.2885696589946747e-01</leafValues></_>
        <_>
          <internalNodes>
            0 -1 54 -135143606 324664654 -311265327 678060022 -593845943
            -1862292430 -679107377 -678243703</internalNodes>
          <leafValues>
            -3.8244491815567017e-01 2.7252861857414246e-01</leafValues></_>
        <_>
          <internalNodes>
            0 -1 230 -1505812736 1222539209 -560597247 -2132033562
            735795586 1224132379 498490128 83577042</internalNodes>
          <leafValues>
            -5.5859768390655518e-01 1.9457070529460907e-01</leafValues></_>
        <_>
          <internalNodes>
            0 -1 232 -1453484226 -1206053617 1498945244 714457708
            566079676 644102292 2100675501 2111601662</internalNodes>
          <leafValues>
            -4.5688661932945251e-01 2.2593207657337189e-01</leafValues></_></weakClassifiers></_>
    <!-- stage 17 -->
    <_>
      <maxWeakCount>17</maxWeakCount>
      <stageThreshold>-1.2437797784805298e+00</stageThreshold>
      <weakClassifiers>
        <_>
          <internalNodes>
            0 -1 208 -1074268161 -6542660 -779085892 -1158647809 -475140
            -1694720972 1046757340 -537400357</internalNodes>
          <leafValues>
            -5.4223275184631348e-01 1.9637461751699448e-02</leafValues></_>
        <_>
          <internalNodes>
            0 -1 128 -1153934216 -1914928088 -1124344075 1844335948
            -332859664 -16114701 -1086824457 682105876</internalNodes>
          <leafValues>
            -6.0084998607635498e-01 1.0859610140323639e-01</leafValues></_>
        <_>
          <internalNodes>
            0 -1 80 1361573459 -1348765 1165707739 1306153011
            -1802141275 -224600124 153703242 -9448485</internalNodes>
          <leafValues>
            -2.3888288438320160e-01 3.5390332341194153e-01</leafValues></_>
        <_>
          <internalNodes>
            0 -1 220 1985640461 -492632995 1013596287 52385108
            -1565885880 -1653046 -1153897729 -14983681</internalNodes>
          <leafValues>
            -2.0934757590293884e-01 4.0101313591003418e-01</leafValues></_>
        <_>
          <internalNodes>
            0 -1 146 -1006403454 1357728730 566985048 -1622812952
            -1433441601 -822211825 -1159544112 1080542243</internalNodes>
          <leafValues>
            -3.9328065514564514e-01 2.2899702191352844e-01</leafValues></_>
        <_>
          <internalNodes>
            0 -1 9 969910499 -286497078 781365192 1246749311 1512046462
            -731230616 657786399 1579135871</internalNodes>
          <leafValues>
            -3.5106807947158813e-01 2.5460344552993774e-01</leafValues></_>
        <_>
          <internalNodes>
            0 -1 48 2132950100 -182239819 2012552581 2098273628
            -72837930 -1075528202 931663353 169873576</internalNodes>
          <leafValues>
            -5.3952670097351074e-01 1.7363905906677246e-01</leafValues></_>
        <_>
          <internalNodes>
            0 -1 117 -1242932495 -961717976 1891105455 1516130804
            -1621573039 -1955071136 -1026376013 -1106534917</internalNodes>
          <leafValues>
            -2.8030827641487122e-01 3.4530338644981384e-01</leafValues></_>
        <_>
          <internalNodes>
            0 -1 135 -1778461056 -1779712088 -1976334160 -413695733
            1874985655 -1820268300 67275495 1351066274</internalNodes>
          <leafValues>
            -4.7772485017776489e-01 2.0126631855964661e-01</leafValues></_>
        <_>
          <internalNodes>
            0 -1 106 1918889907 -93315204 1998372604 -7035216 1031548792
            498906868 1068522408 -101718289</internalNodes>
          <leafValues>
            -2.4190731346607208e-01 4.1041421890258789e-01</leafValues></_>
        <_>
          <internalNodes>
            0 -1 86 -54928129 -558167902 -1304505095 -825995803
            -1547967867 -960075159 1111218847 -15871865</internalNodes>
          <leafValues>
            -2.4623996019363403e-01 4.1965314745903015e-01</leafValues></_>
        <_>
          <internalNodes>
            0 -1 43 -1624266631 -1918243819 723373133 1498401621
            -1623553854 -430554798 768537599 -83852859</internalNodes>
          <leafValues>
            -2.8133806586265564e-01 3.5884264111518860e-01</leafValues></_>
        <_>
          <internalNodes>
            0 -1 174 -1738674053 -110826252 1645728783 -641016185
            -1640252369 -1373702595 399766214 -968360861</internalNodes>
          <leafValues>
            -2.5211632251739502e-01 4.0625274181365967e-01</leafValues></_>
        <_>
          <internalNodes>
            0 -1 101 865111256 -775482888 1059739554 1267438480
            -1281071888 -822240805 1486317158 340247171</internalNodes>
          <leafValues>
            -5.1273196935653687e-01 2.0922562479972839e-01</leafValues></_>
        <_>
          <internalNodes>
            0 -1 238 -209608189 -586835622 -1090891262 990635739
            -295641814 -403792418 -727994997 -427571085</internalNodes>
          <leafValues>
            -2.6497274637222290e-01 4.1041618585586548e-01</leafValues></_>
        <_>
          <internalNodes>
            0 -1 169 -262869024 -1307708727 -418811641 -1783370930
            -2094713094 -1490559251 510047643 695671714</internalNodes>
          <leafValues>
            -5.2909183502197266e-01 2.0866779983043671e-01</leafValues></_>
        <_>
          <internalNodes>
            0 -1 23 13741659 745426646 1316060736 573596590 1532329216
            895308115 -549232521 72675058</internalNodes>
          <leafValues>
            -5.1202946901321411e-01 1.9649001955986023e-01</leafValues></_></weakClassifiers></_>
    <!-- stage 18 -->
    <_>
      <maxWeakCount>17</maxWeakCount>
      <stageThreshold>-1.4215650558471680e+00</stageThreshold>
      <weakClassifiers>
        <_>
          <internalNodes>
            0 -1 200 -267128609 -851969829 -277614657 -71733863
            -336069377 -5703297 -287055701 -791945014</internalNodes>
          <leafValues>
            -5.3525263071060181e-01 9.1883614659309387e-03</leafValues></_>
        <_>
          <internalNodes>
            0 -1 198 -69665671 -1419814608 -2139521393 1358911965
            -1321529654 -1974548928 924755675 -551872065</internalNodes>
          <leafValues>
            -2.9031723737716675e-01 2.8569993376731873e-01</leafValues></_>
        <_>
          <internalNodes>
            0 -1 12 -285292857 44475450 -1206683954 -2065005330
            930559831 628511015 1968514918 1079213175</internalNodes>
          <leafValues>
            -5.3989166021347046e-01 1.4868775010108948e-01</leafValues></_>
        <_>
          <internalNodes>
            0 -1 151 -35803975 -183499718 212338800 1316479624
            -800534536 829627560 -1138692101 1702332346</internalNodes>
          <leafValues>
            -3.0858838558197021e-01 2.9112076759338379e-01</leafValues></_>
        <_>
          <internalNodes>
            0 -1 216 -1227300728 507021528 53573547 532364376
            -1765682742 -1007971096 1459651171 489688276</internalNodes>
          <leafValues>
            -5.6685596704483032e-01 1.5126374363899231e-01</leafValues></_>
        <_>
          <internalNodes>
            0 -1 180 1568792580 -1602433014 92210688 35676282 269633576
            -1418308476 79812280 -754981157</internalNodes>
          <leafValues>
            -3.7192368507385254e-01 2.3931449651718140e-01</leafValues></_>
        <_>
          <internalNodes>
            0 -1 103 -1625779715 2109261000 890339823 -1820109393
            -1937109547 527045636 321096371 275398891</internalNodes>
          <leafValues>
            -4.0561637282371521e-01 2.1670006215572357e-01</leafValues></_>
        <_>
          <internalNodes>
            0 -1 215 1700899992 -1682670340 1025771508 1012904503
            1152191624 2024343628 2049573625 532001243</internalNodes>
          <leafValues>
            -4.7798994183540344e-01 1.8510998785495758e-01</leafValues></_>
        <_>
          <internalNodes>
            0 -1 30 -1214632461 -280100936 886711135 -1703080967
            463620798 -814811137 479751407 -715366453</internalNodes>
          <leafValues>
            -2.5324848294258118e-01 3.6809730529785156e-01</leafValues></_>
        <_>
          <internalNodes>
            0 -1 38 413155456 -1986052008 1337391243 -1614827700
            1779259510 -124782327 55370 512825457</internalNodes>
          <leafValues>
            -5.5520415306091309e-01 1.7377358675003052e-01</leafValues></_>
        <_>
          <internalNodes>
            0 -1 50 1407009527 -1677727710 339680889 -773885449
            -538211094 -977217528 -614486370 -30679857</internalNodes>
          <leafValues>
            -2.1917393803596497e-01 4.3613490462303162e-01</leafValues></_>
        <_>
          <internalNodes>
            0 -1 113 -377831755 693404200 -960629035 315950505 917434290
            -1360572686 -684154501 -1078518547</internalNodes>
          <leafValues>
            -2.7268964052200317e-01 3.5677337646484375e-01</leafValues></_>
        <_>
          <internalNodes>
            0 -1 233 -423133117 -1189690404 1006439610 -1429488660
            1154238616 -1214365789 -924326166 -1011089494</internalNodes>
          <leafValues>
            -2.5246179103851318e-01 3.9061731100082397e-01</leafValues></_>
        <_>
          <internalNodes>
            0 -1 35 -893126028 -217328714 -2012028180 1359250107
            -1531117533 -2020228704 -894619938 437455526</internalNodes>
          <leafValues>
            -4.7175273299217224e-01 2.2496086359024048e-01</leafValues></_>
        <_>
          <internalNodes>
            0 -1 210 1576688216 -139505599 945211167 1079990485
            -1642435000 -84678116 -75628619 -1962733569</internalNodes>
          <leafValues>
            -3.3638373017311096e-01 3.0192884802818298e-01</leafValues></_>
        <_>
          <internalNodes>
            0 -1 189 6052344 1369529825 913656276 1343383100 1240013657
            -982094889 518676098 290606706</internalNodes>
          <leafValues>
            -5.3386670351028442e-01 1.8609440326690674e-01</leafValues></_>
        <_>
          <internalNodes>
            0 -1 236 -747377733 -6833121 1317059621 -1620213615
            2004121476 -1625874894 -1277247677 -740563158</internalNodes>
          <leafValues>
            -2.4044321477413177e-01 4.6830508112907410e-01</leafValues></_></weakClassifiers></_>
    <!-- stage 19 -->
    <_>
      <maxWeakCount>17</maxWeakCount>
      <stageThreshold>-1.3832477331161499e+00</stageThreshold>
      <weakClassifiers>
        <_>
          <internalNodes>
            0 -1 195 -16385 1442614156 -311407667 -1342912068
            -1292079618 928521608 1839771857 -2388097</internalNodes>
          <leafValues>
            -5.3699284791946411e-01 -7.3637701570987701e-03</leafValues></_>
        <_>
          <internalNodes>
            0 -1 239 -137939148 -102989064 944789752 1929128184
            -1745083944 -587444140 1825048472 2101847807</internalNodes>
          <leafValues>
            -4.0261957049369812e-01 1.6639821231365204e-01</leafValues></_>
        <_>
          <internalNodes>
            0 -1 60 -1440608144 -1751698696 1612411477 1985726869
            -1089738146 659476136 -15821477 -598860532</internalNodes>
          <leafValues>
            -4.4173884391784668e-01 1.7815819382667542e-01</leafValues></_>
        <_>
          <internalNodes>
            0 -1 58 -340068175 -12626913 1910100024 -712027817
            1780208359 -918577202 585600752 -842035251</internalNodes>
          <leafValues>
            -2.3186576366424561e-01 3.4583365917205811e-01</leafValues></_>
        <_>
          <internalNodes>
            0 -1 7 -828486017 1581145847 1257160629 723692266 1901164307
            1814205383 1934513015 -1367870572</internalNodes>
          <leafValues>
            -2.8339093923568726e-01 2.9028150439262390e-01</leafValues></_>
        <_>
          <internalNodes>
            0 -1 52 -1211270277 -990122663 1926691062 1291805689
            -1047462677 -886867076 188873971 -1688238098</internalNodes>
          <leafValues>
            -2.3005205392837524e-01 3.6715200543403625e-01</leafValues></_>
        <_>
          <internalNodes>
            0 -1 170 -395787768 -1318336874 2021710141 468185942
            -489201934 -384805995 2081510090 1879433770</internalNodes>
          <leafValues>
            -4.4480764865875244e-01 2.0802456140518188e-01</leafValues></_>
        <_>
          <internalNodes>
            0 -1 218 204818199 917942237 -501757163 -989055723
            -1713898822 463325512 49264443 529971423</internalNodes>
          <leafValues>
            -3.1471821665763855e-01 2.8555047512054443e-01</leafValues></_>
        <_>
          <internalNodes>
            0 -1 191 -1919728928 1305233838 1095788796 1516114134
            -1056122304 -850687220 809790708 240686757</internalNodes>
          <leafValues>
            -4.9954366683959961e-01 1.8384690582752228e-01</leafValues></_>
        <_>
          <internalNodes>
            0 -1 248 760733187 462929183 -52605588 775612894 1997763172
            334280125 -255341824 -524419278</internalNodes>
          <leafValues>
            -3.3250907063484192e-01 2.9123455286026001e-01</leafValues></_>
        <_>
          <internalNodes>
            0 -1 223 -808658479 -610223560 2008996565 -132375623
            -1116235583 -537346708 -720183848 -744760365</internalNodes>
          <leafValues>
            -2.4272803962230682e-01 4.2280483245849609e-01</leafValues></_>
        <_>
          <internalNodes>
            0 -1 107 83951800 241851084 1067072593 -578130438 534224109
            -1718966248 356677630 1248027691</internalNodes>
          <leafValues>
            -5.0238239765167236e-01 2.0086215436458588e-01</leafValues></_>
        <_>
          <internalNodes>
            0 -1 42 889919024 1904463921 477217087 915214290 -1260522448
            2073165882 400888068 966176245</internalNodes>
          <leafValues>
            -4.5202001929283142e-01 2.1256309747695923e-01</leafValues></_>
        <_>
          <internalNodes>
            0 -1 32 -1303344173 -608530999 796077653 -1646266495
            234642686 -1630581622 1780173007 -1690449519</internalNodes>
          <leafValues>
            -2.7602741122245789e-01 3.6517962813377380e-01</leafValues></_>
        <_>
          <internalNodes>
            0 -1 194 -214446146 1467494280 427824196 1369486725
            -2055729900 1038154152 1596744416 2139064922</internalNodes>
          <leafValues>
            -3.8557326793670654e-01 2.6002091169357300e-01</leafValues></_>
        <_>
          <internalNodes>
            0 -1 126 35328087 1502355926 1437404123 -1862015053
            -2026973443 -1162961681 -1554036546 -673821473</internalNodes>
          <leafValues>
            -2.7986001968383789e-01 3.7336769700050354e-01</leafValues></_>
        <_>
          <internalNodes>
            0 -1 26 -466171410 543311561 310960160 -1538391100
            -1305381049 920971803 1729452070 359933234</internalNodes>
          <leafValues>
            -6.1619007587432861e-01 1.7743523418903351e-01</leafValues></_></weakClassifiers></_></stages>
  <features>
    <_>
      <rect>
        0 0 3 2</rect></_>
    <_>
      <rect>
        0 1 2 1</rect></_>
    <_>
      <rect>
        0 1 2 3</rect></_>
    <_>
      <rect>
        0 1 12 2</rect></_>
    <_>
      <rect>
        0 1 15 6</rect></_>
    <_>
      <rect>
        0 1 16 6</rect></_>
    <_>
      <rect>
        0 2 2 2</rect></_>
    <_>
      <rect>
        0 2 6 4</rect></_>
    <_>
      <rect>
        0 2 20 5</rect></_>
    <_>
      <rect>
        0 3 1 1</rect></_>
    <_>
      <rect>
        0 3 14 5</rect></_>
    <_>
      <rect>
        0 5 20 5</rect></_>
    <_>
      <rect>
        0 6 6 1</rect></_>
    <_>
      <rect>
        0 10 4 1</rect></_>
    <_>
      <rect>
        0 10 8 2</rect></_>
    <_>
      <rect>
        0 10 13 2</rect></_>
    <_>
      <rect>
        0 13 2 2</rect></_>
    <_>
      <rect>
        0 14 4 1</rect></_>
    <_>
      <rect>
        0 14 4 2</rect></_>
    <_>
      <rect>
        1 0 13 6</rect></_>
    <_>
      <rect>
        1 3 3 1</rect></_>
    <_>
      <rect>
        1 7 5 3</rect></_>
    <_>
      <rect>
        1 9 3 2</rect></_>
    <_>
      <rect>
        1 11 1 2</rect></_>
    <_>
      <rect>
        2 1 19 6</rect></_>
    <_>
      <rect>
        2 2 19 6</rect></_>
    <_>
      <rect>
        2 3 4 1</rect></_>
    <_>
      <rect>
        5 7 16 4</rect></_>
    <_>
      <rect>
        6 0 18 5</rect></_>
    <_>
      <rect>
        9 4 8 2</rect></_>
    <_>
      <rect>
        10 5 8 2</rect></_>
    <_>
      <rect>
        11 5 6 3</rect></_>
    <_>
      <rect>
        11 6 8 2</rect></_>
    <_>
      <rect>
        12 2 13 4</rect></_>
    <_>
      <rect>
        12 3 9 3</rect></_>
    <_>
      <rect>
        12 6 11 3</rect></_>
    <_>
      <rect>
        12 7 9 2</rect></_>
    <_>
      <rect>
        12 11 8 2</rect></_>
    <_>
      <rect>
        13 3 6 3</rect></_>
    <_>
      <rect>
        13 6 6 3</rect></_>
    <_>
      <rect>
        13 8 4 1</rect></_>
    <_>
      <rect>
        14 3 6 2</rect></_>
    <_>
      <rect>
        14 3 8 4</rect></_>
    <_>
      <rect>
        14 8 2 1</rect></_>
    <_>
      <rect>
        14 10 7 1</rect></_>
    <_>
      <rect>
        15 4 8 3</rect></_>
    <_>
      <rect>
        15 5 9 3</rect></_>
    <_>
      <rect>
        15 6 7 2</rect></_>
    <_>
      <rect>
        15 7 5 4</rect></_>
    <_>
      <rect>
        15 7 8 3</rect></_>
    <_>
      <rect>
        15 10 3 1</rect></_>
    <_>
      <rect>
        16 5 8 3</rect></_>
    <_>
      <rect>
        16 7 10 3</rect></_>
    <_>
      <rect>
        16 11 4 1</rect></_>
    <_>
      <rect>
        17 0 14 5</rect></_>
    <_>
      <rect>
        17 2 6 2</rect></_>
    <_>
      <rect>
        17 6 7 2</rect></_>
    <_>
      <rect>
        17 6 9 3</rect></_>
    <_>
      <rect>
        17 7 6 2</rect></_>
    <_>
      <rect>
        17 7 9 2</rect></_>
    <_>
      <rect>
        17 10 7 2</rect></_>
    <_>
      <rect>
        18 3 6 2</rect></_>
    <_>
      <rect>
        18 5 6 2</rect></_>
    <_>
      <rect>
        18 7 6 2</rect></_>
    <_>
      <rect>
        18 7 8 2</rect></_>
    <_>
      <rect>
        18 8 5 1</rect></_>
    <_>
      <rect>
        18 9 4 2</rect></_>
    <_>
      <rect>
        18 10 6 2</rect></_>
    <_>
      <rect>
        18 11 4 1</rect></_>
    <_>
      <rect>
        18 12 8 2</rect></_>
    <_>
      <rect>
        19 3 7 5</rect></_>
    <_>
      <rect>
        19 5 6 2</rect></_>
    <_>
      <rect>
        19 6 6 3</rect></_>
    <_>
      <rect>
        19 7 3 3</rect></_>
    <_>
      <rect>
        19 10 7 2</rect></_>
    <_>
      <rect>
        20 2 3 1</rect></_>
    <_>
      <rect>
        20 2 7 5</rect></_>
    <_>
      <rect>
        20 5 7 3</rect></_>
    <_>
      <rect>
        20 7 5 1</rect></_>
    <_>
      <rect>
        20 8 8 3</rect></_>
    <_>
      <rect>
        20 9 5 1</rect></_>
    <_>
      <rect>
        20 9 7 2</rect></_>
    <_>
      <rect>
        20 11 5 2</rect></_>
    <_>
      <rect>
        20 12 3 1</rect></_>
    <_>
      <rect>
        21 3 4 2</rect></_>
    <_>
      <rect>
        21 4 5 2</rect></_>
    <_>
      <rect>
        21 5 4 1</rect></_>
    <_>
      <rect>
        21 5 8 2</rect></_>
    <_>
      <rect>
        21 6 5 2</rect></_>
    <_>
      <rect>
        21 6 9 2</rect></_>
    <_>
      <rect>
        21 8 6 2</rect></_>
    <_>
      <rect>
        21 10 7 2</rect></_>
    <_>
      <rect>
        21 11 7 3</rect></_>
    <_>
      <rect>
        21 12 4 1</rect></_>
    <_>
      <rect>
        22 3 5 2</rect></_>
    <_>
      <rect>
        22 3 9 2</rect></_>
    <_>
      <rect>
        22 4 5 2</rect></_>
    <_>
      <rect>
        22 4 10 2</rect></_>
    <_>
      <rect>
        22 7 8 3</rect></_>
    <_>
      <rect>
        23 3 1 3</rect></_>
    <_>
      <rect>
        23 3 3 1</rect></_>
    <_>
      <rect>
        23 4 2 2</rect></_>
    <_>
      <rect>
        23 4 8 4</rect></_>
    <_>
      <rect>
        23 6 5 2</rect></_>
    <_>
      <rect>
        23 6 6 2</rect></_>
    <_>
      <rect>
        23 7 1 4</rect></_>
    <_>
      <rect>
        23 8 1 4</rect></_>
    <_>
      <rect>
        23 9 5 2</rect></_>
    <_>
      <rect>
        23 11 4 2</rect></_>
    <_>
      <rect>
        23 11 6 2</rect></_>
    <_>
      <rect>
        23 12 3 1</rect></_>
    <_>
      <rect>
        23 13 5 1</rect></_>
    <_>
      <rect>
        23 15 3 1</rect></_>
    <_>
      <rect>
        23 16 2 1</rect></_>
    <_>
      <rect>
        24 0 1 4</rect></_>
    <_>
      <rect>
        24 1 2 1</rect></_>
    <_>
      <rect>
        24 1 2 5</rect></_>
    <_>
      <rect>
        24 2 3 1</rect></_>
    <_>
      <rect>
        24 2 3 2</rect></_>
    <_>
      <rect>
        24 2 4 2</rect></_>
    <_>
      <rect>
        24 2 12 6</rect></_>
    <_>
      <rect>
        24 3 1 3</rect></_>
    <_>
      <rect>
        24 3 4 2</rect></_>
    <_>
      <rect>
        24 4 2 3</rect></_>
    <_>
      <rect>
        24 6 1 2</rect></_>
    <_>
      <rect>
        24 8 1 4</rect></_>
    <_>
      <rect>
        24 10 4 1</rect></_>
    <_>
      <rect>
        24 10 4 2</rect></_>
    <_>
      <rect>
        24 10 4 3</rect></_>
    <_>
      <rect>
        25 0 8 4</rect></_>
    <_>
      <rect>
        25 2 1 4</rect></_>
    <_>
      <rect>
        25 3 8 5</rect></_>
    <_>
      <rect>
        25 4 3 1</rect></_>
    <_>
      <rect>
        25 4 5 2</rect></_>
    <_>
      <rect>
        25 6 2 4</rect></_>
    <_>
      <rect>
        25 7 3 2</rect></_>
    <_>
      <rect>
        25 7 7 2</rect></_>
    <_>
      <rect>
        25 8 1 4</rect></_>
    <_>
      <rect>
        25 11 4 2</rect></_>
    <_>
      <rect>
        25 13 3 1</rect></_>
    <_>
      <rect>
        25 14 3 1</rect></_>
    <_>
      <rect>
        26 0 1 4</rect></_>
    <_>
      <rect>
        26 1 2 2</rect></_>
    <_>
      <rect>
        26 2 4 1</rect></_>
    <_>
      <rect>
        26 3 2 3</rect></_>
    <_>
      <rect>
        26 3 4 2</rect></_>
    <_>
      <rect>
        26 5 1 2</rect></_>
    <_>
      <rect>
        26 5 2 1</rect></_>
    <_>
      <rect>
        26 6 2 3</rect></_>
    <_>
      <rect>
        26 7 2 4</rect></_>
    <_>
      <rect>
        26 8 1 2</rect></_>
    <_>
      <rect>
        26 9 2 2</rect></_>
    <_>
      <rect>
        26 14 3 1</rect></_>
    <_>
      <rect>
        27 0 1 4</rect></_>
    <_>
      <rect>
        27 1 2 2</rect></_>
    <_>
      <rect>
        27 2 1 3</rect></_>
    <_>
      <rect>
        27 3 1 3</rect></_>
    <_>
      <rect>
        27 3 3 1</rect></_>
    <_>
      <rect>
        27 6 1 1</rect></_>
    <_>
      <rect>
        27 6 1 4</rect></_>
    <_>
      <rect>
        27 7 1 2</rect></_>
    <_>
      <rect>
        27 7 2 3</rect></_>
    <_>
      <rect>
        27 8 1 1</rect></_>
    <_>
      <rect>
        27 8 1 4</rect></_>
    <_>
      <rect>
        27 9 6 2</rect></_>
    <_>
      <rect>
        27 11 4 2</rect></_>
    <_>
      <rect>
        27 11 5 2</rect></_>
    <_>
      <rect>
        28 1 1 3</rect></_>
    <_>
      <rect>
        28 1 1 4</rect></_>
    <_>
      <rect>
        28 2 2 5</rect></_>
    <_>
      <rect>
        28 3 1 4</rect></_>
    <_>
      <rect>
        28 4 1 3</rect></_>
    <_>
      <rect>
        28 4 5 2</rect></_>
    <_>
      <rect>
        28 5 2 5</rect></_>
    <_>
      <rect>
        28 6 1 1</rect></_>
    <_>
      <rect>
        28 6 1 2</rect></_>
    <_>
      <rect>
        28 6 6 3</rect></_>
    <_>
      <rect>
        28 7 1 2</rect></_>
    <_>
      <rect>
        28 7 1 4</rect></_>
    <_>
      <rect>
        28 7 5 2</rect></_>
    <_>
      <rect>
        28 8 1 1</rect></_>
    <_>
      <rect>
        28 8 1 2</rect></_>
    <_>
      <rect>
        28 8 1 4</rect></_>
    <_>
      <rect>
        28 9 1 1</rect></_>
    <_>
      <rect>
        28 9 1 2</rect></_>
    <_>
      <rect>
        28 13 2 2</rect></_>
    <_>
      <rect>
        28 14 4 1</rect></_>
    <_>
      <rect>
        28 15 2 1</rect></_>
    <_>
      <rect>
        29 2 1 3</rect></_>
    <_>
      <rect>
        29 2 7 2</rect></_>
    <_>
      <rect>
        29 3 3 1</rect></_>
    <_>
      <rect>
        29 5 4 1</rect></_>
    <_>
      <rect>
        29 6 1 4</rect></_>
    <_>
      <rect>
        29 8 1 1</rect></_>
    <_>
      <rect>
        29 8 2 3</rect></_>
    <_>
      <rect>
        29 10 1 3</rect></_>
    <_>
      <rect>
        29 12 3 2</rect></_>
    <_>
      <rect>
        29 12 4 1</rect></_>
    <_>
      <rect>
        29 15 4 1</rect></_>
    <_>
      <rect>
        30 0 1 5</rect></_>
    <_>
      <rect>
        30 0 2 4</rect></_>
    <_>
      <rect>
        30 2 1 4</rect></_>
    <_>
      <rect>
        30 5 1 2</rect></_>
    <_>
      <rect>
        30 7 1 4</rect></_>
    <_>
      <rect>
        30 8 1 2</rect></_>
    <_>
      <rect>
        30 8 6 1</rect></_>
    <_>
      <rect>
        30 9 1 1</rect></_>
    <_>
      <rect>
        30 9 1 2</rect></_>
    <_>
      <rect>
        30 10 1 3</rect></_>
    <_>
      <rect>
        30 13 6 1</rect></_>
    <_>
      <rect>
        30 16 3 1</rect></_>
    <_>
      <rect>
        31 2 1 3</rect></_>
    <_>
      <rect>
        31 5 1 3</rect></_>
    <_>
      <rect>
        31 6 1 3</rect></_>
    <_>
      <rect>
        31 6 1 4</rect></_>
    <_>
      <rect>
        31 7 2 3</rect></_>
    <_>
      <rect>
        31 8 5 3</rect></_>
    <_>
      <rect>
        31 10 5 2</rect></_>
    <_>
      <rect>
        31 12 4 1</rect></_>
    <_>
      <rect>
        31 12 4 2</rect></_>
    <_>
      <rect>
        31 15 4 1</rect></_>
    <_>
      <rect>
        32 1 1 4</rect></_>
    <_>
      <rect>
        32 3 2 5</rect></_>
    <_>
      <rect>
        32 3 3 1</rect></_>
    <_>
      <rect>
        32 4 1 3</rect></_>
    <_>
      <rect>
        32 4 2 3</rect></_>
    <_>
      <rect>
        32 5 2 2</rect></_>
    <_>
      <rect>
        32 7 1 4</rect></_>
    <_>
      <rect>
        32 7 5 2</rect></_>
    <_>
      <rect>
        32 8 1 4</rect></_>
    <_>
      <rect>
        32 12 9 2</rect></_>
    <_>
      <rect>
        33 0 1 4</rect></_>
    <_>
      <rect>
        33 5 2 5</rect></_>
    <_>
      <rect>
        33 6 1 2</rect></_>
    <_>
      <rect>
        33 7 1 4</rect></_>
    <_>
      <rect>
        33 7 4 2</rect></_>
    <_>
      <rect>
        33 9 1 1</rect></_>
    <_>
      <rect>
        34 5 3 2</rect></_>
    <_>
      <rect>
        34 6 1 2</rect></_>
    <_>
      <rect>
        34 7 1 4</rect></_>
    <_>
      <rect>
        35 7 1 4</rect></_>
    <_>
      <rect>
        35 8 1 4</rect></_>
    <_>
      <rect>
        36 9 7 2</rect></_>
    <_>
      <rect>
        37 6 3 1</rect></_>
    <_>
      <rect>
        38 4 7 2</rect></_>
    <_>
      <rect>
        42 8 6 2</rect></_>
    <_>
      <rect>
        45 13 5 2</rect></_>
    <_>
      <rect>
        48 1 4 2</rect></_>
    <_>
      <rect>
        48 7 4 2</rect></_>
    <_>
      <rect>
        48 12 4 2</rect></_>
    <_>
      <rect>
        54 2 2 2</rect></_>
    <_>
      <rect>
        54 11 2 2</rect></_></features></cascade>
</opencv_storage>
