%YAML:1.0
my_svm: !!opencv-ml-svm
   svm_type: C_SVC
   kernel: { type:RBF, gamma:5.0625000000000009e-001 }
   C: 3.1250000000000000e+002
   term_criteria: { epsilon:2.2204460492503131e-016, iterations:100 }
   var_all: 1500
   var_count: 1500
   class_count: 2
   class_labels: !!opencv-matrix
      rows: 1
      cols: 2
      dt: i
      data: [ 1, 2 ]
   sv_total: 43
   support_vectors:
      - [ 0., 0., 5.46448072e-003, 0., 0., 0., 0., 0., 0., 0., 0., 0.,
          5.46448072e-003, 0., 0., 0., 0., 0., 0., 0., 5.46448072e-003,
          5.46448072e-003, 0., 0., 0., 0., 0., 0., 0., 0., 0.,
          5.46448072e-003, 5.46448072e-003, 0., 0., 0., 0., 0., 0., 0.,
          5.46448072e-003, 0., 5.46448072e-003, 0., 0., 0., 0., 0., 0.,
          5.46448072e-003, 0., 0., 0., 0., 5.46448072e-003, 0., 0., 0.,
          0., 1.09289614e-002, 0., 0., 5.46448072e-003, 0., 0., 0., 0.,
          0., 0., 0., 0., 0., 0., 5.46448072e-003, 0., 0., 0., 0., 0.,
          0., 5.46448072e-003, 0., 0., 0., 0., 5.46448072e-003, 0., 0.,
          0., 0., 0., 0., 0., 5.46448072e-003, 0., 0., 0., 0., 0., 0.,
          0., 0., 0., 0., 0., 0., 0., 0., 0., 0., 0., 0., 0., 0., 0., 0.,
          0., 0., 0., 0., 0., 0., 5.46448072e-003, 0., 0., 0., 0., 0.,
          0., 0., 0., 0., 0., 0., 0., 0., 0., 5.46448072e-003, 0., 0.,
          0., 0., 1.09289614e-002, 0., 0., 0., 0., 0., 0., 0., 0., 0.,
          0., 0., 5.46448072e-003, 0., 0., 0., 5.46448072e-003,
          5.46448072e-003, 0., 0., 0., 0., 0., 0., 0., 0., 0., 0., 0.,
          0., 0., 0., 0., 0., 0., 0., 0., 0., 5.46448072e-003, 0., 0.,
          5.46448072e-003, 0., 0., 1.09289614e-002, 0., 0.,
          5.46448072e-003, 0., 0., 0., 0., 0., 0., 0., 0., 0.,
          5.46448072e-003, 0., 0., 0., 0., 0., 0., 0., 0., 0., 0., 0.,
          0., 0., 0., 1.09289614e-002, 0., 0., 0., 0., 0., 0.,
          1.63934417e-002, 0., 0., 0., 0., 0., 0., 0., 0.,
          5.46448072e-003, 0., 5.46448072e-003, 0., 0., 0., 0., 0.,
          1.09289614e-002, 1.63934417e-002, 0., 0., 5.46448072e-003, 0.,
          0., 0., 0., 0., 0., 0., 0., 0., 0., 0., 0., 0., 0., 0., 0., 0.,
          0., 0., 0., 0., 0., 1.09289614e-002, 0., 0., 0., 0., 0., 0.,
          0., 0., 0., 0., 0., 0., 0., 0., 0., 0., 0., 5.46448072e-003,
          5.46448072e-003, 0., 0., 1.09289614e-002, 5.46448072e-003, 0.,
          0., 1.09289614e-002, 0., 0., 0., 0., 0., 0., 0., 0., 0., 0.,
          5.46448072e-003, 0., 0., 0., 0., 0., 0., 0., 0., 0., 0., 0.,
          0., 0., 0., 0., 0., 0., 5.46448072e-003, 0., 5.46448072e-003,
          0., 3.27868834e-002, 0., 0., 0., 5.46448072e-003, 0., 0., 0.,
          1.63934417e-002, 0., 0., 0., 0., 0., 0., 0., 0., 0., 0.,
          5.46448072e-003, 0., 0., 0., 1.09289614e-002, 0., 0., 0., 0.,
          0., 5.46448072e-003, 0., 0., 0., 0., 0., 0., 0., 0., 0., 0.,
          5.46448072e-003, 5.46448072e-003, 0., 0., 0., 1.09289614e-002,
          0., 0., 0., 0., 0., 0., 0., 0., 1.09289614e-002, 0., 0., 0.,
          0., 0., 0., 0., 5.46448072e-003, 0., 0., 0., 0., 0., 0., 0.,
          5.46448072e-003, 0., 5.46448072e-003, 0., 0., 5.46448072e-003,
          5.46448072e-003, 0., 0., 0., 0., 0., 0., 0., 0., 0., 0.,
          5.46448072e-003, 0., 0., 0., 0., 0., 0., 0., 0., 0., 0., 0.,
          0., 0., 0., 0., 0., 0., 0., 0., 0., 0., 0., 0., 0., 0., 0., 0.,
          0., 0., 0., 0., 0., 0., 0., 0., 5.46448072e-003, 0.,
          5.46448072e-003, 0., 0., 0., 0., 0., 0., 0., 0., 0., 0., 0.,
          0., 0., 0., 0., 5.46448072e-003, 0., 5.46448072e-003, 0., 0.,
          0., 0., 0., 1.09289614e-002, 0., 0., 0., 0., 0., 0., 0., 0.,
          0., 0., 0., 0., 0., 0., 0., 0., 0., 5.46448072e-003, 0., 0.,
          0., 0., 0., 0., 0., 0., 0., 0., 0., 0., 0., 5.46448072e-003,
          0., 0., 0., 5.46448072e-003, 0., 0., 0., 0., 5.46448072e-003,
          0., 0., 0., 0., 0., 0., 0., 0., 0., 0., 5.46448072e-003, 0.,
          1.63934417e-002, 0., 0., 0., 0., 0., 0., 0., 0.,
          5.46448072e-003, 0., 0., 0., 0., 0., 0., 0., 0., 0., 0., 0.,
          0., 0., 0., 0., 0., 5.46448072e-003, 0., 0., 0., 0., 0., 0.,
          0., 0., 0., 0., 5.46448072e-003, 0., 0., 0., 0., 0., 0., 0.,
          0., 0., 0., 0., 0., 0., 0., 5.46448072e-003, 0., 0., 0., 0.,
          0., 5.46448072e-003, 0., 0., 0., 0., 0., 0., 1.63934417e-002,
          0., 0., 0., 5.46448072e-003, 0., 0., 0., 0., 0., 0., 0., 0.,
          0., 0., 0., 0., 0., 0., 0., 0., 0., 5.46448072e-003, 0., 0.,
          0., 0., 0., 0., 0., 0., 0., 0., 0., 0., 0., 0., 0., 0., 0., 0.,
          0., 5.46448072e-003, 0., 0., 0., 0., 0., 0., 0., 0., 0., 0.,
          5.46448072e-003, 0., 0., 0., 0., 0., 0., 0., 0.,
          1.09289614e-002, 0., 5.46448072e-003, 0., 0., 0., 0., 0., 0.,
          0., 5.46448072e-003, 0., 0., 0., 0., 0., 0., 0., 0., 0., 0.,
          0., 0., 0., 0., 0., 0., 5.46448072e-003, 0., 0., 0., 0., 0.,
          0., 0., 0., 0., 0., 0., 0., 0., 0., 0., 0., 0.,
          5.46448072e-003, 0., 0., 0., 0., 0., 0., 0., 0., 0., 0., 0.,
          0., 0., 5.46448072e-003, 5.46448072e-003, 0., 0., 0., 0., 0.,
          0., 0., 0., 0., 0., 0., 1.09289614e-002, 0., 0., 0., 0., 0.,
          0., 0., 0., 0., 5.46448072e-003, 0., 0., 0., 0., 0., 0., 0.,
          0., 5.46448072e-003, 0., 0., 0., 0., 1.09289614e-002, 0., 0.,
          0., 0., 0., 0., 0., 0., 0., 0., 0., 0., 5.46448072e-003, 0.,
          0., 0., 0., 0., 0., 0., 0., 0., 0., 0., 0., 0., 0., 0., 0., 0.,
          0., 0., 0., 0., 0., 0., 0., 0., 0., 0., 0., 0., 0., 0., 0., 0.,
          0., 0., 0., 0., 0., 0., 0., 5.46448072e-003, 0., 0., 0., 0.,
          0., 0., 0., 0., 5.46448072e-003, 0., 0., 0., 0., 0., 0., 0.,
          0., 0., 0., 1.63934417e-002, 0., 0., 0., 0., 0., 0., 0., 0.,
          0., 0., 5.46448072e-003, 1.09289614e-002, 0., 0., 0., 0., 0.,
          0., 0., 0., 0., 0., 5.46448072e-003, 0., 0., 0., 0., 0., 0.,
          0., 0., 0., 0., 5.46448072e-003, 0., 0., 0., 0., 0., 0.,
          1.09289614e-002, 0., 0., 0., 0., 5.46448072e-003,
          5.46448072e-003, 0., 0., 5.46448072e-003, 5.46448072e-003, 0.,
          0., 0., 0., 0., 0., 5.46448072e-003, 0., 0., 0., 0., 0., 0.,
          0., 0., 0., 0., 0., 0., 5.46448072e-003, 0., 0., 0., 0., 0.,
          0., 0., 0., 0., 0., 0., 0., 0., 0., 0., 0., 0., 0., 0., 0., 0.,
          0., 0., 0., 0., 0., 0., 5.46448072e-003, 0., 0., 0., 0., 0.,
          0., 0., 0., 0., 0., 0., 0., 0., 0., 0., 0., 0., 0., 0., 0., 0.,
          0., 0., 0., 0., 0., 0., 0., 0., 0., 0., 0., 0., 0., 0., 0., 0.,
          5.46448072e-003, 0., 0., 0., 0., 0., 0., 0., 0., 0., 0., 0.,
          1.09289614e-002, 0., 0., 0., 0., 0., 0., 0., 0., 0., 0., 0.,
          0., 0., 0., 0., 5.46448072e-003, 0., 0., 0., 0., 0., 0., 0.,
          0., 0., 0., 1.09289614e-002, 5.46448072e-003, 0., 0., 0.,
          5.46448072e-003, 0., 1.09289614e-002, 0., 0., 0., 0., 0., 0.,
          0., 0., 0., 0., 0., 0., 0., 0., 0., 0., 0., 0., 0., 0., 0., 0.,
          0., 0., 0., 0., 0., 0., 0., 0., 0., 0., 0., 0., 0., 0., 0., 0.,
          0., 0., 0., 0., 0., 0., 0., 0., 0., 0., 0., 5.46448072e-003,
          0., 0., 0., 0., 0., 0., 0., 0., 0., 0., 0., 0., 0., 0., 0., 0.,
          5.46448072e-003, 0., 0., 0., 0., 0., 0., 0., 1.09289614e-002,
          0., 0., 0., 5.46448072e-003, 0., 0., 0., 0., 0., 0., 0., 0.,
          5.46448072e-003, 0., 0., 0., 0., 0., 0., 0., 0., 0., 0., 0.,
          0., 0., 0., 0., 0., 0., 0., 0., 5.46448072e-003, 0., 0., 0.,
          0., 0., 0., 0., 0., 0., 0., 0., 1.09289614e-002, 0., 0., 0.,
          0., 0., 0., 0., 0., 0., 0., 0., 0., 0., 0., 0., 0., 0., 0., 0.,
          0., 0., 0., 0., 0., 0., 0., 0., 0., 1.63934417e-002, 0., 0.,
          5.46448072e-003, 0., 0., 0., 0., 0., 0., 0., 0., 0., 0., 0.,
          0., 5.46448072e-003, 0., 0., 0., 0., 5.46448072e-003, 0., 0.,
          0., 0., 0., 0., 0., 0., 0., 0., 0., 0., 0., 0., 0., 0., 0., 0.,
          5.46448072e-003, 0., 0., 0., 0., 0., 0., 0., 0., 0., 0., 0.,
          0., 0., 0., 0., 0., 0., 0., 0., 0., 0., 0., 0., 0., 0., 0., 0.,
          0., 0., 0., 0., 0., 0., 0., 0., 0., 0., 0., 0., 0., 0., 0., 0.,
          0., 0., 0., 0., 0., 0., 0., 0., 0., 0., 0., 0., 0., 0., 0., 0.,
          0., 0., 0., 0., 0., 0., 0., 0., 0., 0., 0., 0., 0., 0., 0., 0.,
          0., 0., 0., 0., 0., 0., 0., 0., 0., 0., 0., 0., 0., 0., 0., 0.,
          0., 0., 0., 0., 0., 0., 0., 0., 0., 5.46448072e-003, 0., 0.,
          0., 0., 0., 0., 0., 0., 5.46448072e-003, 0., 0., 0., 0., 0.,
          0., 0., 0., 0., 5.46448072e-003, 0., 0., 5.46448072e-003, 0.,
          0., 0., 0., 0., 0., 0., 0., 5.46448072e-003, 0., 0.,
          1.09289614e-002, 0., 0., 0., 0., 0., 0., 0., 0., 0., 0., 0.,
          0., 0., 0., 0., 0., 0., 0., 0., 0., 0., 0., 0., 0., 0., 0., 0.,
          0., 0., 0., 0., 0., 0., 0., 0., 0., 0., 0., 0., 0., 0., 0., 0.,
          0., 0., 0., 0., 0., 0., 0., 0., 1.63934417e-002, 0., 0., 0.,
          0., 0., 0., 0., 0., 0., 0., 0., 0., 0., 0., 0., 0., 0., 0., 0.,
          0., 0., 0., 0., 0., 5.46448072e-003, 0., 0., 0., 0., 0., 0.,
          0., 0., 0., 0., 0., 0., 0., 0., 0., 0., 0., 0., 0., 0., 0., 0.,
          0., 0., 5.46448072e-003, 0., 0., 0., 0., 0., 0., 0., 0., 0.,
          0., 0., 0., 0., 0., 0., 0., 0., 0., 0., 0., 0., 0., 0., 0., 0.,
          0., 0., 0., 0., 0., 0., 0., 0., 0., 0., 0., 0., 0., 0.,
          5.46448072e-003, 0., 0., 0., 0., 0., 0., 0., 5.46448072e-003,
          0., 0., 0., 0., 0., 0., 0., 0., 0., 0., 0., 0., 0.,
          5.46448072e-003, 0., 5.46448072e-003, 0., 0. ]
      - [ 1.77935942e-003, 0., 1.77935942e-003, 0., 0., 1.77935942e-003,
          0., 0., 0., 0., 1.77935942e-003, 0., 0., 0., 0., 0.,
          1.77935942e-003, 0., 0., 0., 0., 3.55871883e-003, 0., 0., 0.,
          7.11743766e-003, 0., 0., 1.77935942e-003, 0., 1.77935942e-003,
          1.77935942e-003, 5.33807836e-003, 0., 0., 5.33807836e-003, 0.,
          1.77935942e-003, 0., 7.11743766e-003, 0., 0., 0., 0., 0., 0.,
          0., 1.42348753e-002, 0., 0., 1.77935942e-003, 0., 0., 0., 0.,
          0., 0., 0., 0., 5.33807836e-003, 1.77935942e-003,
          1.77935939e-002, 0., 0., 2.13523135e-002, 0., 3.55871883e-003,
          0., 0., 0., 0., 0., 0., 0., 0., 0., 1.77935942e-003, 0., 0.,
          1.77935942e-003, 0., 0., 1.77935942e-003, 1.77935942e-003, 0.,
          5.33807836e-003, 0., 0., 0., 3.55871883e-003, 0., 0.,
          1.77935942e-003, 0., 0., 0., 1.24555156e-002, 0., 0., 0., 0.,
          0., 1.77935942e-003, 0., 0., 0., 0., 1.77935942e-003, 0., 0.,
          0., 0., 0., 0., 0., 0., 0., 0., 0., 0., 1.77935942e-003, 0.,
          0., 1.06761567e-002, 0., 0., 0., 0., 0., 0., 5.33807836e-003,
          0., 0., 0., 3.55871883e-003, 1.06761567e-002, 0., 0., 0., 0.,
          0., 0., 0., 0., 0., 0., 0., 0., 0., 0., 0., 0., 0., 0., 0.,
          5.33807836e-003, 0., 0., 0., 1.77935942e-003, 0., 0., 0., 0.,
          0., 0., 3.55871883e-003, 0., 0., 0., 0., 0., 0., 0., 0., 0.,
          0., 0., 0., 0., 0., 0., 0., 1.77935942e-003, 0.,
          1.06761567e-002, 0., 0., 0., 0., 1.77935942e-003,
          1.60142351e-002, 0., 0., 0., 0., 0., 0., 5.33807836e-003, 0.,
          0., 0., 0., 0., 0., 0., 0., 0., 1.77935942e-003, 0., 0., 0.,
          0., 0., 1.77935942e-003, 0., 0., 0., 0., 3.55871883e-003,
          5.33807836e-003, 0., 0., 0., 0., 7.11743766e-003, 0., 0., 0.,
          0., 0., 0., 0., 5.33807836e-003, 0., 0., 1.77935942e-003, 0.,
          0., 0., 0., 0., 0., 0., 1.77935942e-003, 0., 0., 0., 0., 0.,
          1.77935942e-003, 0., 0., 0., 0., 0., 0., 1.77935942e-003, 0.,
          0., 0., 5.33807836e-003, 1.77935942e-003, 0., 0., 0., 0., 0.,
          1.77935942e-003, 0., 1.77935942e-003, 0., 0., 8.89679696e-003,
          1.77935942e-003, 0., 0., 0., 0., 0., 1.77935942e-003, 0., 0.,
          0., 0., 0., 0., 0., 0., 0., 1.77935942e-003, 3.55871883e-003,
          0., 0., 0., 0., 0., 0., 0., 7.11743766e-003, 0., 0.,
          1.77935942e-003, 0., 0., 0., 0., 0., 0., 0., 0.,
          5.33807836e-003, 0., 0., 0., 0., 0., 0., 0., 0.,
          1.77935942e-003, 0., 0., 0., 3.55871883e-003, 0., 0., 0.,
          1.77935942e-003, 0., 0., 0., 0., 0., 3.55871883e-003, 0., 0.,
          0., 1.77935942e-003, 0., 0., 0., 0., 1.77935942e-003, 0., 0.,
          0., 0., 0., 0., 0., 0., 0., 1.24555156e-002, 0., 0.,
          1.77935942e-003, 0., 0., 0., 0., 0., 0., 3.55871883e-003, 0.,
          0., 1.77935942e-003, 1.77935942e-003, 0., 0., 0., 0., 0.,
          1.77935942e-003, 0., 1.77935942e-003, 0., 1.77935942e-003, 0.,
          0., 0., 0., 0., 0., 0., 0., 3.55871883e-003, 0., 0., 0., 0.,
          1.77935942e-003, 0., 0., 1.77935942e-003, 0., 0., 0., 0., 0.,
          3.55871883e-003, 0., 0., 1.77935942e-003, 0., 0.,
          1.77935942e-003, 0., 0., 0., 0., 0., 0., 1.06761567e-002, 0.,
          0., 1.77935942e-003, 0., 0., 0., 1.77935942e-003, 0., 0.,
          1.77935942e-003, 0., 0., 3.55871883e-003, 0., 0.,
          3.55871883e-003, 0., 0., 0., 0., 0., 0., 0., 1.77935942e-003,
          1.77935942e-003, 0., 0., 0., 0., 0., 0., 0., 0., 0., 0.,
          3.55871883e-003, 1.77935942e-003, 1.77935942e-003, 0., 0., 0.,
          0., 0., 3.55871883e-003, 0., 0., 0., 0., 0., 0., 0.,
          3.55871883e-003, 1.77935942e-003, 0., 0., 0., 0., 0., 0., 0.,
          0., 0., 0., 0., 1.77935942e-003, 1.77935942e-003, 0.,
          3.55871883e-003, 0., 0., 1.77935942e-003, 0., 0., 0.,
          1.77935942e-003, 0., 0., 0., 1.77935942e-003, 1.77935942e-003,
          0., 0., 0., 0., 1.77935942e-003, 1.77935942e-003, 0., 0.,
          3.55871883e-003, 0., 0., 0., 1.77935942e-003, 3.55871883e-003,
          0., 0., 0., 0., 3.55871883e-003, 0., 0., 0., 0., 0.,
          1.77935942e-003, 0., 1.77935942e-003, 1.77935942e-003, 0., 0.,
          0., 5.33807836e-003, 0., 0., 0., 0., 0., 1.77935942e-003, 0.,
          0., 0., 0., 0., 0., 0., 0., 0., 0., 0., 0., 0., 0.,
          5.33807836e-003, 0., 0., 0., 0., 0., 0., 0., 1.77935942e-003,
          1.77935942e-003, 5.33807836e-003, 0., 0., 0., 0., 0., 0., 0.,
          8.89679696e-003, 0., 0., 0., 0., 5.33807836e-003,
          5.33807836e-003, 0., 0., 0., 0., 0., 0., 1.77935942e-003, 0.,
          0., 0., 0., 0., 1.77935942e-003, 0., 0., 0., 1.77935942e-003,
          0., 0., 0., 0., 1.77935942e-003, 0., 0., 0., 0.,
          8.89679696e-003, 1.77935942e-003, 0., 0., 0., 0., 0., 0.,
          3.55871883e-003, 0., 0., 0., 0., 1.77935942e-003,
          1.77935942e-003, 0., 0., 0., 0., 0., 0., 0., 0., 0.,
          1.77935942e-003, 0., 0., 1.77935942e-003, 0., 0., 0.,
          1.77935942e-003, 0., 0., 0., 0., 0., 5.33807836e-003, 0., 0.,
          0., 0., 0., 0., 0., 1.77935942e-003, 1.77935942e-003,
          1.77935942e-003, 0., 0., 0., 0., 0., 1.77935942e-003, 0., 0.,
          0., 0., 0., 0., 0., 0., 0., 0., 0., 1.77935942e-003, 0., 0.,
          0., 3.55871883e-003, 0., 0., 0., 0., 0., 0., 0., 0., 0., 0.,
          0., 0., 0., 1.77935942e-003, 0., 0., 1.77935942e-003, 0., 0.,
          0., 0., 1.77935942e-003, 0., 0., 0., 1.77935942e-003, 0., 0.,
          0., 0., 1.77935942e-003, 0., 2.66903918e-002, 0., 0., 0., 0.,
          0., 3.55871883e-003, 8.89679696e-003, 3.55871883e-003, 0., 0.,
          0., 0., 0., 0., 0., 0., 0., 0., 0., 0., 0., 0.,
          3.55871883e-003, 0., 0., 0., 0., 1.77935942e-003, 0., 0., 0.,
          0., 0., 0., 1.77935942e-003, 0., 0., 1.77935942e-003, 0., 0.,
          0., 0., 0., 0., 0., 0., 0., 0., 1.77935942e-003, 0., 0., 0.,
          0., 0., 0., 3.55871883e-003, 0., 0., 0., 1.77935942e-003, 0.,
          0., 0., 0., 0., 0., 0., 0., 0., 1.77935942e-003, 0., 0.,
          1.77935942e-003, 0., 0., 0., 0., 1.77935942e-003, 0., 0.,
          1.77935942e-003, 3.55871883e-003, 0., 1.77935942e-003, 0., 0.,
          0., 0., 0., 0., 0., 0., 1.77935942e-003, 0., 0., 0., 0., 0.,
          0., 0., 0., 0., 0., 1.77935942e-003, 0., 0., 1.77935942e-003,
          0., 1.77935942e-003, 1.77935942e-003, 7.11743766e-003, 0.,
          3.55871883e-003, 1.77935942e-003, 0., 3.55871883e-003, 0.,
          1.77935942e-003, 0., 1.77935942e-003, 3.55871883e-003, 0., 0.,
          0., 0., 0., 0., 0., 0., 1.77935942e-003, 3.55871883e-003, 0.,
          0., 0., 0., 0., 0., 0., 0., 0., 0., 0., 0., 0., 0., 0., 0., 0.,
          0., 0., 0., 0., 0., 0., 0., 0., 0., 1.77935942e-003, 0., 0.,
          0., 0., 0., 0., 0., 0., 0., 0., 0., 0., 0., 0., 0., 0., 0., 0.,
          0., 0., 3.55871883e-003, 0., 0., 0., 0., 1.77935942e-003,
          2.13523135e-002, 0., 7.11743766e-003, 0., 0., 0., 0., 0., 0.,
          0., 0., 0., 0., 0., 1.77935942e-003, 0., 0., 0., 0., 0., 0.,
          0., 0., 0., 0., 0., 0., 0., 0., 0., 1.77935942e-003, 0., 0.,
          0., 0., 0., 0., 0., 0., 0., 0., 0., 0., 0., 0.,
          1.77935942e-003, 0., 0., 0., 0., 1.77935942e-003, 0., 0., 0.,
          0., 0., 0., 0., 0., 0., 0., 0., 1.60142351e-002,
          1.77935942e-003, 0., 1.77935942e-003, 0., 0., 0., 0., 0., 0.,
          0., 0., 1.77935942e-003, 0., 0., 0., 7.11743766e-003, 0., 0.,
          0., 0., 0., 0., 0., 0., 0., 0., 3.55871883e-003, 0., 0., 0.,
          0., 0., 0., 0., 0., 1.24555156e-002, 0., 0., 0., 0., 0., 0.,
          0., 1.77935942e-003, 1.77935942e-003, 0., 0., 0., 0., 0., 0.,
          0., 0., 3.55871883e-003, 0., 0., 0., 0., 0., 0.,
          5.33807836e-003, 1.77935942e-003, 0., 0., 0., 1.77935942e-003,
          0., 0., 0., 1.77935942e-003, 0., 0., 0., 0., 0., 0., 0., 0.,
          0., 0., 0., 1.77935942e-003, 0., 1.77935942e-003,
          1.77935942e-003, 0., 0., 0., 0., 0., 0., 0., 0., 0., 0., 0.,
          0., 0., 0., 0., 0., 0., 1.77935942e-003, 0., 1.77935942e-003,
          0., 0., 0., 1.60142351e-002, 0., 0., 0., 0., 0., 0., 0.,
          1.77935942e-003, 0., 0., 0., 1.77935942e-003, 0., 0., 0., 0.,
          0., 0., 0., 0., 0., 1.77935942e-003, 0., 0., 0., 0., 0., 0.,
          0., 0., 1.77935942e-003, 0., 1.77935942e-003, 7.11743766e-003,
          0., 3.55871883e-003, 1.77935942e-003, 0., 0., 1.77935942e-003,
          0., 1.77935942e-003, 0., 0., 7.11743766e-003, 0.,
          1.77935942e-003, 0., 0., 0., 1.77935942e-003, 0., 0., 0., 0.,
          0., 0., 0., 1.77935942e-003, 0., 0., 0., 0., 0.,
          1.77935942e-003, 0., 0., 1.77935942e-003, 1.77935942e-003, 0.,
          0., 0., 0., 0., 0., 0., 0., 0., 0., 0., 0., 0.,
          1.77935942e-003, 1.77935942e-003, 0., 0., 0., 0., 0., 0.,
          1.77935942e-003, 0., 0., 0., 0., 3.55871883e-003, 0., 0., 0.,
          0., 0., 0., 0., 0., 0., 0., 1.77935942e-003, 0., 0., 0., 0.,
          0., 0., 0., 0., 0., 0., 0., 3.55871883e-003, 1.77935942e-003,
          0., 0., 0., 0., 1.77935942e-003, 0., 0., 0., 0., 0., 0., 0.,
          0., 0., 0., 0., 0., 0., 0., 0., 0., 0., 0., 0.,
          1.60142351e-002, 0., 0., 0., 0., 0., 0., 0., 0., 0., 0., 0.,
          3.55871883e-003, 1.77935942e-003, 1.77935942e-003,
          1.77935942e-003, 1.77935942e-003, 0., 1.77935942e-003, 0., 0.,
          0., 0., 0., 0., 0., 0., 3.55871883e-003, 0., 0., 0., 0., 0.,
          1.77935942e-003, 0., 0., 0., 0., 0., 0., 0., 1.77935942e-003,
          1.77935942e-003, 0., 0., 1.77935942e-003, 1.77935942e-003, 0.,
          0., 0., 0., 0., 0., 0., 0., 0., 5.33807836e-003, 0., 0.,
          1.77935942e-003, 0., 0., 1.77935942e-003, 0., 0., 0., 0., 0.,
          0., 0., 0., 1.77935942e-003, 0., 0., 0., 0., 0., 0., 0., 0.,
          0., 1.77935942e-003, 0., 0., 1.77935942e-003, 0., 0., 0.,
          3.55871883e-003, 1.77935942e-003, 0., 0., 0., 0., 0.,
          7.11743766e-003, 1.77935942e-003, 0., 0., 0., 0., 0., 0., 0.,
          0., 1.77935942e-003, 1.77935942e-003, 0., 0., 0., 0., 0., 0.,
          0., 0., 0., 0., 0., 0., 0., 0., 0., 0., 0., 0., 0.,
          1.77935942e-003, 0., 1.77935942e-003, 0., 0., 1.77935942e-003,
          0., 0., 0., 0., 0., 0., 8.89679696e-003, 0., 0., 0., 0., 0.,
          1.77935942e-003, 0., 0., 0., 0., 0., 0., 0., 1.77935942e-003,
          1.06761567e-002, 0., 3.55871883e-003, 0., 0., 0.,
          1.77935942e-003, 0., 0., 1.77935942e-003, 1.77935942e-003, 0.,
          0., 0., 0., 0., 0., 0., 0., 0., 0., 0., 0., 0., 0., 0., 0., 0.,
          5.33807836e-003, 0., 0., 0., 0., 0., 0., 3.55871883e-003, 0.,
          0., 0., 0., 0., 1.77935942e-003, 0., 0., 0., 0.,
          5.33807836e-003, 0., 0., 0., 1.77935942e-003, 0., 0., 0., 0.,
          0., 0., 0., 0., 0., 0., 0., 0., 0., 0., 0., 0., 0., 0., 0., 0.,
          0., 0., 0., 0., 5.33807836e-003, 1.77935942e-003, 0., 0., 0.,
          0., 3.55871883e-003, 1.77935942e-003, 3.55871883e-003,
          3.55871883e-003, 0., 0., 0., 0., 0., 0., 0., 0., 0., 0., 0.,
          0., 0., 0., 0., 3.55871883e-003, 0., 0., 0., 0., 0., 0., 0.,
          0., 0., 0., 0., 0., 0., 0., 0., 0., 1.77935942e-003, 0., 0.,
          0., 0., 1.77935942e-003, 0., 0., 0., 0., 0., 0., 0.,
          1.77935942e-003, 1.06761567e-002, 1.77935942e-003, 0., 0.,
          1.77935942e-003, 0., 0., 0., 0., 0., 0., 0., 0., 0.,
          1.77935942e-003, 0. ]
      - [ 0., 0., 3.39558581e-003, 0., 0., 0., 1.69779290e-003, 0., 0.,
          1.69779290e-003, 5.09337895e-003, 0., 1.69779290e-003, 0.,
          1.69779290e-003, 0., 3.39558581e-003, 0., 0., 0., 0., 0., 0.,
          1.69779290e-003, 0., 1.69779290e-003, 0., 1.69779290e-003, 0.,
          0., 0., 3.39558581e-003, 0., 0., 0., 0., 1.69779290e-003, 0.,
          0., 3.39558581e-003, 0., 0., 0., 1.69779290e-003, 0., 0., 0.,
          6.79117162e-003, 0., 1.69779290e-003, 0., 0., 0., 0.,
          3.39558581e-003, 0., 0., 0., 1.69779290e-003, 6.79117162e-003,
          0., 0., 1.69779290e-003, 1.69779290e-003, 5.09337895e-003,
          3.39558581e-003, 0., 1.69779290e-003, 1.69779290e-003, 0., 0.,
          0., 0., 3.39558581e-003, 0., 0., 1.69779290e-003, 0.,
          1.69779290e-003, 0., 3.39558581e-003, 1.69779290e-003, 0., 0.,
          0., 5.09337895e-003, 0., 1.69779290e-003, 1.69779290e-003,
          3.39558581e-003, 0., 3.39558581e-003, 0., 1.69779290e-003, 0.,
          0., 1.69779290e-003, 0., 0., 0., 0., 0., 0., 0., 0.,
          5.09337895e-003, 0., 0., 0., 0., 0., 0., 0., 0., 0., 0.,
          1.69779290e-003, 0., 1.69779290e-003, 6.79117162e-003, 0., 0.,
          1.69779290e-003, 0., 0., 0., 0., 1.69779290e-003,
          1.69779290e-003, 0., 5.09337895e-003, 0., 0., 1.69779290e-003,
          0., 0., 0., 1.69779290e-003, 1.69779290e-003, 0., 0., 0., 0.,
          0., 0., 1.69779290e-003, 1.69779290e-003, 0., 0.,
          1.69779290e-003, 0., 0., 0., 0., 1.69779290e-003, 0., 0.,
          1.69779290e-003, 0., 0., 0., 1.69779290e-003, 0.,
          1.69779290e-003, 0., 1.69779290e-003, 0., 1.69779290e-003, 0.,
          1.69779290e-003, 0., 0., 0., 0., 0., 3.39558581e-003,
          1.69779290e-003, 0., 5.09337895e-003, 0., 0., 0., 0., 0.,
          1.69779290e-003, 0., 0., 0., 1.69779290e-003, 0., 0.,
          5.09337895e-003, 0., 1.69779290e-003, 0., 1.69779290e-003,
          1.69779290e-003, 0., 0., 1.69779290e-003, 0., 0.,
          1.69779290e-003, 0., 0., 0., 0., 3.39558581e-003, 0.,
          1.69779290e-003, 3.39558581e-003, 5.09337895e-003,
          1.69779290e-003, 0., 3.39558581e-003, 0., 0., 0., 0., 0.,
          1.69779290e-003, 1.69779290e-003, 0., 3.39558581e-003, 0.,
          1.69779290e-003, 0., 0., 0., 0., 1.69779290e-003, 0., 0., 0.,
          0., 0., 0., 0., 1.69779290e-003, 1.69779290e-003,
          1.69779290e-003, 1.69779290e-003, 3.39558581e-003, 0., 0.,
          3.39558581e-003, 1.69779290e-003, 0., 0., 1.69779290e-003,
          1.69779290e-003, 1.69779290e-003, 0., 5.09337895e-003, 0., 0.,
          0., 0., 0., 1.69779290e-003, 0., 0., 8.48896429e-003, 0.,
          1.69779290e-003, 0., 0., 0., 0., 3.39558581e-003,
          1.69779290e-003, 0., 0., 0., 0., 0., 0., 0., 1.69779290e-003,
          0., 0., 0., 0., 0., 0., 5.09337895e-003, 0., 3.39558581e-003,
          0., 0., 1.69779290e-003, 0., 0., 0., 0., 0., 1.69779290e-003,
          0., 0., 3.39558581e-003, 0., 0., 3.39558581e-003, 0., 0., 0.,
          0., 0., 0., 0., 0., 0., 1.69779290e-003, 0., 0., 0., 0., 0.,
          1.69779290e-003, 0., 3.39558581e-003, 0., 0., 0.,
          3.39558581e-003, 0., 0., 1.69779290e-003, 1.69779290e-003, 0.,
          0., 0., 3.39558581e-003, 0., 0., 0., 3.39558581e-003, 0., 0.,
          0., 0., 1.69779290e-003, 1.69779290e-003, 0., 1.69779290e-003,
          0., 0., 0., 0., 0., 0., 1.69779290e-003, 0., 1.18845506e-002,
          0., 0., 0., 0., 0., 0., 1.69779290e-003, 0., 0.,
          1.35823432e-002, 0., 0., 0., 0., 0., 0., 0., 0., 0., 0., 0.,
          0., 0., 0., 0., 3.39558581e-003, 0., 0., 0., 0., 0., 0., 0.,
          0., 0., 0., 0., 0., 0., 0., 0., 0., 0., 0., 0.,
          5.09337895e-003, 0., 0., 5.09337895e-003, 0., 0., 0.,
          1.18845506e-002, 0., 0., 0., 0., 0., 0., 0., 0.,
          1.69779290e-003, 0., 0., 0., 0., 1.69779290e-003, 0., 0., 0.,
          1.69779290e-003, 1.69779290e-003, 0., 0., 0., 0., 0., 0., 0.,
          0., 0., 0., 1.69779290e-003, 0., 1.69779290e-003, 0.,
          1.69779290e-003, 3.39558581e-003, 6.79117162e-003, 0., 0.,
          3.39558581e-003, 0., 1.69779290e-003, 1.69779290e-003,
          6.79117162e-003, 1.69779290e-003, 0., 0., 1.69779290e-003, 0.,
          1.69779290e-003, 0., 1.69779290e-003, 0., 0., 3.39558581e-003,
          0., 0., 0., 0., 0., 0., 0., 0., 1.69779290e-003, 0., 0.,
          1.69779290e-003, 3.39558581e-003, 0., 0., 0., 0., 0., 0., 0.,
          5.09337895e-003, 0., 1.69779290e-003, 0., 0., 0., 0.,
          1.69779290e-003, 0., 0., 0., 0., 1.69779290e-003, 0., 0., 0.,
          1.69779290e-003, 0., 0., 0., 0., 0., 0., 1.69779290e-003, 0.,
          0., 0., 0., 0., 0., 0., 0., 0., 0., 0., 0., 1.69779290e-003,
          0., 0., 3.39558581e-003, 0., 0., 0., 0., 1.69779290e-003, 0.,
          0., 0., 0., 0., 1.69779290e-003, 3.39558581e-003, 0.,
          5.09337895e-003, 0., 3.39558581e-003, 0., 0., 0., 0., 0.,
          1.69779290e-003, 0., 0., 0., 3.39558581e-003, 0., 0., 0., 0.,
          1.69779290e-003, 0., 1.69779290e-003, 0., 0., 1.69779290e-003,
          1.69779290e-003, 1.69779290e-003, 0., 0., 0., 0., 0., 0., 0.,
          1.69779290e-003, 0., 0., 0., 3.39558581e-003, 0., 0.,
          1.69779290e-003, 0., 0., 0., 0., 0., 0., 0., 0., 0., 0.,
          1.69779290e-003, 0., 0., 6.79117162e-003, 0., 3.39558581e-003,
          0., 0., 3.39558581e-003, 0., 0., 0., 3.39558581e-003,
          3.39558581e-003, 3.39558581e-003, 0., 0., 0., 0., 0.,
          1.69779290e-003, 0., 1.69779290e-003, 0., 3.39558581e-003, 0.,
          0., 1.69779290e-003, 0., 0., 0., 0., 0., 0., 0., 0.,
          1.69779290e-003, 0., 0., 0., 1.69779290e-003, 0., 0., 0.,
          1.01867579e-002, 0., 0., 0., 0., 0., 0., 0., 0., 0., 0., 0.,
          0., 0., 0., 0., 1.69779290e-003, 0., 0., 0., 1.69779290e-003,
          1.69779290e-003, 0., 0., 0., 0., 0., 3.39558581e-003,
          1.69779290e-003, 0., 0., 3.39558581e-003, 0., 0., 0., 0., 0.,
          0., 1.69779290e-003, 0., 0., 0., 0., 0., 0., 0., 0., 0.,
          1.69779290e-003, 0., 0., 0., 0., 0., 1.69779290e-003, 0., 0.,
          0., 0., 0., 5.09337895e-003, 0., 0., 0., 0., 0.,
          1.69779290e-003, 0., 0., 3.39558581e-003, 0., 5.09337895e-003,
          0., 0., 0., 8.48896429e-003, 0., 0., 1.69779290e-003, 0., 0.,
          0., 5.09337895e-003, 0., 0., 0., 0., 0., 0., 0., 0., 0., 0.,
          0., 0., 0., 0., 0., 1.69779290e-003, 0., 3.39558581e-003, 0.,
          0., 1.69779290e-003, 0., 0., 0., 0., 1.69779290e-003, 0., 0.,
          0., 0., 0., 0., 1.69779290e-003, 0., 3.39558581e-003, 0., 0.,
          0., 0., 6.79117162e-003, 1.69779290e-003, 0., 0., 0., 0., 0.,
          0., 0., 0., 0., 0., 0., 0., 0., 0., 0., 0., 0., 0., 0., 0.,
          1.69779290e-003, 0., 0., 0., 0., 0., 0., 0., 0., 0.,
          1.69779290e-003, 0., 1.69779290e-003, 0., 0., 0., 0., 0., 0.,
          0., 1.69779290e-003, 0., 0., 0., 0., 0., 0., 0., 0., 0., 0.,
          3.39558581e-003, 0., 1.69779290e-003, 0., 0., 0., 0.,
          5.09337895e-003, 0., 0., 1.69779290e-003, 0., 0.,
          3.39558581e-003, 0., 3.39558581e-003, 0., 0., 0.,
          1.69779290e-003, 0., 5.09337895e-003, 0., 0., 3.39558581e-003,
          0., 0., 0., 3.39558581e-003, 1.69779290e-003, 0.,
          1.69779290e-003, 0., 0., 0., 0., 0., 0., 0., 0., 0., 0., 0.,
          0., 3.39558581e-003, 0., 0., 0., 0., 0., 3.39558581e-003, 0.,
          1.69779290e-003, 1.69779290e-003, 0., 1.69779290e-003,
          1.69779290e-003, 0., 0., 0., 0., 0., 0., 0., 0., 0., 0., 0.,
          0., 0., 0., 0., 0., 0., 0., 0., 0., 0., 0., 0., 0.,
          1.69779290e-003, 0., 0., 0., 1.69779290e-003, 0., 0., 0., 0.,
          0., 1.69779290e-003, 0., 0., 0., 0., 0., 0., 0., 0., 0., 0.,
          0., 0., 0., 0., 0., 3.39558581e-003, 3.39558581e-003,
          1.69779290e-003, 0., 0., 0., 0., 0., 0., 0., 0., 0., 0., 0.,
          0., 0., 0., 0., 0., 0., 0., 0., 0., 3.39558581e-003, 0., 0.,
          0., 0., 0., 1.69779290e-003, 0., 0., 0., 0., 0.,
          1.69779290e-003, 0., 0., 0., 0., 0., 1.69779290e-003, 0., 0.,
          0., 1.69779290e-003, 0., 0., 0., 0., 0., 0., 1.01867579e-002,
          0., 1.69779290e-003, 0., 0., 0., 0., 1.69779290e-003, 0.,
          1.01867579e-002, 0., 3.39558581e-003, 0., 3.39558581e-003,
          1.69779290e-003, 0., 0., 0., 1.69779290e-003, 0., 0., 0., 0.,
          0., 1.69779290e-003, 0., 0., 0., 3.39558581e-003,
          1.69779290e-003, 0., 0., 0., 0., 0., 0., 0., 0.,
          3.39558581e-003, 0., 0., 0., 0., 0., 3.39558581e-003, 0., 0.,
          0., 0., 0., 0., 1.69779290e-003, 0., 0., 1.69779290e-003, 0.,
          0., 0., 0., 0., 0., 0., 0., 0., 0., 1.69779290e-003,
          3.39558581e-003, 0., 0., 0., 0., 0., 0., 0., 0., 0., 0., 0.,
          0., 0., 0., 0., 0., 0., 0., 0., 1.69779290e-003,
          8.48896429e-003, 1.69779290e-003, 0., 0., 0., 0., 0., 0., 0.,
          0., 0., 0., 0., 0., 0., 0., 0., 1.01867579e-002, 0., 0., 0.,
          0., 0., 0., 0., 1.69779290e-003, 0., 0., 0., 0., 0.,
          1.69779290e-003, 0., 0., 0., 0., 0., 0., 0., 0., 0.,
          3.39558581e-003, 0., 1.69779290e-003, 0., 1.69779290e-003,
          5.09337895e-003, 1.69779290e-003, 6.79117162e-003, 0., 0.,
          5.09337895e-003, 3.39558581e-003, 0., 0., 0., 0., 0., 0., 0.,
          0., 0., 0., 0., 0., 1.69779290e-003, 1.69779290e-003,
          3.39558581e-003, 0., 0., 1.69779290e-003, 0., 0., 0., 0., 0.,
          0., 1.69779290e-003, 1.69779290e-003, 1.69779290e-003, 0., 0.,
          0., 0., 0., 0., 0., 0., 1.69779290e-003, 0., 0., 0., 0., 0.,
          0., 1.69779290e-003, 0., 0., 0., 0., 0., 1.69779290e-003, 0.,
          1.69779290e-003, 0., 0., 1.35823432e-002, 0., 0., 0.,
          1.69779290e-003, 0., 0., 1.69779290e-003, 0., 0., 0., 0., 0.,
          0., 0., 0., 0., 0., 0., 1.69779290e-003, 0., 0.,
          1.69779290e-003, 0., 0., 0., 0., 1.69779290e-003, 0., 0., 0.,
          0., 0., 0., 0., 0., 0., 0., 0., 0., 0., 5.09337895e-003, 0.,
          0., 0., 0., 1.69779290e-003, 0., 0., 0., 0., 1.69779290e-003,
          0., 1.69779290e-003, 0., 0., 0., 0., 0., 3.39558581e-003,
          1.69779286e-002, 0., 0., 0., 1.69779290e-003, 3.39558581e-003,
          0., 0., 0., 0., 0., 0., 0., 0., 0., 0., 0., 0., 0.,
          1.69779290e-003, 0., 1.69779290e-003, 0., 0., 0., 0., 0., 0.,
          0., 0., 0., 0., 0., 0., 0., 0., 0., 0., 8.48896429e-003, 0.,
          0., 0., 0., 0., 0., 0., 0., 0., 0., 0., 1.69779290e-003, 0.,
          0., 0., 0., 0., 1.69779290e-003, 0., 1.69779290e-003, 0., 0.,
          1.69779290e-003, 3.39558581e-003, 0., 3.39558581e-003, 0., 0.,
          0., 0., 1.69779290e-003, 0., 0., 0., 5.09337895e-003, 0., 0.,
          0., 0., 0., 1.69779290e-003, 0., 0., 0., 1.69779290e-003, 0.,
          0., 0., 0., 0., 0., 0., 1.69779290e-003, 0., 1.69779290e-003,
          0., 0., 0., 0., 1.69779290e-003, 0., 0., 1.69779290e-003,
          6.79117162e-003, 0., 0., 1.69779290e-003, 0., 0., 0., 0., 0.,
          0., 0., 0., 1.69779290e-003, 0., 3.39558581e-003, 0., 0., 0.,
          1.69779290e-003, 1.69779290e-003, 0., 1.01867579e-002, 0., 0.,
          0., 0., 0., 0., 0., 0., 0., 0., 0., 0., 0., 0.,
          1.69779290e-003, 0., 0., 0., 3.39558581e-003, 3.39558581e-003,
          0., 0., 0., 1.69779290e-003, 0., 0., 0., 0., 0., 0., 0., 0.,
          0., 0., 0., 0., 0., 0., 0., 0., 0., 0., 1.01867579e-002, 0.,
          1.69779290e-003, 0., 0., 1.69779290e-003, 0., 0., 0., 0., 0.,
          1.69779290e-003, 0., 0., 0., 0., 0., 0., 1.69779290e-003, 0.,
          0., 0., 6.79117162e-003, 0., 0., 0., 0., 0., 0.,
          1.69779290e-003, 0., 1.69779290e-003, 0., 0., 0., 0., 0., 0.,
          0., 3.39558581e-003, 0., 6.79117162e-003, 0., 5.09337895e-003,
          0., 0., 0., 0., 0., 0., 0., 0., 3.39558581e-003,
          1.69779290e-003, 0., 0., 8.48896429e-003, 0., 0., 0., 0., 0.,
          0., 0., 0., 0., 0., 0., 0., 0., 0., 0., 3.39558581e-003,
          1.69779290e-003, 0., 0., 0., 0., 1.69779290e-003, 0., 0., 0.,
          0., 0., 0., 0., 0., 1.69779290e-003, 0., 0., 0., 0., 0., 0.,
          0., 0., 0., 0., 0., 0., 0., 0., 5.09337895e-003,
          1.69779290e-003, 0., 0., 0., 1.69779290e-003, 0., 0.,
          3.39558581e-003, 0., 3.39558581e-003, 0., 0., 0., 0., 0., 0. ]
      - [ 0., 0., 7.19424477e-003, 1.07913669e-002, 0., 0., 0., 0., 0.,
          3.59712238e-003, 3.59712238e-003, 0., 0., 0., 0., 0.,
          7.19424477e-003, 0., 0., 0., 0., 0., 3.59712238e-003, 0., 0.,
          0., 0., 0., 3.59712238e-003, 0., 0., 0., 7.19424477e-003, 0.,
          0., 0., 7.19424477e-003, 0., 0., 0., 0., 0., 0., 0., 0., 0.,
          0., 3.59712238e-003, 0., 3.59712238e-003, 0., 0., 0., 0.,
          7.19424477e-003, 0., 0., 0., 0., 0., 0., 0., 1.79856122e-002,
          3.59712238e-003, 0., 0., 3.59712238e-003, 7.19424477e-003, 0.,
          0., 0., 0., 0., 0., 0., 0., 0., 0., 0., 0., 0., 0., 0., 0.,
          3.59712238e-003, 0., 0., 0., 0., 0., 0., 0., 0., 0., 0., 0.,
          0., 0., 0., 0., 0., 0., 0., 0., 0., 0., 0., 7.19424477e-003,
          7.19424477e-003, 0., 3.59712238e-003, 0., 0., 0., 0., 0., 0.,
          0., 3.59712238e-003, 0., 0., 0., 0., 0., 0., 0., 0., 0., 0.,
          0., 0., 0., 0., 0., 0., 0., 0., 0., 3.59712238e-003, 0., 0.,
          0., 0., 0., 0., 3.59712238e-003, 0., 0., 0., 0., 0., 0., 0.,
          0., 3.59712238e-003, 7.19424477e-003, 0., 1.07913669e-002, 0.,
          0., 0., 0., 0., 0., 0., 0., 0., 0., 0., 0., 0., 0., 0., 0., 0.,
          0., 0., 0., 3.59712238e-003, 0., 0., 0., 0., 0., 0., 0., 0.,
          0., 0., 0., 0., 0., 0., 0., 0., 0., 0., 0., 0., 0., 0., 0., 0.,
          0., 0., 0., 0., 0., 0., 0., 0., 0., 0., 0., 0., 0., 0., 0., 0.,
          3.59712238e-003, 0., 3.59712238e-003, 0., 0., 0., 0., 0., 0.,
          0., 0., 3.59712238e-003, 7.19424477e-003, 0., 0., 0., 0., 0.,
          0., 0., 0., 0., 0., 0., 0., 0., 0., 0., 0., 0., 0., 0.,
          3.59712238e-003, 0., 3.59712238e-003, 0., 1.43884895e-002, 0.,
          0., 0., 0., 0., 0., 0., 0., 3.59712238e-003, 0., 0., 0., 0.,
          0., 3.59712238e-003, 0., 0., 0., 0., 0., 0., 0., 0., 0., 0.,
          0., 3.59712238e-003, 3.59712238e-003, 0., 3.59712238e-003, 0.,
          0., 0., 0., 1.07913669e-002, 0., 0., 3.59712238e-003, 0.,
          1.07913669e-002, 0., 0., 0., 0., 0., 0., 3.59712238e-003, 0.,
          0., 0., 0., 0., 0., 0., 7.19424477e-003, 0., 0., 0., 0., 0.,
          0., 0., 0., 0., 0., 0., 0., 0., 0., 0., 0., 0.,
          3.59712238e-003, 0., 0., 0., 0., 3.59712238e-003,
          3.59712238e-003, 0., 7.19424477e-003, 0., 0., 0., 0., 0., 0.,
          0., 1.07913669e-002, 0., 0., 0., 7.19424477e-003, 0., 0., 0.,
          0., 3.59712238e-003, 3.59712238e-003, 0., 0., 3.59712238e-003,
          3.59712238e-003, 0., 7.19424477e-003, 0., 0., 0., 0.,
          3.59712238e-003, 0., 3.59712238e-003, 0., 3.59712238e-003, 0.,
          0., 0., 3.59712238e-003, 0., 0., 0., 0., 0., 0., 0., 0., 0.,
          0., 0., 0., 3.59712238e-003, 0., 0., 0., 0., 0., 0., 0., 0.,
          0., 0., 0., 0., 0., 0., 0., 3.59712238e-003, 0., 0., 0., 0.,
          0., 0., 0., 0., 0., 0., 0., 0., 0., 0., 0., 0., 0., 0., 0., 0.,
          0., 0., 0., 0., 0., 0., 0., 0., 0., 0., 0., 0., 0., 0., 0., 0.,
          0., 0., 0., 3.59712238e-003, 0., 0., 0., 0., 0.,
          1.07913669e-002, 0., 3.59712238e-003, 0., 0., 7.19424477e-003,
          0., 3.59712238e-003, 3.59712238e-003, 0., 0., 0.,
          7.19424477e-003, 0., 7.19424477e-003, 0., 0., 0., 0., 0., 0.,
          0., 0., 0., 0., 0., 0., 0., 0., 0., 0., 0., 0., 0., 0., 0., 0.,
          0., 0., 0., 0., 0., 0., 0., 0., 0., 0., 0., 0., 0., 0., 0., 0.,
          0., 0., 0., 0., 0., 0., 0., 0., 0., 0., 0., 0., 0., 0., 0., 0.,
          0., 0., 0., 1.43884895e-002, 0., 7.19424477e-003, 0., 0.,
          7.19424477e-003, 0., 7.19424477e-003, 0., 0., 0., 0.,
          3.59712238e-003, 0., 0., 0., 0., 0., 0., 0., 0., 0., 0., 0.,
          0., 0., 0., 0., 0., 0., 0., 0., 0., 3.59712238e-003, 0., 0.,
          0., 0., 0., 0., 0., 0., 7.19424477e-003, 0., 0., 0., 0., 0.,
          0., 0., 0., 0., 0., 0., 0., 0., 0., 0., 0., 0., 0., 0., 0., 0.,
          0., 0., 0., 7.19424477e-003, 3.59712238e-003, 3.59712238e-003,
          0., 0., 0., 0., 0., 0., 0., 0., 0., 0., 0., 0., 0., 0., 0., 0.,
          0., 0., 0., 0., 0., 0., 0., 0., 3.59712238e-003, 0., 0., 0.,
          0., 0., 0., 0., 0., 0., 0., 2.15827338e-002, 0., 0.,
          7.19424477e-003, 0., 0., 0., 3.59712238e-003, 0., 0., 0., 0.,
          0., 0., 0., 0., 0., 3.59712238e-003, 0., 0., 0., 0., 0.,
          3.59712238e-003, 0., 0., 0., 0., 0., 0., 0., 0., 0.,
          3.59712238e-003, 0., 0., 0., 0., 7.19424477e-003, 0., 0., 0.,
          0., 0., 0., 0., 0., 0., 0., 0., 0., 3.59712238e-003,
          7.19424477e-003, 0., 0., 0., 0., 7.19424477e-003, 0., 0., 0.,
          1.07913669e-002, 0., 0., 0., 0., 0., 0., 0., 0., 0., 0., 0.,
          0., 0., 0., 0., 0., 0., 0., 0., 3.59712238e-003, 0., 0., 0.,
          3.59712238e-003, 0., 0., 0., 0., 0., 0., 0., 0., 0., 0., 0.,
          3.59712238e-003, 0., 0., 0., 7.19424477e-003, 0., 0., 0., 0.,
          0., 0., 0., 0., 0., 0., 0., 0., 0., 0., 0., 0., 0., 0., 0., 0.,
          3.59712238e-003, 0., 3.59712238e-003, 0., 0., 7.19424477e-003,
          0., 0., 0., 0., 0., 0., 0., 0., 0., 0., 0., 0., 0., 0., 0., 0.,
          0., 0., 0., 0., 0., 0., 0., 0., 0., 0., 0., 3.59712238e-003,
          0., 0., 0., 0., 0., 0., 0., 0., 0., 0., 3.59712238e-003,
          7.19424477e-003, 0., 0., 0., 0., 0., 0., 0., 0., 0., 0., 0.,
          0., 0., 0., 0., 0., 0., 1.07913669e-002, 0., 0., 0., 0., 0.,
          0., 0., 3.59712238e-003, 0., 0., 0., 0., 0., 3.59712238e-003,
          0., 0., 0., 0., 0., 7.19424477e-003, 0., 0., 0., 0., 0., 0.,
          3.59712238e-003, 0., 0., 0., 0., 0., 0., 0., 0., 0., 0., 0.,
          0., 3.59712238e-003, 0., 0., 0., 0., 0., 7.19424477e-003, 0.,
          0., 0., 3.59712238e-003, 0., 3.59712238e-003, 0., 0., 0., 0.,
          0., 3.59712238e-003, 0., 0., 0., 0., 0., 0., 7.19424477e-003,
          0., 0., 0., 0., 0., 0., 1.07913669e-002, 0., 0., 0., 0., 0.,
          0., 0., 3.59712238e-003, 0., 0., 0., 0., 0., 0., 0., 0., 0.,
          0., 0., 3.59712238e-003, 0., 0., 0., 0., 0., 0., 0., 0., 0.,
          0., 0., 0., 0., 0., 0., 0., 0., 0., 0., 0., 0., 0., 0., 0.,
          3.59712238e-003, 0., 3.59712238e-003, 0., 0., 0., 0., 0., 0.,
          0., 0., 3.59712238e-003, 0., 0., 0., 0., 0., 0., 0., 0., 0.,
          0., 0., 0., 3.59712238e-003, 0., 0., 0., 0., 0., 0., 0., 0.,
          0., 0., 0., 0., 3.59712238e-003, 0., 0., 0., 0., 0., 0.,
          1.43884895e-002, 0., 3.59712238e-003, 0., 0., 0., 0., 0., 0.,
          0., 0., 0., 0., 0., 0., 3.59712238e-003, 0., 0., 0., 0., 0.,
          0., 0., 0., 0., 0., 0., 0., 0., 0., 0., 0., 0., 0.,
          3.59712238e-003, 0., 3.59712238e-003, 0., 0., 0., 0., 0., 0.,
          0., 0., 0., 3.59712238e-003, 0., 0., 0., 0., 0., 0., 0., 0.,
          0., 0., 0., 0., 0., 0., 0., 0., 0., 0., 0., 0., 0., 0.,
          1.07913669e-002, 3.59712238e-003, 3.59712238e-003, 0., 0., 0.,
          0., 0., 0., 3.59712238e-003, 0., 0., 0., 0., 0., 0., 0., 0.,
          0., 0., 0., 0., 3.59712238e-003, 0., 0., 0., 0.,
          3.59712238e-003, 0., 0., 0., 0., 0., 0., 0., 0., 0., 0., 0.,
          0., 0., 0., 0., 0., 0., 0., 0., 0., 0., 3.59712238e-003,
          3.59712238e-003, 0., 0., 0., 0., 0., 0., 3.59712238e-003, 0.,
          0., 0., 0., 0., 3.59712238e-003, 7.19424477e-003, 0., 0., 0.,
          0., 0., 0., 0., 0., 0., 0., 7.19424477e-003, 0., 0., 0.,
          7.19424477e-003, 0., 0., 0., 3.59712238e-003, 0., 0., 0., 0.,
          0., 0., 0., 0., 0., 0., 0., 0., 2.15827338e-002, 0., 0., 0.,
          0., 0., 0., 0., 0., 0., 0., 0., 3.59712238e-003, 0.,
          3.59712238e-003, 3.59712238e-003, 0., 0., 0., 0., 0.,
          3.59712238e-003, 0., 0., 0., 0., 0., 0., 0., 0., 0., 0., 0.,
          0., 0., 0., 0., 0., 0., 0., 7.19424477e-003, 0., 0., 0., 0.,
          0., 0., 0., 0., 0., 0., 3.59712238e-003, 0., 0., 0., 0., 0.,
          0., 0., 0., 7.19424477e-003, 0., 0., 0., 0., 3.59712238e-003,
          3.59712238e-003, 0., 0., 0., 3.59712238e-003, 0., 0., 0., 0.,
          0., 0., 0., 0., 0., 0., 0., 0., 0., 0., 0., 0., 0., 0.,
          7.19424477e-003, 0., 0., 0., 0., 0., 0., 0., 0.,
          3.59712238e-003, 0., 3.59712238e-003, 0., 0., 0., 0., 0., 0.,
          0., 0., 0., 0., 0., 0., 0., 3.59712238e-003, 0., 0., 0., 0.,
          0., 0., 0., 3.59712238e-003, 0., 0., 0., 0., 0., 0., 0., 0.,
          0., 3.59712238e-003, 0., 0., 0., 3.59712238e-003, 0., 0., 0.,
          0., 0., 0., 0., 0., 0., 0., 0., 0., 0., 0., 0., 0., 0., 0., 0.,
          3.59712238e-003, 3.59712238e-003, 0., 0., 0., 0., 0.,
          7.19424477e-003, 0., 3.59712238e-003, 0., 0., 0., 0.,
          1.79856122e-002, 0., 0., 0., 0., 0., 0., 0., 0., 0., 0., 0.,
          0., 0., 0., 0., 0., 3.59712238e-003, 0., 0., 0., 0., 0., 0.,
          0., 0., 0., 0., 0., 0., 0., 0., 3.59712238e-003, 0., 0., 0.,
          0., 0., 0., 0., 0., 0., 0., 0., 0., 0., 0., 0., 0., 0., 0., 0.,
          0., 0., 0., 0., 0., 0., 0., 0., 0., 0., 0., 0., 0., 0.,
          3.59712238e-003, 0., 0., 0., 0., 1.07913669e-002, 0., 0., 0.,
          0., 0., 0., 0., 0., 3.95683460e-002, 0., 0., 0., 0., 0., 0.,
          0., 0., 0., 0., 0., 0., 0., 0., 0., 0., 2.51798574e-002, 0.,
          0., 0., 0., 0., 0., 3.59712238e-003, 0., 0., 0., 0., 0., 0.,
          0., 0., 0., 0., 0., 0., 0., 0., 0., 0., 0., 0., 0., 0., 0., 0.,
          0., 0., 3.59712238e-003, 0., 0., 0., 0., 0., 0., 0., 0., 0.,
          0., 0., 0., 0., 3.59712238e-003, 0., 0., 0., 0., 0., 0., 0.,
          0., 0., 0., 0., 0., 0., 0., 3.59712238e-003, 0., 0., 0., 0.,
          0., 0., 0., 0., 0., 0., 0., 0., 0., 0., 0., 0., 0., 0., 0., 0.,
          0., 0., 0., 0., 0., 0., 0., 0., 3.59712238e-003, 0., 0., 0.,
          0., 0., 0. ]
      - [ 0., 7.53768813e-003, 2.51256279e-003, 0., 0., 0., 0.,
          7.53768813e-003, 0., 0., 2.51256279e-003, 0., 0., 0., 0., 0.,
          0., 0., 2.51256279e-003, 0., 0., 2.51256279e-003,
          2.51256279e-003, 0., 0., 5.02512557e-003, 0., 0., 0.,
          2.51256279e-003, 0., 0., 5.02512557e-003, 0., 0., 0., 0.,
          5.02512557e-003, 0., 0., 0., 0., 0., 2.51256279e-003, 0., 0.,
          0., 7.53768813e-003, 0., 0., 0., 0., 0., 2.51256279e-003, 0.,
          0., 5.02512557e-003, 2.51256279e-003, 0., 0., 0., 0., 0., 0.,
          2.51256279e-003, 0., 0., 2.51256279e-003, 2.51256279e-003, 0.,
          0., 0., 0., 2.51256279e-003, 0., 0., 0., 0., 0., 0., 0.,
          2.51256279e-003, 2.51256279e-003, 0., 2.51256279e-003, 0., 0.,
          0., 0., 0., 0., 2.51256279e-003, 0., 0., 0., 0., 0., 0., 0.,
          2.51256279e-003, 0., 0., 0., 5.02512557e-003, 0.,
          2.51256279e-003, 0., 1.00502511e-002, 2.51256279e-003, 0.,
          5.02512557e-003, 0., 0., 0., 0., 0., 0., 2.51256279e-003, 0.,
          0., 0., 0., 0., 0., 0., 0., 0., 0., 2.51256279e-003, 0., 0.,
          0., 0., 0., 0., 0., 0., 2.51256279e-003, 2.51256279e-003, 0.,
          0., 0., 0., 0., 0., 0., 0., 0., 0., 0., 0., 2.51256279e-003,
          0., 5.02512557e-003, 0., 0., 0., 0., 5.02512557e-003, 0.,
          5.02512557e-003, 0., 0., 2.51256279e-003, 0., 2.51256279e-003,
          0., 0., 2.51256279e-003, 0., 2.51256279e-003, 5.02512557e-003,
          0., 0., 0., 0., 0., 2.51256279e-003, 2.51256279e-003, 0., 0.,
          0., 0., 0., 0., 5.02512557e-003, 0., 0., 1.75879393e-002, 0.,
          0., 2.51256279e-003, 0., 0., 0., 0., 0., 0., 0., 0., 0., 0.,
          0., 0., 0., 0., 5.02512557e-003, 5.02512557e-003, 0., 0., 0.,
          0., 0., 0., 0., 0., 0., 0., 0., 0., 0., 0., 0., 0., 0.,
          5.02512557e-003, 0., 7.53768813e-003, 0., 0., 0., 0., 0.,
          2.51256279e-003, 0., 0., 0., 0., 2.51256279e-003, 0., 0.,
          2.51256279e-003, 0., 0., 2.51256279e-003, 0., 0., 0., 0., 0.,
          0., 0., 0., 0., 0., 2.51256279e-003, 2.51256279e-003, 0., 0.,
          2.51256279e-003, 0., 2.51256279e-003, 0., 0., 0., 0., 0., 0.,
          0., 2.51256279e-003, 2.51256279e-003, 0., 0., 7.53768813e-003,
          0., 0., 0., 5.02512557e-003, 2.51256279e-003, 0., 0., 0.,
          7.53768813e-003, 2.51256279e-003, 2.51256279e-003, 0., 0., 0.,
          0., 0., 5.02512557e-003, 5.02512557e-003, 0., 5.02512557e-003,
          0., 0., 0., 0., 0., 0., 0., 0., 5.02512557e-003, 0., 0., 0.,
          0., 0., 0., 0., 2.51256279e-003, 0., 0., 0., 0., 0., 0., 0.,
          2.51256279e-003, 0., 0., 0., 0., 0., 0., 0., 1.25628142e-002,
          0., 0., 7.53768813e-003, 0., 0., 0., 2.51256279e-003, 0., 0.,
          0., 0., 0., 7.53768813e-003, 0., 2.51256279e-003, 0., 0.,
          2.51256279e-003, 0., 0., 2.51256279e-003, 2.51256279e-003, 0.,
          0., 0., 0., 0., 0., 0., 0., 2.51256279e-003, 0., 0., 0., 0.,
          0., 0., 0., 0., 0., 5.02512557e-003, 0., 0., 0., 0., 0., 0.,
          0., 0., 0., 0., 0., 0., 0., 0., 2.51256279e-003, 0., 0., 0.,
          0., 0., 0., 0., 0., 0., 0., 0., 0., 0., 0., 0., 0., 0., 0., 0.,
          0., 0., 0., 0., 0., 2.51256279e-003, 1.00502511e-002, 0., 0.,
          0., 0., 7.53768813e-003, 0., 0., 0., 0., 0., 0., 0., 0., 0.,
          0., 0., 2.51256279e-003, 0., 0., 5.02512557e-003, 0., 0., 0.,
          0., 0., 0., 0., 0., 0., 0., 0., 0., 5.02512557e-003, 0., 0.,
          0., 0., 0., 0., 2.51256279e-003, 0., 0., 0., 0., 0., 0.,
          2.51256279e-003, 0., 7.53768813e-003, 5.02512557e-003, 0., 0.,
          2.51256279e-003, 2.51256279e-003, 2.51256279e-003, 0., 0.,
          2.51256279e-003, 2.51256279e-003, 0., 0., 0., 0., 0.,
          5.02512557e-003, 0., 2.51256279e-003, 0., 0., 0., 0., 0., 0.,
          0., 2.51256279e-003, 0., 2.51256279e-003, 0., 0., 0., 0., 0.,
          2.51256279e-003, 0., 2.51256279e-003, 0., 0., 0., 0., 0., 0.,
          0., 0., 0., 0., 0., 0., 0., 0., 0., 0., 0., 0., 0., 0., 0., 0.,
          0., 2.51256279e-003, 0., 0., 2.51256279e-003, 0., 0., 0., 0.,
          5.02512557e-003, 0., 0., 0., 0., 0., 0., 0., 0., 0., 0., 0.,
          0., 0., 0., 0., 0., 0., 0., 5.02512557e-003, 0., 0., 0., 0.,
          0., 0., 2.51256279e-003, 0., 0., 0., 0., 0., 5.02512557e-003,
          0., 2.51256279e-003, 0., 0., 0., 2.51256279e-003, 0., 0., 0.,
          0., 0., 0., 0., 0., 0., 0., 2.51256279e-003, 0., 0., 0., 0.,
          0., 0., 0., 0., 0., 0., 0., 0., 0., 0., 0., 0., 0., 0.,
          2.51256279e-003, 0., 0., 2.51256279e-003, 0., 0., 0., 0.,
          2.51256279e-003, 2.51256279e-003, 0., 0., 0., 0., 0., 0., 0.,
          0., 0., 0., 0., 2.51256279e-003, 0., 0., 0., 2.51256279e-003,
          0., 0., 0., 0., 0., 2.51256279e-003, 2.51256279e-003, 0., 0.,
          0., 0., 2.51256279e-003, 0., 2.51256279e-003, 0., 0., 0., 0.,
          1.25628142e-002, 2.51256279e-003, 0., 5.02512557e-003, 0., 0.,
          5.02512557e-003, 0., 0., 0., 0., 0., 0., 2.51256279e-003, 0.,
          7.53768813e-003, 0., 0., 0., 0., 0., 2.51256279e-003, 0.,
          2.51256279e-003, 0., 0., 2.51256279e-003, 0., 2.51256279e-003,
          0., 0., 0., 7.53768813e-003, 0., 0., 0., 0., 0.,
          2.51256279e-003, 0., 0., 0., 0., 0., 0., 0., 7.53768813e-003,
          0., 0., 0., 0., 0., 0., 0., 0., 0., 0., 0., 0., 0., 0., 0.,
          1.25628142e-002, 0., 0., 5.02512557e-003, 0., 0., 0., 0., 0.,
          5.02512557e-003, 0., 0., 2.51256279e-003, 0., 2.51256279e-003,
          0., 0., 0., 0., 0., 0., 0., 0., 0., 0., 0., 2.51256279e-003,
          5.02512557e-003, 0., 0., 0., 0., 0., 0., 0., 0., 0.,
          2.51256279e-003, 0., 0., 2.51256279e-003, 0., 0., 0., 0., 0.,
          5.02512557e-003, 0., 0., 0., 0., 5.02512557e-003, 0., 0., 0.,
          0., 0., 2.51256279e-003, 0., 0., 0., 0., 2.51256279e-003, 0.,
          0., 2.51256279e-003, 0., 0., 0., 0., 0., 0., 0., 0., 0., 0.,
          0., 0., 0., 0., 0., 0., 0., 0., 0., 0., 0., 0., 0., 0.,
          5.02512557e-003, 0., 0., 2.51256279e-003, 2.51256279e-003, 0.,
          2.51256279e-003, 0., 0., 0., 0., 0., 2.51256279e-003, 0.,
          2.51256279e-003, 0., 0., 0., 0., 5.02512557e-003, 0., 0., 0.,
          0., 0., 0., 0., 0., 0., 0., 0., 0., 0., 0., 0., 0., 0., 0.,
          2.51256279e-003, 0., 0., 0., 0., 0., 0., 0., 2.51256279e-003,
          0., 5.02512557e-003, 0., 0., 0., 0., 0., 0., 2.51256279e-003,
          0., 0., 0., 0., 0., 5.02512557e-003, 0., 0., 0.,
          2.51256279e-003, 0., 2.51256279e-003, 0., 0., 0., 0., 0.,
          2.51256279e-003, 5.02512557e-003, 0., 0., 0., 0., 0., 0., 0.,
          0., 0., 0., 0., 0., 0., 7.53768813e-003, 0., 2.51256279e-003,
          0., 0., 0., 0., 0., 2.51256279e-003, 2.51256279e-003, 0., 0.,
          0., 0., 0., 0., 0., 0., 0., 2.51256279e-003, 0., 0., 0., 0.,
          0., 0., 0., 0., 0., 0., 0., 0., 0., 0., 0., 0., 0., 0., 0., 0.,
          0., 0., 0., 0., 0., 2.51256279e-003, 0., 0., 0., 0., 0., 0.,
          5.02512557e-003, 0., 0., 0., 0., 0., 5.02512557e-003, 0., 0.,
          0., 2.51256279e-003, 0., 0., 0., 0., 0., 0., 0., 0., 0., 0.,
          0., 0., 0., 0., 0., 0., 0., 0., 0., 0., 0., 0.,
          2.51256279e-003, 0., 0., 0., 0., 0., 0., 0., 0.,
          2.51256279e-003, 0., 0., 0., 2.51256279e-003, 2.51256279e-003,
          2.51256279e-003, 0., 0., 5.02512557e-003, 0., 0., 0., 0., 0.,
          0., 0., 0., 2.51256279e-003, 7.53768813e-003, 2.51256279e-003,
          0., 2.51256279e-003, 0., 0., 0., 0., 0., 0., 5.02512557e-003,
          0., 0., 0., 0., 0., 0., 2.51256279e-003, 0., 0.,
          2.51256279e-003, 2.51256279e-003, 0., 0., 0., 0., 0., 0., 0.,
          0., 7.53768813e-003, 0., 0., 2.51256279e-003, 0.,
          7.53768813e-003, 0., 2.51256279e-003, 0., 0., 0.,
          2.51256279e-003, 0., 0., 0., 2.51256279e-003, 0., 0., 0., 0.,
          0., 0., 0., 0., 0., 5.02512557e-003, 0., 0., 0.,
          2.51256279e-003, 0., 0., 0., 0., 0., 5.02512557e-003,
          2.51256279e-003, 0., 0., 0., 0., 0., 0., 0., 0., 0.,
          2.51256279e-003, 0., 0., 0., 0., 0., 0., 0., 0., 0., 0., 0.,
          0., 0., 5.02512557e-003, 0., 0., 0., 0., 5.02512557e-003, 0.,
          2.51256279e-003, 0., 0., 0., 0., 0., 0., 0., 0.,
          5.02512557e-003, 2.51256279e-003, 0., 0., 0., 0.,
          5.02512557e-003, 0., 2.51256279e-003, 0., 0., 0., 0., 0., 0.,
          0., 0., 0., 0., 0., 0., 0., 0., 5.02512557e-003, 0., 0., 0.,
          0., 0., 0., 0., 0., 0., 0., 0., 0., 2.51256279e-003, 0., 0.,
          0., 0., 5.02512557e-003, 0., 0., 0., 0., 0., 0., 0., 0., 0.,
          0., 0., 0., 0., 0., 0., 2.51256279e-003, 2.51256279e-003, 0.,
          0., 0., 0., 0., 0., 2.51256279e-003, 0., 0., 0., 0., 0.,
          2.51256279e-003, 0., 0., 2.51256279e-003, 0., 0., 0., 0., 0.,
          2.51256279e-003, 2.51256279e-003, 0., 0., 0., 0., 0., 0., 0.,
          0., 0., 0., 0., 0., 0., 2.51256279e-003, 0., 0., 0., 0.,
          2.51256279e-003, 0., 0., 2.51256279e-003, 0., 5.02512557e-003,
          0., 0., 0., 2.51256279e-003, 0., 2.51256279e-003,
          5.02512557e-003, 2.51256279e-003, 0., 0., 0., 0., 0., 0., 0.,
          0., 2.51256279e-003, 0., 0., 0., 0., 0., 0., 0., 0., 0., 0.,
          0., 0., 0., 0., 0., 0., 0., 0., 0., 0., 0., 0., 0., 0., 0., 0.,
          0., 0., 0., 0., 2.51256279e-003, 2.51256279e-003, 0., 0., 0.,
          0., 0., 0., 2.51256279e-003, 2.51256279e-003, 0., 0., 0., 0.,
          0., 0., 2.51256279e-003, 0., 0., 0., 0., 2.51256279e-003,
          5.02512557e-003, 0., 0., 2.51256279e-003, 0., 0.,
          2.51256279e-003, 0., 2.51256279e-003, 2.51256279e-003,
          2.51256279e-003, 0., 0., 0., 0., 0., 0., 2.51256279e-003, 0.,
          0., 2.51256279e-003, 0., 0., 0., 0., 0., 0., 2.51256279e-003,
          0., 0., 0., 0., 0., 0., 0., 0., 0., 0., 0., 5.02512557e-003,
          0., 0., 0., 0., 0., 0., 0., 0., 0., 0., 0., 0., 0., 0., 0., 0.,
          2.51256279e-003, 0., 0., 0., 2.51256279e-003, 0., 0., 0.,
          2.51256279e-003, 0., 0., 0., 0., 0., 0., 0., 0.,
          5.02512557e-003, 0., 0., 0., 0., 0., 0., 0., 0., 0., 0., 0.,
          0., 0., 0., 0., 0., 0., 0., 0., 0., 0., 0., 0., 0., 0., 0., 0.,
          0., 0., 0., 0., 2.51256279e-003, 0., 0., 0., 0., 0., 0., 0.,
          0., 2.51256279e-003, 2.51256279e-003, 0., 2.51256279e-003, 0.,
          0., 0., 2.51256279e-003, 2.51256279e-003, 0., 2.51256279e-003,
          5.02512557e-003, 0., 0., 0., 0., 0., 0., 2.51256279e-003, 0.,
          0., 0., 0., 0., 0., 0., 0., 0., 0., 1.00502511e-002,
          2.51256279e-003, 2.51256279e-003, 0., 0., 2.51256279e-003, 0.,
          0., 0., 0., 0., 0., 0., 0., 0., 0., 2.51256279e-003, 0., 0.,
          5.02512557e-003, 5.02512557e-003, 0., 0., 7.53768813e-003, 0.,
          0., 0., 0., 0., 0., 0., 0., 0., 0., 0., 0., 0., 0., 0., 0.,
          5.02512557e-003, 0., 0., 0., 0., 2.51256279e-003, 0., 0., 0.,
          0., 0., 0., 0., 0., 0., 0., 0., 0., 0., 0., 5.02512557e-003,
          2.51256279e-003, 0., 7.53768813e-003, 0., 0., 2.51256279e-003,
          0., 0., 0., 0., 0., 0., 0., 0., 0., 0., 2.51256279e-003, 0.,
          0., 0., 0., 0., 0., 0., 0. ]
      - [ 0., 8.52272753e-003, 2.84090918e-003, 2.84090918e-003, 0., 0.,
          0., 0., 0., 0., 2.84090918e-003, 0., 0., 0., 0., 0.,
          2.84090918e-003, 0., 0., 0., 0., 0., 0., 0., 0.,
          5.68181835e-003, 0., 5.68181835e-003, 0., 0., 0., 0.,
          8.52272753e-003, 0., 0., 0., 0., 0., 0., 0., 5.68181835e-003,
          0., 0., 0., 0., 0., 0., 0., 0., 0., 0., 0., 2.84090918e-003,
          0., 5.68181835e-003, 2.84090918e-003, 0., 0., 2.84090918e-003,
          0., 0., 0., 0., 0., 0., 0., 0., 0., 0., 0., 0., 0., 0.,
          2.84090918e-003, 0., 0., 2.84090918e-003, 2.84090918e-003, 0.,
          0., 0., 0., 2.84090918e-003, 0., 0., 5.68181835e-003, 0., 0.,
          0., 2.84090918e-003, 0., 0., 2.84090918e-003, 0., 0., 0., 0.,
          0., 0., 0., 0., 0., 2.84090918e-003, 2.84090918e-003, 0.,
          2.84090918e-003, 0., 0., 0., 0., 0., 0., 0., 0., 0., 0., 0.,
          0., 2.84090918e-003, 0., 2.84090918e-003, 0., 0.,
          2.27272734e-002, 0., 0., 0., 0., 0., 0., 0., 0., 0., 0., 0.,
          0., 0., 0., 0., 0., 2.84090918e-003, 0., 0., 2.84090918e-003,
          2.84090918e-003, 0., 0., 0., 0., 0., 0., 0., 0.,
          2.84090918e-003, 0., 0., 0., 0., 0., 2.84090918e-003,
          2.84090918e-003, 0., 2.84090918e-003, 0., 0., 0., 0., 0., 0.,
          0., 0., 0., 0., 0., 0., 0., 2.84090918e-003, 2.84090918e-003,
          2.84090918e-003, 2.84090918e-003, 2.84090918e-003,
          2.84090918e-003, 0., 2.84090918e-003, 2.84090918e-003, 0., 0.,
          0., 0., 0., 0., 0., 0., 0., 0., 0., 2.84090918e-003, 0., 0.,
          5.68181835e-003, 0., 0., 0., 2.84090918e-003, 0., 0., 0.,
          5.68181835e-003, 0., 0., 2.84090918e-003, 0., 0., 0.,
          2.84090918e-003, 0., 0., 0., 0., 0., 2.84090918e-003, 0., 0.,
          0., 0., 1.70454551e-002, 0., 0., 0., 2.84090918e-003, 0., 0.,
          0., 0., 0., 0., 0., 0., 2.84090918e-003, 8.52272753e-003, 0.,
          0., 2.84090918e-003, 0., 0., 0., 0., 0., 0., 0., 0., 0., 0.,
          0., 0., 0., 2.84090918e-003, 0., 0., 0., 0., 0., 0., 0., 0.,
          2.84090918e-003, 0., 0., 0., 0., 5.68181835e-003, 0., 0., 0.,
          0., 0., 0., 0., 0., 0., 0., 0., 0., 2.84090918e-003, 0., 0.,
          0., 0., 0., 2.84090918e-003, 0., 0., 0., 0., 0., 0., 0., 0.,
          0., 0., 0., 0., 2.84090918e-003, 0., 0., 2.84090918e-003, 0.,
          0., 0., 0., 2.84090918e-003, 0., 0., 0., 0., 2.84090918e-003,
          0., 2.84090918e-003, 0., 0., 0., 0., 2.84090918e-003,
          2.84090918e-003, 5.68181835e-003, 0., 0., 0., 0., 0., 0., 0.,
          0., 0., 0., 0., 0., 0., 0., 0., 0., 0., 0., 0., 0., 0., 0., 0.,
          0., 0., 0., 0., 0., 0., 0., 5.68181835e-003, 0.,
          2.84090918e-003, 0., 0., 2.84090918e-003, 0., 0.,
          2.84090918e-003, 0., 2.84090918e-003, 2.84090918e-003,
          1.42045459e-002, 0., 0., 0., 0., 0., 0., 0., 0., 0., 0., 0.,
          0., 0., 0., 0., 0., 0., 0., 0., 0., 0., 0., 0.,
          2.84090918e-003, 0., 0., 0., 0., 0., 0., 0., 0.,
          2.84090918e-003, 0., 0., 1.42045459e-002, 0., 0., 0., 0.,
          5.68181835e-003, 0., 0., 2.84090918e-003, 0., 1.42045459e-002,
          0., 0., 0., 0., 0., 2.84090918e-003, 0., 0., 0., 0., 0.,
          2.84090918e-003, 0., 0., 5.68181835e-003, 0., 0.,
          2.84090918e-003, 0., 0., 0., 0., 0., 2.84090918e-003, 0.,
          5.68181835e-003, 0., 0., 0., 0., 0., 0., 0., 2.84090918e-003,
          2.84090918e-003, 1.13636367e-002, 0., 0., 0., 0., 0., 0., 0.,
          5.68181835e-003, 0., 0., 2.84090918e-003, 0., 0., 0., 0.,
          2.84090918e-003, 0., 0., 0., 0., 0., 0., 0., 0., 0., 0., 0.,
          0., 0., 0., 0., 0., 0., 0., 0., 0., 2.84090918e-003, 0.,
          2.84090918e-003, 0., 0., 0., 0., 2.84090918e-003, 0., 0., 0.,
          0., 0., 0., 0., 0., 0., 0., 2.84090918e-003, 0., 0.,
          2.84090918e-003, 0., 0., 0., 0., 0., 0., 2.84090918e-003, 0.,
          0., 0., 0., 0., 2.84090918e-003, 0., 0., 0., 2.84090918e-003,
          2.84090918e-003, 0., 0., 0., 0., 0., 0., 8.52272753e-003, 0.,
          0., 0., 2.84090918e-003, 0., 0., 0., 0., 0., 0.,
          2.84090918e-003, 0., 0., 0., 0., 2.84090918e-003, 0., 0., 0.,
          0., 1.42045459e-002, 0., 0., 5.68181835e-003, 0.,
          2.84090918e-003, 0., 0., 0., 0., 1.42045459e-002,
          8.52272753e-003, 0., 0., 2.84090918e-003, 0., 0., 0., 0., 0.,
          0., 0., 0., 0., 0., 0., 0., 0., 0., 0., 0., 2.84090918e-003,
          0., 0., 0., 0., 0., 0., 0., 0., 0., 0., 0., 2.84090918e-003,
          0., 0., 0., 0., 0., 2.84090918e-003, 0., 0., 0., 0., 0., 0.,
          0., 2.84090918e-003, 0., 0., 0., 0., 2.84090918e-003, 0., 0.,
          0., 0., 0., 0., 0., 0., 0., 0., 0., 0., 2.84090918e-003, 0.,
          0., 0., 0., 0., 0., 0., 2.84090918e-003, 0., 0., 0., 0.,
          2.84090918e-003, 0., 0., 0., 0., 0., 0., 0., 5.68181835e-003,
          0., 0., 0., 0., 0., 0., 0., 0., 2.84090918e-003, 0., 0., 0.,
          0., 0., 0., 0., 2.84090918e-003, 0., 0., 0., 0., 0., 0., 0.,
          2.84090918e-003, 0., 0., 0., 0., 0., 0., 0., 0., 0., 0., 0.,
          0., 0., 0., 0., 0., 0., 0., 0., 0., 0., 0., 0., 0.,
          8.52272753e-003, 0., 0., 0., 0., 0., 2.84090918e-003,
          5.68181835e-003, 0., 0., 0., 0., 0., 0., 0., 0., 0., 0.,
          5.68181835e-003, 0., 0., 0., 0., 0., 0., 0., 0.,
          2.84090918e-003, 0., 0., 0., 0., 0., 0., 2.84090918e-003, 0.,
          0., 0., 2.84090918e-003, 0., 0., 0., 0., 0., 0., 0., 0., 0.,
          0., 0., 0., 2.84090918e-003, 0., 0., 0., 0., 0., 0.,
          2.84090918e-003, 0., 0., 0., 0., 0., 0., 2.84090918e-003,
          2.84090918e-003, 0., 0., 0., 0., 0., 0., 0., 0., 0., 0.,
          5.68181835e-003, 0., 0., 0., 0., 0., 0., 5.68181835e-003, 0.,
          0., 0., 0., 5.68181835e-003, 0., 0., 0., 0., 0., 0.,
          1.70454551e-002, 2.84090918e-003, 0., 0., 0., 0., 0., 0., 0.,
          0., 0., 0., 0., 0., 0., 2.84090918e-003, 0., 0., 0., 0.,
          8.52272753e-003, 0., 0., 0., 0., 0., 0., 2.84090918e-003, 0.,
          8.52272753e-003, 2.84090918e-003, 0., 2.84090918e-003, 0., 0.,
          0., 0., 0., 0., 0., 2.84090918e-003, 0., 0., 0., 0., 0., 0.,
          0., 0., 0., 0., 0., 0., 0., 0., 0., 0., 0., 0., 0., 0., 0., 0.,
          0., 0., 0., 0., 5.68181835e-003, 0., 0., 0., 0., 0., 0., 0.,
          0., 0., 0., 0., 2.84090918e-003, 0., 0., 0., 0., 0., 0., 0.,
          0., 0., 0., 0., 5.68181835e-003, 0., 0., 0., 0., 0.,
          2.84090918e-003, 0., 0., 0., 2.84090918e-003, 0., 0., 0., 0.,
          0., 0., 0., 0., 0., 0., 0., 0., 0., 0., 0., 5.68181835e-003,
          2.84090918e-003, 1.70454551e-002, 0., 0., 0., 0., 0., 0.,
          2.84090918e-003, 0., 0., 0., 0., 2.84090918e-003, 0., 0., 0.,
          0., 0., 0., 2.84090918e-003, 0., 0., 0., 2.84090918e-003, 0.,
          0., 0., 0., 0., 0., 0., 0., 0., 0., 0., 0., 0., 0., 0., 0., 0.,
          0., 0., 0., 0., 0., 0., 0., 0., 2.84090918e-003, 0., 0., 0.,
          8.52272753e-003, 0., 0., 0., 0., 0., 0., 2.84090918e-003, 0.,
          0., 0., 0., 0., 0., 0., 0., 0., 0., 0., 0., 0., 0., 0., 0., 0.,
          0., 0., 0., 0., 0., 0., 0., 0., 2.84090918e-003, 0., 0., 0.,
          0., 0., 0., 2.27272734e-002, 0., 0., 0., 0., 0.,
          2.84090918e-003, 0., 0., 0., 0., 0., 2.84090918e-003, 0., 0.,
          0., 0., 0., 0., 0., 0., 0., 0., 0., 8.52272753e-003, 0., 0.,
          0., 0., 0., 0., 0., 2.84090918e-003, 0., 0., 0., 0., 0., 0.,
          0., 0., 0., 0., 0., 0., 0., 0., 0., 2.84090918e-003, 0.,
          2.84090918e-003, 0., 0., 0., 0., 0., 0., 5.68181835e-003, 0.,
          0., 0., 0., 0., 0., 0., 0., 0., 2.84090918e-003, 0., 0., 0.,
          0., 0., 0., 0., 0., 0., 0., 0., 0., 0., 0., 0.,
          5.68181835e-003, 0., 0., 0., 0., 0., 2.84090918e-003,
          2.84090918e-003, 0., 0., 0., 0., 5.68181835e-003, 0., 0., 0.,
          0., 0., 0., 0., 0., 0., 2.84090918e-003, 0., 0., 0., 0., 0.,
          0., 2.84090918e-003, 0., 0., 0., 0., 0., 0., 0.,
          2.84090918e-003, 0., 0., 0., 0., 0., 0., 0., 2.84090918e-003,
          2.84090918e-003, 0., 8.52272753e-003, 5.68181835e-003, 0., 0.,
          2.84090918e-003, 5.68181835e-003, 0., 0., 0., 0., 0., 0., 0.,
          0., 0., 2.84090918e-003, 0., 0., 0., 8.52272753e-003, 0., 0.,
          0., 0., 0., 0., 5.68181835e-003, 0., 0., 0., 0., 0., 0., 0.,
          0., 0., 0., 8.52272753e-003, 0., 0., 0., 2.84090918e-003,
          2.84090918e-003, 0., 0., 0., 0., 0., 2.84090918e-003, 0., 0.,
          0., 0., 0., 0., 0., 0., 0., 5.68181835e-003, 0.,
          2.84090918e-003, 2.84090918e-003, 0., 0., 0., 0., 0., 0., 0.,
          0., 0., 0., 2.84090918e-003, 0., 0., 0., 0., 0., 0., 0., 0.,
          0., 0., 0., 0., 0., 0., 0., 0., 0., 0., 0., 0., 0., 0., 0.,
          2.84090918e-003, 0., 0., 0., 0., 2.84090918e-003, 0.,
          2.84090918e-003, 0., 0., 2.84090918e-003, 0., 0., 0., 0., 0.,
          0., 0., 0., 0., 0., 0., 0., 0., 0., 2.84090918e-003, 0., 0.,
          2.84090918e-003, 0., 0., 2.84090918e-003, 0., 0., 0., 0., 0.,
          0., 0., 2.84090918e-003, 0., 0., 0., 2.84090918e-003, 0., 0.,
          2.84090918e-003, 0., 0., 0., 0., 0., 0., 0., 0., 0., 0., 0.,
          0., 0., 0., 0., 0., 0., 0., 0., 0., 0., 0., 0., 0., 0., 0., 0.,
          0., 0., 0., 0., 0., 0., 0., 0., 2.84090918e-003, 0., 0., 0.,
          0., 0., 0., 2.84090918e-003, 0., 0., 0., 0., 0., 0., 0.,
          5.68181835e-003, 0., 0., 0., 0., 0., 2.84090918e-003, 0., 0.,
          0., 0., 0., 0., 5.68181835e-003, 0., 0., 0., 0., 0., 0., 0.,
          0., 0., 0., 0., 0., 0., 0., 0., 0., 2.84090918e-003,
          2.84090918e-003, 0., 0., 0., 0., 0., 2.84090918e-003, 0., 0.,
          0., 0., 5.68181835e-003, 0., 0., 2.84090918e-003,
          2.84090918e-003, 0., 0., 0., 0., 0., 2.84090918e-003, 0., 0.,
          5.68181835e-003, 0., 0., 0., 0., 0., 0., 2.84090918e-003,
          2.84090918e-003, 0., 0., 0., 2.84090918e-003, 2.84090918e-003,
          0., 0., 0., 0., 0., 0., 0., 0., 0., 0., 0., 0., 0., 0., 0., 0.,
          0., 0., 0., 2.84090918e-003, 0., 0., 0., 0., 0., 0., 0., 0.,
          0., 0., 0., 0., 0., 0., 0., 2.84090918e-003, 0., 0.,
          2.84090918e-003, 0., 0., 0., 0., 0., 0., 0., 0., 0., 0., 0.,
          0., 0., 0., 0., 0., 0., 0., 0., 0., 0., 2.84090918e-003, 0.,
          0., 0., 0., 0., 0., 0., 0., 0., 0., 0., 0., 0., 0., 0., 0., 0.,
          0., 2.84090918e-003, 0., 0., 0., 0., 3.12500000e-002, 0., 0.,
          0., 0., 0., 0., 2.84090918e-003, 0., 0., 0., 0.,
          2.84090918e-003, 0., 0., 0. ]
      - [ 0., 0., 1.73913036e-002, 0., 0., 0., 0., 0., 0., 0., 0., 0.,
          0., 0., 0., 0., 0., 0., 0., 0., 0., 8.69565178e-003, 0., 0.,
          0., 0., 0., 0., 0., 0., 0., 0., 0., 0., 0., 0., 0., 0., 0., 0.,
          0., 0., 0., 0., 0., 0., 0., 8.69565178e-003, 0., 0., 0., 0.,
          0., 0., 1.73913036e-002, 0., 0., 0., 0., 0., 0., 0., 0., 0.,
          4.34782580e-002, 0., 0., 0., 0., 0., 0., 0., 0., 0., 0., 0.,
          0., 8.69565178e-003, 0., 0., 0., 0., 8.69565178e-003, 0., 0.,
          0., 0., 0., 0., 0., 0., 0., 0., 0., 0., 8.69565178e-003, 0.,
          0., 0., 0., 0., 0., 0., 0., 0., 0., 0., 0., 0., 0., 0., 0., 0.,
          0., 0., 0., 0., 0., 0., 0., 0., 0., 0., 0., 0., 0., 0., 0., 0.,
          0., 0., 0., 0., 0., 0., 0., 0., 0., 0., 0., 0., 0., 0., 0., 0.,
          0., 0., 0., 8.69565178e-003, 0., 0., 0., 0., 0., 0., 0., 0.,
          0., 0., 8.69565178e-003, 1.73913036e-002, 8.69565178e-003, 0.,
          0., 0., 0., 0., 0., 0., 0., 0., 0., 0., 0., 0., 0., 0., 0., 0.,
          0., 0., 8.69565178e-003, 0., 0., 0., 0., 0., 0., 0., 0., 0.,
          8.69565178e-003, 0., 0., 0., 0., 0., 0., 0., 0., 0., 0., 0.,
          0., 0., 0., 0., 0., 0., 0., 0., 0., 0., 0., 0., 0., 0., 0., 0.,
          1.73913036e-002, 0., 0., 0., 0., 0., 0., 0., 0., 0., 0., 0.,
          8.69565178e-003, 0., 0., 0., 0., 0., 0., 8.69565178e-003, 0.,
          0., 0., 0., 0., 0., 0., 0., 0., 0., 0., 0., 0., 0., 0., 0., 0.,
          0., 0., 0., 0., 0., 0., 0., 0., 0., 0., 0., 0., 0., 0., 0., 0.,
          0., 0., 0., 0., 0., 0., 0., 0., 0., 0., 0., 8.69565178e-003,
          0., 0., 0., 0., 8.69565178e-003, 0., 0., 0., 0., 0., 0., 0.,
          0., 0., 0., 0., 0., 0., 8.69565178e-003, 0., 0., 0., 0., 0.,
          0., 0., 8.69565178e-003, 8.69565178e-003, 0., 0., 0., 0., 0.,
          0., 0., 0., 0., 0., 0., 0., 0., 0., 0., 0., 0.,
          8.69565178e-003, 0., 0., 0., 0., 8.69565178e-003, 0., 0., 0.,
          0., 8.69565178e-003, 0., 0., 0., 0., 0., 0., 0., 0., 0., 0.,
          0., 0., 0., 1.73913036e-002, 0., 0., 0., 0., 0., 0., 0., 0.,
          0., 0., 0., 0., 0., 8.69565178e-003, 0., 0., 0., 0., 0., 0.,
          0., 0., 0., 0., 0., 0., 0., 0., 0., 0., 0., 0., 0., 0., 0., 0.,
          0., 0., 0., 0., 0., 0., 0., 0., 0., 0., 0., 0., 0., 0., 0., 0.,
          0., 0., 0., 0., 0., 0., 0., 8.69565178e-003, 0., 0., 0., 0.,
          0., 0., 0., 0., 0., 0., 0., 0., 1.73913036e-002, 0.,
          8.69565178e-003, 0., 4.34782580e-002, 0., 0., 0., 0., 0., 0.,
          0., 0., 0., 0., 0., 0., 0., 0., 0., 0., 0., 8.69565178e-003,
          0., 1.73913036e-002, 0., 0., 0., 0., 1.73913036e-002, 0., 0.,
          0., 0., 0., 8.69565178e-003, 0., 0., 0., 0., 0., 0., 0., 0.,
          0., 0., 0., 0., 0., 0., 0., 0., 0., 0., 0., 0., 0., 0., 0., 0.,
          0., 0., 8.69565178e-003, 0., 0., 0., 0., 1.73913036e-002, 0.,
          0., 0., 0., 0., 0., 0., 0., 0., 0., 0., 0., 0., 0., 0., 0., 0.,
          0., 0., 0., 8.69565178e-003, 0., 0., 0., 0., 0.,
          8.69565178e-003, 1.73913036e-002, 0., 0., 0., 8.69565178e-003,
          0., 0., 0., 0., 0., 0., 2.60869563e-002, 0., 0., 0., 0., 0.,
          0., 0., 0., 0., 0., 0., 0., 0., 0., 0., 0., 8.69565178e-003,
          0., 8.69565178e-003, 0., 0., 0., 0., 0., 0., 0., 0., 0., 0.,
          0., 0., 0., 0., 0., 0., 0., 0., 0., 0., 0., 8.69565178e-003,
          0., 0., 0., 0., 0., 0., 0., 8.69565178e-003, 0., 0., 0., 0.,
          0., 8.69565178e-003, 8.69565178e-003, 0., 0., 0., 0., 0., 0.,
          0., 0., 0., 0., 0., 0., 8.69565178e-003, 0., 0., 0., 0., 0.,
          0., 0., 0., 0., 0., 0., 0., 0., 0., 0., 0., 0., 0., 0., 0., 0.,
          0., 0., 0., 0., 0., 0., 0., 0., 0., 0., 0., 0., 0., 0., 0., 0.,
          0., 0., 0., 0., 0., 0., 0., 0., 0., 0., 0., 8.69565178e-003,
          0., 0., 0., 0., 0., 0., 0., 0., 0., 0., 0., 0., 0., 0.,
          8.69565178e-003, 0., 0., 0., 8.69565178e-003, 0., 0., 0., 0.,
          0., 0., 0., 0., 0., 0., 0., 0., 0., 0., 0., 0.,
          8.69565178e-003, 0., 0., 0., 0., 0., 0., 0., 0., 0., 0., 0.,
          0., 0., 0., 0., 0., 0., 0., 0., 0., 0., 0., 1.73913036e-002,
          0., 0., 0., 0., 0., 0., 0., 0., 0., 0., 0., 0., 0., 0., 0., 0.,
          0., 0., 0., 0., 0., 0., 0., 0., 0., 0., 0., 0., 0., 0., 0., 0.,
          0., 0., 3.47826071e-002, 0., 0., 0., 0., 0., 0., 0., 0., 0.,
          0., 0., 0., 0., 0., 0., 0., 0., 0., 0., 0., 0., 0., 0., 0., 0.,
          0., 0., 0., 0., 0., 0., 0., 0., 0., 0., 0., 0., 0., 0., 0., 0.,
          0., 0., 0., 0., 0., 0., 8.69565178e-003, 0., 0., 0., 0., 0.,
          0., 0., 0., 0., 0., 0., 0., 0., 0., 0., 0., 0., 0.,
          8.69565178e-003, 0., 0., 0., 0., 0., 0., 0., 0., 0., 0., 0.,
          0., 0., 8.69565178e-003, 0., 0., 0., 0., 0., 0., 0., 0., 0.,
          0., 0., 0., 0., 0., 0., 0., 0., 0., 0., 0., 0., 0., 0., 0., 0.,
          0., 0., 0., 0., 0., 0., 0., 0., 0., 0., 0., 0.,
          8.69565178e-003, 0., 0., 0., 0., 0., 0., 0., 0., 0., 0., 0.,
          0., 0., 0., 0., 0., 0., 0., 0., 0., 0., 0., 0., 0., 0., 0., 0.,
          0., 0., 0., 0., 0., 0., 0., 0., 0., 0., 0., 0., 0., 0., 0., 0.,
          0., 0., 0., 0., 0., 0., 0., 0., 0., 0., 0., 0., 0., 0., 0.,
          8.69565178e-003, 0., 0., 0., 0., 0., 0., 0., 0., 0., 0., 0.,
          0., 0., 0., 0., 0., 0., 0., 0., 0., 0., 0., 0.,
          8.69565178e-003, 0., 0., 0., 0., 0., 0., 0., 0., 0., 0., 0.,
          0., 0., 0., 0., 0., 0., 8.69565178e-003, 0., 0., 0., 0., 0.,
          0., 8.69565178e-003, 0., 8.69565178e-003, 0., 0., 0., 0., 0.,
          0., 0., 0., 0., 0., 0., 0., 0., 0., 0., 0., 0., 0., 0., 0., 0.,
          0., 0., 0., 0., 0., 0., 0., 0., 0., 0., 0., 0., 0., 0., 0., 0.,
          0., 1.73913036e-002, 0., 0., 0., 0., 0., 0., 0., 0., 0., 0.,
          0., 0., 0., 0., 0., 0., 0., 0., 0., 0., 0., 0., 0.,
          8.69565178e-003, 0., 0., 0., 0., 0., 0., 0., 8.69565178e-003,
          0., 0., 0., 0., 0., 0., 0., 0., 0., 0., 0., 0., 0., 0., 0., 0.,
          0., 0., 0., 0., 0., 8.69565178e-003, 0., 0., 0., 0., 0., 0.,
          0., 0., 0., 0., 0., 0., 0., 0., 0., 0., 0., 0., 0., 0., 0., 0.,
          0., 0., 0., 0., 0., 8.69565178e-003, 0., 0., 8.69565178e-003,
          0., 0., 0., 0., 0., 0., 0., 0., 0., 0., 0., 0., 0., 0., 0., 0.,
          0., 0., 0., 0., 0., 0., 0., 0., 0., 0., 0., 0., 0.,
          8.69565178e-003, 0., 0., 0., 0., 0., 0., 0., 0., 0., 0., 0.,
          0., 0., 0., 0., 0., 0., 0., 0., 0., 0., 0., 0.,
          8.69565178e-003, 0., 0., 0., 0., 0., 0., 0., 0., 0., 0., 0.,
          0., 0., 0., 0., 0., 0., 0., 0., 0., 0., 0., 0., 0., 0., 0., 0.,
          0., 0., 0., 0., 0., 0., 0., 0., 0., 0., 0., 0., 0., 0., 0., 0.,
          0., 0., 0., 0., 0., 0., 8.69565178e-003, 8.69565178e-003, 0.,
          0., 0., 0., 0., 0., 0., 8.69565178e-003, 0., 0., 0., 0., 0.,
          0., 0., 0., 0., 0., 0., 0., 0., 0., 0., 0., 0., 0., 0., 0., 0.,
          0., 0., 0., 0., 0., 0., 0., 0., 0., 0., 0., 0., 0., 0., 0., 0.,
          0., 0., 8.69565178e-003, 0., 0., 0., 0., 0., 0., 0., 0., 0.,
          0., 0., 0., 0., 0., 0., 0., 0., 0., 0., 0., 0., 0., 0., 0., 0.,
          0., 0., 0., 0., 0., 0., 0., 0., 0., 0., 0., 0., 0., 0., 0., 0.,
          0., 0., 0., 0., 0., 0., 0., 0., 0., 0., 0., 0., 0., 0., 0., 0.,
          0., 0., 0., 0., 0., 0., 0., 0., 0., 0., 0., 0., 0., 0., 0.,
          8.69565178e-003, 0., 0., 0., 0., 8.69565178e-003, 0., 0., 0.,
          0., 0., 0., 0., 0., 0., 0., 0., 0., 0., 0., 0., 0., 0., 0., 0.,
          0., 0., 0., 0., 0., 0., 0., 0., 0., 0., 0., 0., 0., 0.,
          8.69565178e-003, 0., 0., 0., 0., 0., 0., 8.69565178e-003, 0.,
          0., 0., 0., 0., 0., 0., 0., 0., 0., 0., 0., 0., 0., 0., 0., 0.,
          0., 0., 0., 0., 0., 0., 0., 0., 0., 0., 0., 0., 0., 0., 0., 0.,
          0., 0., 0., 8.69565178e-003, 0., 0., 8.69565178e-003, 0., 0.,
          0., 0., 0., 0., 0., 0., 0., 0., 0., 0., 0., 0., 0., 0., 0., 0.,
          0., 0., 0., 0., 0., 0., 0., 8.69565178e-003, 0., 0., 0., 0.,
          0., 0., 0., 0., 0., 0., 0., 0., 0., 0., 0., 0., 0., 0., 0., 0.,
          0., 0., 0., 0., 0., 0., 0., 0., 0., 0., 0., 0., 0., 0.,
          3.47826071e-002, 2.60869563e-002, 0., 0., 0., 0., 0., 0., 0.,
          0., 0., 0., 0., 0., 0., 0., 0., 0., 0., 0., 0., 0., 0., 0., 0.,
          0., 0., 0., 0., 0. ]
      - [ 2.17864919e-003, 0., 0., 4.35729837e-003, 0., 0., 0.,
          2.17864919e-003, 0., 0., 2.17864919e-003, 0., 0., 0., 0., 0.,
          2.17864919e-003, 0., 2.17864919e-003, 2.17864919e-003, 0.,
          2.17864919e-003, 0., 0., 0., 0., 0., 0., 2.17864919e-003, 0.,
          0., 0., 1.30718946e-002, 4.35729837e-003, 0., 0., 0.,
          2.17864919e-003, 0., 2.17864919e-003, 0., 0., 0., 0., 0., 0.,
          0., 4.35729837e-003, 0., 0., 0., 0., 0., 0., 2.17864919e-003,
          6.53594732e-003, 0., 2.17864919e-003, 1.30718946e-002,
          1.30718946e-002, 0., 0., 2.17864919e-003, 0., 0., 0., 0., 0.,
          2.17864919e-003, 0., 0., 2.17864919e-003, 0., 2.17864919e-003,
          2.17864919e-003, 4.35729837e-003, 0., 0., 0., 0., 0., 0., 0.,
          0., 0., 0., 0., 0., 0., 0., 0., 0., 0., 0., 0., 0.,
          2.17864919e-003, 0., 0., 0., 0., 0., 0., 0., 0., 0., 0., 0.,
          0., 0., 2.17864919e-003, 0., 2.17864919e-003, 0., 0., 0.,
          1.08932462e-002, 0., 0., 0., 0., 0., 0., 6.53594732e-003, 0.,
          0., 0., 0., 0., 0., 0., 0., 2.17864919e-003, 0., 0., 0., 0.,
          0., 0., 0., 0., 0., 0., 0., 0., 2.17864919e-003,
          4.35729837e-003, 0., 0., 0., 0., 2.17864919e-003, 0., 0.,
          2.17864919e-003, 2.17864919e-003, 0., 2.17864919e-003, 0., 0.,
          0., 2.17864919e-003, 0., 4.35729837e-003, 0., 0., 0., 0., 0.,
          0., 1.52505441e-002, 0., 0., 0., 0., 0., 0., 0., 0., 0., 0.,
          0., 0., 0., 0., 0., 4.35729837e-003, 0., 0., 0., 0., 0., 0.,
          0., 0., 0., 0., 0., 2.17864919e-003, 2.17864919e-003, 0., 0.,
          0., 0., 0., 0., 0., 2.17864919e-003, 0., 0., 0., 0., 0., 0.,
          0., 0., 0., 0., 0., 2.17864919e-003, 2.17864919e-003, 0., 0.,
          0., 0., 2.17864919e-003, 0., 0., 0., 0., 0., 0., 0., 0., 0.,
          0., 0., 2.17864919e-003, 0., 0., 0., 0., 0., 0., 0., 0., 0.,
          0., 0., 0., 0., 0., 2.17864919e-003, 0., 0., 0.,
          2.17864919e-003, 0., 0., 0., 0., 0., 2.17864919e-003, 0.,
          2.17864919e-003, 0., 0., 0., 0., 0., 2.17864919e-003,
          2.17864919e-003, 2.17864919e-003, 0., 0., 2.17864919e-003, 0.,
          0., 0., 0., 0., 0., 0., 0., 0., 2.17864919e-003, 0., 0., 0.,
          0., 8.71459674e-003, 0., 0., 0., 0., 0., 0., 0., 0., 0.,
          2.17864919e-003, 0., 0., 8.71459674e-003, 0., 0., 0., 0., 0.,
          0., 2.17864919e-003, 2.17864919e-003, 0., 0., 0., 0., 0., 0.,
          2.17864919e-003, 0., 2.17864919e-003, 0., 0., 0.,
          4.35729837e-003, 0., 0., 0., 0., 0., 0., 0., 0., 0., 0., 0.,
          0., 0., 0., 0., 0., 4.35729837e-003, 2.17864919e-003, 0.,
          2.17864919e-003, 0., 0., 0., 0., 0., 0., 0., 0.,
          1.30718946e-002, 0., 2.17864919e-003, 0., 0., 0., 0.,
          8.71459674e-003, 0., 0., 2.17864919e-003, 0., 0., 0.,
          2.17864919e-003, 0., 0., 0., 0., 0., 0., 0., 0., 0., 0., 0.,
          0., 0., 0., 0., 0., 0., 0., 0., 0., 0., 0., 0., 0., 0., 0.,
          2.17864919e-003, 0., 0., 2.17864919e-003, 0., 0., 0., 0., 0.,
          0., 0., 0., 0., 8.71459674e-003, 0., 0., 0., 4.35729837e-003,
          2.17864919e-003, 1.08932462e-002, 0., 0., 0., 0., 0., 0., 0.,
          0., 2.17864919e-003, 0., 0., 0., 0., 0., 2.17864919e-003, 0.,
          0., 0., 4.35729837e-003, 0., 0., 0., 0., 2.17864919e-003, 0.,
          6.53594732e-003, 0., 0., 0., 0., 0., 2.17864919e-003, 0., 0.,
          4.35729837e-003, 2.17864919e-003, 0., 0., 0., 2.17864919e-003,
          0., 0., 0., 4.35729837e-003, 0., 0., 0., 0., 0., 0., 0., 0.,
          0., 0., 0., 0., 0., 0., 0., 0., 0., 0., 0., 0., 0., 0., 0.,
          4.35729837e-003, 0., 2.17864919e-003, 0., 0., 0.,
          2.17864919e-003, 2.17864919e-003, 0., 0., 0., 0., 0., 0., 0.,
          4.35729837e-003, 0., 0., 0., 0., 0., 0., 0., 0., 0., 0., 0.,
          0., 2.17864919e-003, 0., 0., 0., 0., 2.17864919e-003, 0., 0.,
          0., 2.17864919e-003, 0., 0., 0., 2.17864919e-003, 0., 0.,
          2.17864919e-003, 0., 2.17864919e-003, 8.71459674e-003, 0., 0.,
          2.17864919e-003, 0., 0., 0., 2.17864919e-003, 1.08932462e-002,
          4.35729837e-003, 0., 2.17864919e-003, 0., 0., 0., 0.,
          2.17864919e-003, 0., 0., 0., 0., 0., 0., 0., 0.,
          2.17864919e-003, 0., 0., 2.17864919e-003, 6.53594732e-003, 0.,
          0., 0., 0., 6.53594732e-003, 0., 0., 0., 0., 0., 0., 0., 0.,
          0., 0., 0., 0., 0., 0., 0., 0., 0., 0., 0., 0., 0., 0., 0., 0.,
          8.71459674e-003, 0., 0., 0., 0., 0., 0., 0., 4.35729837e-003,
          4.35729837e-003, 6.53594732e-003, 0., 0., 0., 0., 0., 0., 0.,
          0., 0., 0., 2.17864919e-003, 0., 0., 2.17864919e-003, 0., 0.,
          2.17864919e-003, 0., 0., 0., 0., 2.17864919e-003,
          4.35729837e-003, 0., 0., 8.71459674e-003, 0., 0., 0., 0., 0.,
          0., 0., 0., 0., 0., 0., 0., 0., 0., 0., 0., 4.35729837e-003,
          0., 0., 0., 0., 0., 0., 4.35729837e-003, 0., 0., 0., 0., 0.,
          2.17864919e-003, 0., 0., 0., 0., 0., 0., 0., 0., 0., 0., 0.,
          2.17864919e-003, 0., 0., 0., 0., 0., 0., 0., 2.17864919e-003,
          0., 0., 0., 0., 0., 0., 0., 0., 2.17864919e-003, 0., 0., 0.,
          6.53594732e-003, 0., 0., 0., 0., 0., 0., 0., 0., 0., 0.,
          6.53594732e-003, 0., 8.71459674e-003, 0., 2.17864919e-003, 0.,
          0., 0., 0., 2.17864919e-003, 0., 4.35729837e-003, 0., 0.,
          2.17864919e-003, 0., 4.35729837e-003, 0., 0., 0., 0., 0., 0.,
          0., 0., 0., 0., 0., 0., 0., 0., 0., 0., 0., 0., 0., 0., 0., 0.,
          0., 0., 0., 0., 0., 0., 8.71459674e-003, 0., 0., 0., 0., 0.,
          0., 2.17864919e-003, 0., 0., 0., 0., 0., 2.17864919e-003, 0.,
          0., 0., 0., 0., 0., 2.17864919e-003, 0., 0., 0., 0., 0., 0.,
          0., 0., 0., 0., 0., 0., 0., 0., 0., 0., 0., 2.17864919e-003,
          0., 0., 0., 4.35729837e-003, 0., 0., 0., 0., 0., 0.,
          6.53594732e-003, 2.17864919e-003, 0., 2.17864919e-003, 0., 0.,
          0., 0., 0., 2.17864919e-003, 0., 2.17864919e-003, 0., 0., 0.,
          4.35729837e-003, 0., 0., 0., 0., 0., 0., 0., 0.,
          8.71459674e-003, 0., 0., 2.17864919e-003, 0., 0., 0.,
          4.35729837e-003, 0., 2.17864919e-003, 0., 0., 0., 0.,
          2.17864919e-003, 2.17864919e-003, 0., 0., 0., 0., 0., 0.,
          6.53594732e-003, 0., 0., 2.17864919e-003, 8.71459674e-003, 0.,
          0., 0., 0., 0., 0., 0., 0., 0., 0., 0., 0., 0., 0.,
          2.17864919e-003, 0., 0., 0., 2.17864919e-003, 0., 0., 0., 0.,
          0., 0., 0., 0., 0., 0., 0., 0., 0., 0., 4.35729837e-003, 0.,
          0., 0., 0., 0., 1.08932462e-002, 0., 0., 0., 0.,
          1.52505441e-002, 0., 0., 2.17864919e-003, 0., 4.35729837e-003,
          0., 0., 0., 0., 0., 0., 0., 0., 0., 4.35729837e-003,
          4.35729837e-003, 0., 0., 0., 0., 0., 2.17864919e-003, 0., 0.,
          8.71459674e-003, 0., 0., 0., 0., 0., 0., 0., 0., 0., 0., 0.,
          0., 0., 0., 0., 0., 0., 4.35729837e-003, 0., 0., 0.,
          6.53594732e-003, 0., 0., 0., 0., 0., 0., 0., 0., 0., 0., 0.,
          2.17864919e-003, 0., 0., 0., 0., 0., 0., 0., 0., 0.,
          2.17864919e-003, 0., 2.17864923e-002, 0., 0., 0.,
          2.17864919e-003, 0., 0., 0., 0., 0., 0., 0., 0.,
          2.17864919e-003, 2.17864919e-003, 0., 0., 0., 2.17864919e-003,
          2.17864919e-003, 0., 0., 0., 2.17864919e-003, 0., 0., 0., 0.,
          0., 0., 0., 0., 0., 6.53594732e-003, 0., 0., 0., 0., 0., 0.,
          0., 2.17864919e-003, 0., 2.17864919e-003, 0., 0., 0., 0., 0.,
          0., 6.53594732e-003, 0., 0., 0., 0., 0., 2.17864919e-003, 0.,
          0., 0., 0., 0., 0., 0., 0., 0., 0., 0., 0., 0., 0., 0., 0., 0.,
          0., 0., 0., 0., 0., 4.35729837e-003, 0., 0., 0.,
          4.35729837e-003, 0., 0., 0., 0., 8.71459674e-003, 0., 0., 0.,
          0., 2.17864919e-003, 0., 0., 0., 0., 0., 0., 0., 0., 0., 0.,
          0., 2.17864919e-003, 0., 0., 0., 2.17864919e-003, 0., 0., 0.,
          0., 0., 0., 0., 0., 0., 0., 0., 0., 0., 0., 0., 0.,
          2.17864919e-003, 0., 0., 0., 0., 0., 0., 4.35729837e-003, 0.,
          0., 0., 0., 0., 6.53594732e-003, 0., 0., 0., 0., 0.,
          6.53594732e-003, 0., 0., 0., 0., 0., 0., 0., 0., 0., 0., 0.,
          1.30718946e-002, 4.35729837e-003, 0., 0., 0., 2.17864919e-003,
          0., 0., 0., 2.17864919e-003, 0., 2.17864919e-003, 0., 0., 0.,
          0., 0., 0., 0., 0., 0., 0., 2.17864919e-003, 2.17864919e-003,
          0., 0., 0., 0., 0., 0., 0., 0., 0., 0., 4.35729837e-003, 0.,
          2.17864919e-003, 0., 0., 0., 0., 0., 0., 0., 0., 0., 0., 0.,
          0., 0., 0., 0., 0., 0., 0., 0., 0., 0., 0., 0., 0., 0., 0., 0.,
          0., 0., 0., 0., 0., 0., 0., 0., 0., 0., 0., 2.17864919e-003,
          0., 0., 0., 0., 0., 0., 2.17864919e-003, 0., 0., 0., 0., 0.,
          0., 2.17864919e-003, 0., 0., 0., 0., 0., 0., 0., 0., 0., 0.,
          0., 2.17864919e-003, 2.17864919e-003, 0., 0., 2.17864919e-003,
          0., 2.17864919e-003, 0., 0., 0., 0., 0., 0., 0., 0., 0., 0.,
          0., 0., 0., 0., 0., 0., 0., 0., 0., 0., 0., 0.,
          2.17864919e-003, 0., 0., 0., 0., 4.35729837e-003, 0., 0., 0.,
          0., 0., 0., 0., 0., 0., 0., 0., 0., 0., 0., 0., 0., 0., 0., 0.,
          4.35729837e-003, 0., 0., 2.17864919e-003, 2.17864919e-003,
          2.17864919e-003, 0., 2.17864919e-003, 2.17864919e-003, 0.,
          2.17864919e-003, 0., 0., 0., 0., 0., 0., 0., 0., 0., 0., 0.,
          0., 0., 0., 4.35729837e-003, 0., 0., 0., 2.17864919e-003, 0.,
          0., 0., 0., 0., 8.71459674e-003, 2.17864919e-003,
          2.61437893e-002, 0., 0., 0., 0., 2.17864919e-003, 0., 0., 0.,
          0., 0., 8.71459674e-003, 0., 0., 0., 4.35729837e-003, 0., 0.,
          0., 0., 0., 0., 0., 0., 0., 4.35729837e-003, 0., 0., 0., 0.,
          0., 0., 0., 0., 0., 0., 0., 0., 1.30718946e-002, 0., 0., 0.,
          0., 0., 0., 0., 2.17864919e-003, 0., 0., 0., 2.17864919e-003,
          4.35729837e-003, 0., 0., 0., 0., 0., 0., 0., 0., 0., 0., 0.,
          8.71459674e-003, 0., 0., 0., 0., 0., 0., 0., 0., 0., 0., 0.,
          0., 0., 0., 0., 0., 0., 0., 0., 0., 0., 0., 4.35729837e-003,
          0., 0., 0., 0., 0., 0., 0., 0., 0., 0., 4.35729837e-003,
          4.35729837e-003, 0., 0., 0., 0., 0., 0., 0., 0., 0., 0., 0.,
          0., 0., 0., 0., 0., 0., 0., 0., 0., 0., 2.17864919e-003, 0.,
          0., 0., 4.35729837e-003, 0., 8.71459674e-003, 0., 0.,
          2.17864919e-003, 0., 2.17864919e-003, 0., 0., 0., 0., 0., 0.,
          0., 0., 0., 0., 0., 0., 0., 4.35729837e-003, 0.,
          2.17864919e-003, 0., 0., 0., 2.17864919e-003, 0.,
          8.71459674e-003, 0., 0., 0., 0., 0., 0., 0., 0., 0., 0., 0.,
          0., 0., 2.17864919e-003, 0., 0., 0., 0., 0., 0., 0., 0., 0.,
          4.35729837e-003, 0., 0., 0., 0., 0., 0., 0., 0., 0.,
          4.35729837e-003, 0., 0., 0., 2.17864919e-003, 0., 0. ]
      - [ 0., 0., 6.97674416e-003, 0., 0., 0., 0., 0., 0., 0., 0., 0.,
          2.32558139e-003, 0., 0., 0., 4.65116277e-003, 0., 0., 0., 0.,
          2.32558139e-003, 0., 2.32558139e-003, 0., 0., 0., 0.,
          4.65116277e-003, 0., 0., 2.32558139e-003, 0., 4.65116277e-003,
          2.32558139e-003, 0., 0., 4.65116277e-003, 0., 0.,
          2.32558139e-003, 2.32558139e-003, 0., 0., 0., 0., 0., 0.,
          2.32558139e-003, 2.32558139e-003, 0., 0., 0., 0.,
          2.32558139e-003, 0., 9.30232555e-003, 0., 9.30232555e-003, 0.,
          0., 0., 0., 0., 0., 0., 2.32558139e-003, 0., 0., 0., 0., 0.,
          0., 0., 0., 1.86046511e-002, 0., 4.65116277e-003, 0., 0., 0.,
          0., 2.32558139e-003, 0., 0., 0., 0., 2.32558139e-003, 0., 0.,
          0., 0., 0., 0., 0., 0., 0., 0., 0., 0., 0., 0., 0., 0.,
          2.32558139e-003, 2.32558139e-003, 0., 0., 0., 0.,
          2.32558139e-003, 0., 2.32558139e-003, 0., 0., 0., 0., 0.,
          2.32558139e-003, 0., 0., 0., 2.32558139e-003, 0., 0., 0., 0.,
          0., 2.32558139e-003, 0., 2.32558139e-003, 0., 0., 0., 0., 0.,
          0., 2.32558139e-003, 0., 0., 0., 0., 0., 0., 0., 0., 0., 0.,
          2.32558139e-003, 0., 0., 0., 0., 0., 0., 4.65116277e-003, 0.,
          0., 0., 0., 0., 0., 0., 0., 0., 0., 0., 0., 2.32558139e-003,
          0., 0., 0., 0., 0., 0., 0., 0., 0., 6.97674416e-003, 0., 0.,
          0., 2.32558139e-003, 0., 0., 0., 6.97674416e-003, 0., 0., 0.,
          0., 0., 0., 0., 0., 0., 0., 0., 2.32558139e-003,
          4.65116277e-003, 0., 0., 0., 0., 0., 0., 0., 6.97674416e-003,
          0., 0., 2.32558139e-003, 0., 0., 0., 0., 0., 0., 0., 0., 0.,
          0., 4.65116277e-003, 0., 0., 0., 2.32558139e-003,
          4.65116277e-003, 0., 0., 0., 0., 2.32558139e-003, 0., 0., 0.,
          2.32558139e-003, 0., 0., 6.97674416e-003, 0., 0.,
          2.32558139e-003, 0., 0., 0., 0., 0., 0., 0., 0., 0., 0.,
          2.32558139e-003, 0., 0., 2.32558139e-003, 0., 0., 0.,
          2.32558139e-003, 0., 0., 2.32558139e-003, 0., 0.,
          2.32558139e-003, 0., 0., 0., 0., 0., 4.65116277e-003,
          4.65116277e-003, 0., 0., 4.65116277e-003, 0., 0., 0., 0., 0.,
          0., 0., 2.32558139e-003, 0., 2.32558139e-003, 0., 0., 0., 0.,
          9.30232555e-003, 0., 2.32558139e-003, 0., 0., 0., 0., 0., 0.,
          0., 0., 0., 9.30232555e-003, 2.32558139e-003, 0.,
          2.32558139e-003, 0., 0., 0., 0., 2.32558139e-003,
          4.65116277e-003, 0., 0., 0., 0., 0., 0., 0., 0.,
          2.32558139e-003, 0., 2.32558139e-003, 0., 2.32558139e-003, 0.,
          0., 0., 0., 0., 0., 0., 0., 0., 0., 0., 1.86046511e-002, 0.,
          0., 0., 0., 0., 4.65116277e-003, 0., 0., 4.65116277e-003, 0.,
          0., 0., 0., 0., 0., 0., 2.32558139e-003, 4.65116277e-003, 0.,
          0., 0., 2.32558139e-003, 0., 6.97674416e-003, 0., 0.,
          4.65116277e-003, 2.32558139e-003, 0., 0., 0., 0., 0.,
          2.32558139e-003, 0., 0., 0., 0., 0., 0., 0., 0., 0., 0., 0.,
          0., 0., 0., 0., 2.32558139e-003, 2.32558139e-003, 0., 0., 0.,
          0., 0., 0., 0., 0., 4.65116277e-003, 0., 0., 4.65116277e-003,
          0., 0., 0., 0., 0., 0., 0., 1.39534883e-002, 0., 0.,
          4.65116277e-003, 0., 2.32558139e-003, 0., 0., 0., 0., 0.,
          2.32558139e-003, 4.65116277e-003, 2.32558139e-003, 0., 0., 0.,
          0., 0., 0., 0., 0., 0., 0., 0., 0., 0., 0., 0., 0., 0., 0., 0.,
          0., 0., 2.32558139e-003, 0., 0., 0., 0., 0., 9.30232555e-003,
          0., 0., 0., 0., 2.32558139e-003, 0., 4.65116277e-003, 0., 0.,
          0., 0., 2.32558139e-003, 0., 0., 0., 0., 0., 0., 0.,
          2.32558139e-003, 0., 0., 0., 0., 2.32558139e-003, 0., 0., 0.,
          0., 0., 0., 0., 0., 0., 0., 0., 0., 0., 0., 4.65116277e-003,
          0., 0., 0., 0., 0., 0., 0., 4.65116277e-003, 0., 0., 0., 0.,
          0., 0., 0., 0., 0., 4.65116277e-003, 0., 0., 0., 0., 0., 0.,
          0., 2.32558139e-003, 0., 0., 4.65116277e-003, 0., 0.,
          4.65116277e-003, 0., 2.32558139e-003, 0., 0., 4.65116277e-003,
          0., 1.16279069e-002, 2.32558139e-003, 0., 0., 2.32558139e-003,
          1.39534883e-002, 0., 0., 0., 0., 6.97674416e-003, 0.,
          2.32558139e-003, 0., 0., 0., 0., 0., 0., 0., 0., 0., 0.,
          2.32558139e-003, 2.32558139e-003, 4.65116277e-003,
          4.65116277e-003, 2.32558139e-003, 0., 0., 0., 0., 0., 0., 0.,
          6.97674416e-003, 0., 0., 0., 0., 0., 0., 0., 1.86046511e-002,
          0., 0., 0., 0., 0., 0., 0., 0., 0., 0., 0., 0., 0., 0., 0., 0.,
          9.30232555e-003, 6.97674416e-003, 0., 0., 0., 0.,
          2.32558139e-003, 0., 2.32558139e-003, 4.65116277e-003, 0., 0.,
          0., 0., 0., 0., 0., 0., 4.65116277e-003, 0., 0., 0., 0., 0.,
          0., 0., 0., 2.32558139e-003, 0., 0., 0., 0., 0., 0., 0., 0.,
          2.32558139e-003, 0., 0., 0., 4.65116277e-003, 2.32558139e-003,
          0., 0., 0., 2.32558139e-003, 0., 0., 0., 0., 0., 0., 0., 0.,
          0., 0., 0., 0., 0., 0., 2.32558139e-003, 2.32558139e-003,
          4.65116277e-003, 4.65116277e-003, 0., 0., 0., 0., 0., 0., 0.,
          0., 0., 0., 0., 0., 0., 0., 2.32558139e-003, 0., 0., 0., 0.,
          0., 0., 0., 2.32558139e-003, 0., 0., 0., 0., 0., 0., 0., 0.,
          0., 2.32558139e-003, 0., 0., 0., 0., 0., 0., 0., 0., 0., 0.,
          0., 0., 0., 0., 0., 0., 0., 0., 0., 0., 0., 0., 0., 0.,
          4.65116277e-003, 0., 0., 0., 0., 0., 0., 0., 0., 0., 0.,
          2.32558139e-003, 0., 0., 0., 0., 0., 0., 2.32558139e-003, 0.,
          2.32558139e-003, 0., 0., 2.32558139e-003, 2.32558139e-003, 0.,
          0., 0., 4.65116277e-003, 0., 0., 0., 0., 0., 4.65116277e-003,
          0., 0., 0., 0., 2.32558139e-003, 0., 0., 0., 0.,
          2.32558139e-003, 0., 0., 0., 0., 0., 0., 0., 0., 0., 0., 0.,
          0., 0., 0., 0., 0., 0., 0., 0., 0., 2.32558139e-003, 0.,
          6.97674416e-003, 0., 4.65116277e-003, 2.32558139e-003, 0., 0.,
          0., 0., 0., 1.16279069e-002, 0., 0., 0., 0., 0., 0.,
          2.32558139e-003, 0., 0., 4.65116277e-003, 0., 0., 0., 0., 0.,
          0., 0., 2.32558139e-003, 2.32558139e-003, 0., 0., 0.,
          2.32558139e-003, 0., 0., 0., 0., 0., 0., 0., 0., 0., 0., 0.,
          0., 0., 0., 4.65116277e-003, 0., 2.32558139e-003, 0., 0., 0.,
          0., 0., 9.30232555e-003, 0., 0., 0., 0., 0., 4.65116277e-003,
          2.32558139e-003, 4.65116277e-003, 0., 0., 0., 0., 0.,
          2.32558139e-003, 0., 0., 0., 0., 0., 0., 0., 0., 0., 0., 0.,
          2.32558139e-003, 0., 0., 0., 2.32558139e-003, 0., 0.,
          2.32558139e-003, 0., 0., 4.65116277e-003, 0., 0., 0., 0., 0.,
          0., 0., 6.97674416e-003, 4.65116277e-003, 0., 0., 0., 0., 0.,
          4.65116277e-003, 2.32558139e-003, 0., 0., 0., 0.,
          4.65116277e-003, 0., 0., 0., 2.32558139e-003, 0., 0., 0., 0.,
          0., 0., 0., 0., 0., 0., 0., 0., 0., 0., 0., 0., 0., 0.,
          2.32558139e-003, 0., 2.32558139e-003, 0., 0., 0.,
          2.32558139e-003, 0., 0., 0., 0., 0., 2.32558139e-003, 0., 0.,
          0., 0., 0., 0., 2.32558139e-003, 0., 0., 0., 4.65116277e-003,
          0., 0., 0., 0., 0., 0., 0., 0., 0., 0., 0., 2.32558139e-003,
          0., 0., 0., 0., 0., 2.32558139e-003, 0., 0., 0., 0., 0.,
          4.65116277e-003, 0., 0., 0., 0., 0., 0., 2.32558139e-003, 0.,
          0., 0., 0., 0., 0., 0., 0., 0., 0., 0., 4.65116277e-003, 0.,
          0., 2.32558139e-003, 0., 0., 0., 0., 0., 0., 0., 0., 0., 0.,
          2.32558139e-003, 0., 0., 0., 0., 0., 0., 0., 0., 0., 0., 0.,
          0., 0., 0., 0., 0., 0., 0., 0., 0., 0., 0., 0., 0., 0., 0.,
          2.32558139e-003, 0., 0., 0., 0., 0., 0., 0., 0.,
          4.65116277e-003, 0., 0., 0., 0., 0., 0., 0., 0., 0., 0., 0.,
          0., 0., 0., 2.32558139e-003, 2.32558139e-003, 0.,
          2.32558139e-003, 2.32558139e-003, 0., 6.97674416e-003, 0.,
          6.97674416e-003, 2.32558139e-003, 0., 0., 0., 2.32558139e-003,
          0., 0., 2.32558139e-003, 4.65116277e-003, 0., 0., 0., 0., 0.,
          0., 0., 0., 0., 0., 0., 0., 0., 0., 0., 0., 0., 0., 0., 0., 0.,
          0., 0., 0., 4.65116277e-003, 0., 0., 0., 0., 0.,
          2.32558139e-003, 0., 0., 0., 0., 2.32558139e-003, 0.,
          4.65116277e-003, 4.65116277e-003, 0., 0., 0., 0.,
          2.32558139e-003, 0., 2.32558139e-003, 0., 0., 0., 0., 0., 0.,
          0., 0., 0., 6.97674416e-003, 0., 2.32558139e-003, 0., 0., 0.,
          0., 0., 0., 2.32558139e-003, 0., 2.32558139e-003, 0.,
          6.97674416e-003, 0., 0., 0., 0., 0., 0., 0., 0., 0., 0., 0.,
          0., 0., 2.32558139e-003, 0., 0., 0., 0., 0., 0.,
          1.16279069e-002, 2.32558139e-003, 0., 0., 0., 0., 0., 0., 0.,
          6.97674416e-003, 0., 0., 0., 0., 0., 0., 0., 0., 0., 0., 0.,
          0., 0., 0., 0., 0., 0., 0., 0., 0., 0., 0., 0., 0., 0., 0., 0.,
          0., 0., 0., 0., 0., 0., 0., 0., 0., 0., 0., 4.65116277e-003,
          0., 0., 0., 0., 0., 0., 6.97674416e-003, 0., 0., 0., 0., 0.,
          2.32558139e-003, 4.65116277e-003, 0., 0., 0., 0., 0., 0., 0.,
          0., 4.65116277e-003, 0., 0., 0., 0., 0., 0., 0., 0., 0., 0.,
          0., 0., 0., 0., 0., 0., 0., 0., 0., 0., 0., 0., 0., 0., 0., 0.,
          0., 0., 0., 2.32558139e-003, 0., 0., 0., 0., 0., 0., 0., 0.,
          0., 0., 0., 0., 2.32558139e-003, 0., 0., 0., 0., 0., 0.,
          4.65116277e-003, 0., 0., 2.32558139e-003, 2.32558139e-003, 0.,
          0., 2.32558139e-003, 4.65116277e-003, 0., 0., 4.65116277e-003,
          0., 0., 0., 0., 0., 0., 0., 0., 0., 0., 0., 0., 0., 0.,
          2.32558139e-003, 0., 0., 0., 0., 0., 2.32558139e-003, 0., 0.,
          6.97674416e-003, 0., 6.97674416e-003, 0., 0., 0., 0., 0., 0.,
          0., 0., 0., 0., 0., 0., 0., 0., 0., 0., 0., 0., 0., 0., 0.,
          2.32558139e-003, 0., 0., 0., 0., 0., 0., 0., 0., 0., 0., 0.,
          0., 0., 0., 0., 0., 0., 0., 0., 0., 4.65116277e-003, 0., 0.,
          0., 0., 0., 0., 0., 0., 0., 0., 0., 2.32558139e-003,
          4.65116277e-003, 0., 0., 0., 0., 2.32558139e-003, 0.,
          4.65116277e-003, 0., 0., 0., 2.32558139e-003, 0., 0., 0., 0.,
          0., 0., 0., 0., 0., 2.32558139e-003, 0., 0., 9.30232555e-003,
          0., 0., 0., 0., 0., 0., 0., 0., 0., 0., 0., 0., 0., 0., 0.,
          4.65116277e-003, 0., 0., 0., 0., 0., 0., 0., 0., 0., 0., 0.,
          0., 0., 0., 0., 0., 0., 0., 0., 0., 0., 0., 0.,
          2.32558139e-003, 0., 0., 0., 0., 0., 1.16279069e-002, 0., 0.,
          0., 0., 2.32558139e-003, 0., 0., 0., 0., 0., 0., 0., 0., 0.,
          0., 0., 0., 0., 2.32558139e-003, 0., 0., 4.65116277e-003, 0.,
          0., 0., 0., 4.65116277e-003, 0., 0., 0., 0., 2.32558139e-003,
          0., 0., 0., 0., 0., 0., 2.32558139e-003, 0., 2.32558139e-003,
          0., 0., 0., 0., 0., 0., 0., 0., 0., 6.97674416e-003, 0., 0.,
          0., 0., 0., 0., 0., 2.32558139e-003, 0., 2.32558139e-003, 0.,
          2.32558139e-003, 0., 0., 0., 0. ]
      - [ 0., 2.21465062e-002, 5.11073228e-003, 1.70357747e-003, 0., 0.,
          1.70357747e-003, 1.70357747e-003, 0., 0., 0., 0.,
          1.70357747e-003, 0., 0., 0., 1.70357747e-003, 0., 0., 0., 0.,
          1.70357747e-003, 0., 0., 0., 0., 0., 0., 0., 0., 0., 0.,
          1.70357747e-003, 1.70357747e-003, 0., 0., 0., 0., 0.,
          1.70357747e-003, 8.51788744e-003, 0., 0., 0., 0.,
          3.40715493e-003, 0., 0., 0., 0., 0., 1.70357747e-003, 0., 0.,
          5.11073228e-003, 0., 0., 0., 1.70357747e-003, 1.70357747e-003,
          0., 0., 1.70357747e-003, 0., 0., 1.70357747e-003, 0.,
          5.11073228e-003, 0., 0., 0., 0., 0., 1.70357747e-003, 0., 0.,
          0., 3.40715493e-003, 0., 0., 0., 0., 1.70357747e-003, 0., 0.,
          0., 0., 5.11073228e-003, 0., 1.70357747e-003, 1.70357747e-003,
          0., 1.70357747e-003, 0., 0., 1.70357747e-003, 0., 0., 0., 0.,
          1.70357747e-003, 0., 1.70357747e-003, 0., 0., 0., 0., 0., 0.,
          0., 0., 0., 0., 0., 3.40715493e-003, 0., 0., 0.,
          1.70357747e-003, 0., 0., 0., 0., 0., 0., 0., 0.,
          3.40715493e-003, 6.81430986e-003, 0., 0., 0., 0., 0., 0.,
          3.40715493e-003, 0., 3.40715493e-003, 0., 0., 0., 0., 0.,
          3.40715493e-003, 0., 0., 0., 0., 0., 0., 0., 0., 0., 0.,
          1.70357747e-003, 0., 0., 0., 0., 0., 1.70357747e-003, 0.,
          1.70357747e-003, 0., 1.70357747e-003, 0., 0., 0., 0., 0.,
          1.70357747e-003, 1.70357747e-003, 0., 0., 0., 0., 0.,
          1.70357747e-003, 1.70357747e-003, 0., 3.40715493e-003,
          1.70357747e-003, 0., 0., 0., 0., 1.70357747e-003, 0.,
          1.70357747e-003, 0., 0., 3.40715493e-003, 0., 1.70357747e-003,
          0., 1.70357747e-003, 0., 0., 0., 5.11073228e-003, 0., 0., 0.,
          0., 0., 0., 1.70357747e-003, 1.70357747e-003, 0., 0.,
          6.81430986e-003, 1.70357747e-003, 0., 0., 0., 0., 0., 0., 0.,
          0., 0., 3.40715493e-003, 1.70357747e-003, 6.81430986e-003, 0.,
          1.70357747e-003, 0., 0., 0., 0., 0., 1.70357747e-003, 0.,
          3.40715493e-003, 0., 0., 0., 0., 1.02214646e-002, 0., 0., 0.,
          1.70357747e-003, 0., 1.70357747e-003, 0., 1.70357747e-003, 0.,
          0., 0., 5.11073228e-003, 0., 0., 0., 3.40715493e-003,
          1.70357747e-003, 5.11073228e-003, 0., 0., 3.40715493e-003, 0.,
          0., 0., 0., 3.40715493e-003, 0., 0., 3.40715493e-003, 0., 0.,
          3.40715493e-003, 0., 0., 0., 0., 0., 0., 0., 0., 0., 0., 0.,
          0., 1.70357747e-003, 0., 0., 0., 1.70357747e-003, 0., 0., 0.,
          5.11073228e-003, 1.70357747e-003, 0., 0., 0., 0., 0., 0., 0.,
          0., 0., 3.40715493e-003, 1.70357747e-003, 0., 0., 0., 0., 0.,
          0., 0., 0., 0., 0., 0., 0., 0., 3.40715493e-003, 0., 0., 0.,
          3.40715493e-003, 0., 0., 1.70357747e-003, 3.40715493e-003,
          5.11073228e-003, 0., 1.70357747e-003, 0., 0., 0.,
          1.70357747e-003, 0., 0., 1.70357747e-003, 0., 0., 0., 0., 0.,
          0., 0., 0., 0., 5.11073228e-003, 0., 0., 0., 0., 0., 0., 0.,
          0., 0., 0., 1.70357747e-003, 5.11073228e-003, 0.,
          3.40715493e-003, 1.70357747e-003, 0., 0., 3.40715493e-003,
          3.40715493e-003, 0., 1.70357747e-003, 5.11073228e-003, 0., 0.,
          1.70357747e-003, 0., 0., 0., 0., 0., 0., 1.70357747e-003, 0.,
          0., 0., 0., 0., 0., 0., 0., 0., 3.40715493e-003, 0., 0., 0.,
          0., 0., 0., 0., 0., 0., 0., 0., 5.11073228e-003,
          1.70357747e-003, 0., 0., 1.70357747e-003, 0., 0., 0., 0., 0.,
          0., 0., 3.40715493e-003, 0., 1.70357747e-003, 0.,
          3.40715493e-003, 0., 1.70357747e-003, 0., 1.70357747e-003,
          1.70357747e-003, 0., 0., 0., 0., 0., 0., 0., 1.70357747e-003,
          0., 0., 0., 0., 0., 0., 0., 0., 5.11073228e-003, 0.,
          3.40715493e-003, 0., 1.70357747e-003, 1.70357747e-003, 0., 0.,
          0., 0., 0., 6.81430986e-003, 1.70357747e-003, 0., 0., 0., 0.,
          6.81430986e-003, 0., 0., 1.70357747e-003, 0., 0., 0.,
          3.40715493e-003, 0., 0., 0., 3.40715493e-003, 0., 0., 0., 0.,
          0., 0., 0., 5.11073228e-003, 3.40715493e-003, 0., 0., 0., 0.,
          0., 0., 0., 0., 1.70357747e-003, 0., 0., 0., 0., 0., 0., 0.,
          0., 0., 0., 0., 0., 0., 1.70357747e-003, 0., 0., 0., 0.,
          1.70357747e-003, 0., 0., 0., 0., 0., 0., 0., 1.70357747e-003,
          0., 0., 0., 0., 1.70357747e-003, 3.40715493e-003,
          1.70357747e-003, 0., 1.70357747e-003, 5.11073228e-003, 0., 0.,
          0., 0., 0., 0., 5.11073228e-003, 0., 0., 0., 0., 0., 0.,
          1.70357747e-003, 0., 0., 0., 0., 1.70357747e-003, 0.,
          3.40715493e-003, 0., 0., 0., 1.70357747e-003, 0., 0., 0., 0.,
          0., 3.40715493e-003, 5.11073228e-003, 3.40715493e-003, 0.,
          1.70357747e-003, 1.70357747e-003, 3.40715493e-003, 0., 0., 0.,
          0., 0., 1.36286197e-002, 0., 0., 0., 0., 0., 0., 0., 0., 0.,
          0., 0., 0., 0., 1.70357747e-003, 0., 0., 0., 0., 0., 0., 0.,
          0., 0., 0., 0., 0., 0., 0., 0., 0., 0., 0., 1.70357747e-003,
          0., 0., 0., 0., 0., 0., 0., 0., 1.70357747e-003, 0., 0., 0.,
          0., 0., 0., 0., 0., 1.70357747e-003, 0., 0., 0., 0.,
          1.70357747e-003, 0., 0., 0., 3.40715493e-003, 0.,
          1.70357747e-003, 0., 0., 1.70357747e-003, 0., 0., 0., 0., 0.,
          1.70357747e-003, 0., 0., 0., 0., 0., 0., 0., 0., 0., 0., 0.,
          0., 0., 3.40715493e-003, 0., 5.11073228e-003, 0., 0.,
          1.70357747e-003, 0., 0., 0., 0., 0., 0., 0., 0.,
          3.40715493e-003, 0., 0., 3.40715493e-003, 0., 0., 0., 0., 0.,
          0., 3.40715493e-003, 0., 0., 0., 0., 0., 0., 0.,
